    0.213370861113071442E+03    0.348511993885040283E+00   -0.321447193622589111E+01    0.174252870655059816E+00   -0.811969988438154289E+01
    0.261765644522425077E+03   -0.727287796625158967E+00   -0.359622373905719428E+01    0.244772102068726655E+00   -0.807064198585121062E+01
    0.164933548075464785E+03   -0.335500765226664832E+00   -0.199442203879807378E+01    0.625142173794936279E-01   -0.787610387635743159E+01
    0.262778492271900177E+03   -0.199471336603164673E+01   -0.311692118644714355E+01    0.161484697222709667E+00   -0.783045001300219567E+01
    0.287757415155864464E+03   -0.171016418045610585E+01   -0.369178413101842029E+01    0.245485254791318830E+00   -0.766196989848969778E+01
    0.159181123620148639E+03    0.278029059247523858E+00   -0.381161675477018358E+01    0.521970108878415884E+00   -0.747466685305326539E+01
    0.243643550487151515E+03   -0.296026291816581466E+00   -0.423688128238849249E+01    0.411867391645321657E+00   -0.731857089542212869E+01
    0.251640757884766913E+03    0.499794667145588623E+00   -0.358135127809116049E+01    0.725984727765605492E-01   -0.731557195330936860E+01
    0.263162410259246826E+03    0.279692411422729492E-01   -0.370931267738342285E+01    0.145159241938591005E+00   -0.676636611212739947E+01
    0.152600315512676787E+03   -0.163244705573067916E+01   -0.347208877953737494E+01    0.555441551148101342E+00   -0.666651355137465451E+01
    0.210754889328130957E+03    0.818855786776411243E-01   -0.282022099088062550E+01    0.288459685826602356E-01   -0.662749830437155474E+01
    0.302488180994987488E+03   -0.188144940137863159E+01   -0.330179274082183838E+01    0.454155698776245106E-01   -0.656238675155552542E+01
    0.177574152556201682E+03   -0.184830201806748606E+01   -0.361305037723539524E+01    0.486912015565316436E+00   -0.652208281462270545E+01
    0.264377236366271973E+03   -0.758976221084594727E+00   -0.365611135959625244E+01    0.168376950001716624E+00   -0.642902759497941290E+01
    0.258497861027717590E+03   -0.131942772865295410E+01   -0.441454112529754639E+01    0.429352131843566909E+00   -0.637633684190127958E+01
    0.348752705752849579E+03   -0.944387853145599365E+00   -0.414302945137023926E+01    0.134828846311569217E+00   -0.637301138049927829E+01
    0.191807641402415271E+03   -0.422794763576146426E+00   -0.261146838083153954E+01    0.615848857011902576E-01   -0.637172673840726844E+01
    0.197904264926910400E+03   -0.100372135639190674E+00   -0.338347852230072021E+01    0.224641948056221008E+00   -0.607048249730442890E+01
    0.280248980752066700E+03   -0.188799094201342088E+01   -0.405169808855128988E+01    0.276280332423856245E+00   -0.602675029987441757E+01
    0.260751238465309143E+03   -0.367305040359497070E+00   -0.407623350620269775E+01    0.245730302309989934E+00   -0.600313777315976882E+01
    0.202221809464632798E+03   -0.128403732394748005E+00   -0.391679100141625236E+01    0.357810130733027254E+00   -0.595162001481792213E+01
    0.195900614559650421E+03    0.452427387237548828E+00   -0.462301254272460938E+01    0.481409632945060728E+00   -0.594686345368708835E+01
    0.149791309237480164E+03    0.726521253585815430E+00   -0.495513737201690674E+01    0.184153792691230778E+00   -0.571434590993856606E+01
    0.136641336977481842E+03   -0.141770511865615845E+01   -0.449564039707183838E+01    0.270639770579338079E+00   -0.570952954370477261E+01
    0.340991111527997191E+03    0.291579410899441172E+00   -0.450754304617968682E+01    0.926528417221955114E-01   -0.568238246558591165E+01
    0.127392289042472839E+03    0.623948037624359131E+00   -0.267389774322509766E+01    0.757583840131759723E-01   -0.556774379231703165E+01
    0.154901757984670496E+03   -0.619749075068637412E+00   -0.363854106177789838E+01    0.455660612127655684E+00   -0.547146464030950330E+01
    0.162612912239953801E+03    0.101045576177466678E+00   -0.450893579974301950E+01    0.648144976544198087E-01   -0.545618512896810337E+01
    0.133706852793693542E+03    0.815336346626281738E+00   -0.383716881275177002E+01    0.332093490600585961E-01   -0.542644665631738210E+01
    0.137691083063992693E+03   -0.748976689115646188E+00   -0.278686271802938501E+01    0.292021424493215553E+00   -0.541583142729066935E+01
    0.199054265441431482E+03    0.633370540667787640E+00   -0.355332320870117346E+01    0.824234570996376995E-02   -0.538915326746865020E+01
    0.159509231779307129E+03   -0.463502927026078870E+00   -0.495355344069769998E+01    0.263850027136367016E+00   -0.536954008733773325E+01
    0.258638128959354958E+03    0.359696818547653230E+00   -0.466192894176876482E+01    0.284580039899391235E+00   -0.535939647769386163E+01
    0.327537205966480485E+03   -0.951709963281341276E+00   -0.404641788588427787E+01    0.723439283828051088E-01   -0.531725733080661733E+01
    0.318375510157950259E+03   -0.178179378680657874E+01   -0.443400422449358533E+01    0.238690602337919222E+00   -0.527844419403139842E+01
    0.132129496074290302E+03   -0.600723169555165359E+00   -0.411961775594456192E+01    0.174223069878339881E+00   -0.518490563101583035E+01
    0.230068700858733450E+03    0.162359286465081354E+00   -0.397681224242825238E+01    0.184603319676242272E+00   -0.516403779902440352E+01
    0.173001329171406894E+03    0.758818618662729705E+00   -0.429661413632633149E+01    0.126780539129914160E+00   -0.509193795784097603E+01
    0.204209303557446617E+03    0.712532618730057798E+00   -0.409072288133669559E+01    0.329536196707506251E-01   -0.509124670817619052E+01
    0.348737175762653351E+03   -0.111303031444549561E+01   -0.485669851303100586E+01    0.248160267162323006E+00   -0.502517960658385654E+01
    0.200016362521975736E+03    0.732949766494490618E-01   -0.444042658529705658E+01    0.415868807103765448E+00   -0.499169593685606916E+01
    0.226936240018967055E+03   -0.911378367226332031E+00   -0.430950035472844917E+01    0.364724384862814888E+00   -0.496742620450831396E+01
    0.275379681038630906E+03   -0.768230863694143506E+00   -0.448828618723431561E+01    0.269149292882161939E+00   -0.494352718885651843E+01
    0.283694103360176086E+03   -0.183027017116546631E+01   -0.401413559913635254E+01    0.174258363604545607E+00   -0.494290652789493024E+01
    0.132804646180686234E+03    0.534936348178483012E+00   -0.468988728877207173E+01    0.257594873197996344E+00   -0.492101888119764919E+01
    0.240916547608721658E+03   -0.147112622402924020E+01   -0.474727510567184829E+01    0.472133590999094965E+00   -0.490674194588713419E+01
    0.176822405746434839E+03   -0.162193331777000171E+01   -0.493288206366326154E+01    0.296171883033021832E+00   -0.488327089940714032E+01
    0.174720138514224857E+03    0.703483716954099947E+00   -0.413889385064288540E+01    0.111109464268813879E+00   -0.488090375826869138E+01
    0.166375875752175887E+03   -0.135083999235735286E+01   -0.391122622222138983E+01    0.475504681956946174E+00   -0.483339401409857494E+01
    0.207339941752295090E+03    0.539242729661162379E+00   -0.434467724498286945E+01    0.213661861435753497E+00   -0.483321554516081964E+01
    0.170934091883289682E+03   -0.497278408566884211E+00   -0.363142365421533597E+01    0.325125219302998203E+00   -0.482997696736054039E+01
    0.193844964803253589E+03   -0.352123261493884510E+00   -0.417973520753737482E+01    0.388557790947354431E+00   -0.482961243958880004E+01
    0.168547710584811568E+03   -0.110546903380803707E+01   -0.397036946132971202E+01    0.469527672892581904E+00   -0.481503965693465563E+01
    0.164579509624127041E+03   -0.138709404279533555E+01   -0.374581421286314775E+01    0.434042388192702522E+00   -0.481316083949680973E+01
    0.270144455134868622E+03   -0.745544433593750000E-01   -0.472800970077514648E+01    0.286724320793151854E+00   -0.477414567240815835E+01
    0.137478999417366396E+03    0.230318736094223819E+00   -0.467900183028371952E+01    0.274776110063613743E+00   -0.477071953204931720E+01
    0.254428650335910447E+03   -0.519231498474935771E+00   -0.493553248735847827E+01    0.420424355201533984E+00   -0.474900908792078891E+01
    0.153949753038499864E+03    0.694871684813285651E+00   -0.412103636807172791E+01    0.159928246936725305E+00   -0.474395613303648123E+01
    0.258453367528401770E+03   -0.118485150508806214E+01   -0.403577608649317288E+01    0.190370711065229931E+00   -0.473419063252224603E+01
    0.206794700432371599E+03    0.667555579645859432E+00   -0.416113648822022153E+01    0.186554870013766957E-01   -0.471025019814945178E+01
    0.273387455619437560E+03   -0.567464873082111465E+00   -0.419589284133059426E+01    0.156615634898113032E+00   -0.470707559009469811E+01
    0.222669714440233946E+03   -0.121674840257802708E+01   -0.460586628816820998E+01    0.499035792866462033E-01   -0.468985944348479400E+01
    0.149422707779445318E+03   -0.930907310164924784E+00   -0.347441809682790348E+01    0.380772357968025499E+00   -0.466954244997461387E+01
    0.270445841550827026E+03   -0.112787258625030518E+01   -0.493426620960235596E+01    0.400498691725730938E+00   -0.464877833139655827E+01
    0.270445841550827026E+03   -0.112787258625030518E+01   -0.493426620960235596E+01    0.400498691725730938E+00   -0.464877833139655827E+01
    0.183337454044073382E+03   -0.233694074046065792E+00   -0.325635133567712121E+01    0.119251830069296974E+00   -0.463314591515541885E+01
    0.183337454044073382E+03   -0.233694074046065792E+00   -0.325635133567712121E+01    0.119251830069296974E+00   -0.463314591515541885E+01
    0.300867979228496552E+03   -0.182217615842819214E+01   -0.495919942855834961E+01    0.367266893219947821E+00   -0.462019063415247366E+01
    0.246938293459513375E+03   -0.505724761004189283E+00   -0.427935677257981339E+01    0.237504353783077160E+00   -0.459011174869322680E+01
    0.194619423125492517E+03   -0.124684779432999249E+01   -0.386692141309852389E+01    0.324497779436125733E+00   -0.458030190385417146E+01
    0.344518552875931391E+03   -0.168555707908039998E+01   -0.407275819443735632E+01    0.227689118049103911E-01   -0.457530328869519831E+01
    0.251506654873066850E+03   -0.698610704091968682E+00   -0.447186159825775142E+01    0.284316428142892208E+00   -0.451828698184017874E+01
    0.322030969189725624E+03   -0.291420905436256206E+00   -0.429972003012008930E+01    0.414691516375147590E-01   -0.451622930373873999E+01
    0.177779826167323307E+03   -0.288675617792590877E-01   -0.315350192171280286E+01    0.797578730250314283E-01   -0.451003588365770280E+01
    0.197935070097446442E+03   -0.829560160636901855E-01   -0.466736555099487305E+01    0.462301606392860442E+00   -0.450098968092914831E+01
    0.137927535775150773E+03   -0.428788251660348951E+00   -0.383043699294080220E+01    0.114775465165711049E+00   -0.449560330723516532E+01
    0.240790733603778506E+03    0.486817995699794004E+00   -0.409526704467426317E+01    0.285001547295306579E-01   -0.448821529682564346E+01
    0.240790733603778506E+03    0.486817995699794004E+00   -0.409526704467426317E+01    0.285001547295306579E-01   -0.448821529682564346E+01
    0.187211817997963863E+03   -0.675841208191086507E+00   -0.464074960356716293E+01    0.156489056241175511E+00   -0.448607105241790816E+01
    0.178503203920409760E+03   -0.402774062278203004E+00   -0.283100665572364019E+01    0.105364806151946842E-01   -0.447875334446063000E+01
    0.292056780011928026E+03   -0.121412998532886274E+01   -0.415101911713212779E+01    0.118947518251102585E+00   -0.447780793307694758E+01
    0.165639189612199488E+03    0.204144360414526993E+00   -0.319219446854410993E+01    0.106039725900166609E+00   -0.446578095327231583E+01
    0.165639189612199488E+03    0.204144360414526993E+00   -0.319219446854410993E+01    0.106039725900166609E+00   -0.446578095327231583E+01
    0.260790630302582031E+03   -0.121151759966975803E+00   -0.408966471651628805E+01    0.991530825291201678E-01   -0.442109568450563017E+01
    0.260790630302582031E+03   -0.121151759966975803E+00   -0.408966471651628805E+01    0.991530825291201678E-01   -0.442109568450563017E+01
    0.203255891852242002E+03    0.257091689480279939E+00   -0.489874200399026183E+01    0.113735197006848879E+00   -0.441168020173508335E+01
    0.146565117770762726E+03   -0.141810148662340452E+01   -0.381818836740305745E+01    0.491538452872590403E+00   -0.440724442969561547E+01
    0.126760257333672925E+03   -0.123236813292859537E+01   -0.365487171935556709E+01    0.536045102461090051E+00   -0.440651922094894388E+01
    0.143866014480590820E+03    0.283885240554809570E+00   -0.303616583347320557E+01    0.133118491959571844E+00   -0.440558458292788568E+01
    0.143866014480590820E+03    0.283885240554809570E+00   -0.303616583347320557E+01    0.133118491959571844E+00   -0.440558458292788568E+01
    0.284646643933909445E+03   -0.147173797623214186E+01   -0.497068119572927625E+01    0.370627713435383366E+00   -0.440431849140096343E+01
    0.243931770453667582E+03   -0.113562999505134554E+01   -0.499474366425478689E+01    0.126109444057419501E+00   -0.439553208657185834E+01
    0.177398227352947913E+03   -0.265169159881947225E+00   -0.435740166371508053E+01    0.923637313755975575E-01   -0.438944289254806819E+01
    0.156565731330155756E+03   -0.542587098900841003E+00   -0.494033435058957338E+01    0.372994986709931919E+00   -0.438505687853976234E+01
    0.316646207869052887E+03   -0.547633171081542969E-01   -0.489956915378570557E+01    0.183913228797912609E+00   -0.438091119680569197E+01
    0.175495997728198347E+03   -0.191525667845384429E+01   -0.476019947600313476E+01    0.323316524873177191E+00   -0.437997244224377535E+01
    0.250209632300517796E+03   -0.127682389245051797E+01   -0.411433814077125604E+01    0.200175379385551327E+00   -0.436328379660875054E+01
    0.250209632300517796E+03   -0.127682389245051797E+01   -0.411433814077125604E+01    0.200175379385551327E+00   -0.436328379660875054E+01
    0.241885336258562461E+03   -0.468401841581959744E+00   -0.445446595053887684E+01    0.269746295688181092E+00   -0.434436902466813724E+01
    0.147891446793598107E+03    0.400631674462641918E+00   -0.430549621952670680E+01    0.150798320038537464E+00   -0.434108311920413037E+01
    0.147891446793598107E+03    0.400631674462641918E+00   -0.430549621952670680E+01    0.150798320038537464E+00   -0.434108311920413037E+01
    0.146816147531945518E+03   -0.400258720349890185E+00   -0.423371362817660568E+01    0.207436472291510826E+00   -0.433653783479100330E+01
    0.239440020910982639E+03   -0.633797303502647846E-01   -0.467204035715009258E+01    0.305226314373201246E+00   -0.432730742524086587E+01
    0.245282701709476385E+03   -0.953850843058975384E+00   -0.349962112537029135E+01    0.158828918711757215E-01   -0.432621917939502243E+01
    0.245282701709476385E+03   -0.953850843058975384E+00   -0.349962112537029135E+01    0.158828918711757215E-01   -0.432621917939502243E+01
    0.160389826993686682E+03   -0.678710910647880805E+00   -0.398089596841160587E+01    0.423277479016038793E+00   -0.431160643481873684E+01
    0.242386488616466522E+03   -0.989528894424438477E+00   -0.484232664108276367E+01    0.883911784172058124E-01   -0.430504260142376882E+01
    0.144743663288575902E+03   -0.913853598772204512E+00   -0.369562288020889795E+01    0.990632706464799756E-01   -0.430059150124798073E+01
    0.255886416595447741E+03   -0.444870538273137495E+00   -0.497616633826424248E+01    0.372546848881773585E+00   -0.429552033771549979E+01
    0.204676569504508649E+03   -0.507307353211801093E-01   -0.479674882300244310E+01    0.446547863095358322E+00   -0.429334521059813934E+01
    0.204676569504508649E+03   -0.507307353211801093E-01   -0.479674882300244310E+01    0.446547863095358322E+00   -0.429334521059813934E+01
    0.234052569344794904E+03   -0.210739596946979635E+00   -0.486529331613907789E+01    0.383791057084759080E+00   -0.429101600398498562E+01
    0.134497953176632848E+03   -0.306400432619033269E+00   -0.386377153811211160E+01    0.159124525555410401E+00   -0.428316580486385678E+01
    0.144797929183186483E+03   -0.517769493110636025E+00   -0.317048601263708463E+01    0.243198581117688301E+00   -0.428296005152812143E+01
    0.329124282351940337E+03   -0.530426427965921210E+00   -0.489556888916966315E+01    0.181280579798644426E+00   -0.428078895505029156E+01
    0.266009182963826788E+03   -0.123099320221882236E+01   -0.436034895556055258E+01    0.212231073105050294E+00   -0.427777353020456719E+01
    0.266009182963826788E+03   -0.123099320221882236E+01   -0.436034895556055258E+01    0.212231073105050294E+00   -0.427777353020456719E+01
    0.215156479709856512E+03   -0.110706189152734868E+01   -0.421006680518931287E+01    0.311809389511156776E+00   -0.427353198500217424E+01
    0.127354463950303938E+03    0.185720751175147747E+00   -0.376867319297590742E+01    0.128540160207005427E+00   -0.424095376859700401E+01
    0.293883574485448207E+03   -0.186373452750424295E+01   -0.413768601252354173E+01    0.110210290802807309E+00   -0.422668821153844387E+01
    0.135445089072857058E+03   -0.528353006350178456E+00   -0.345196391995747476E+01    0.578481156849040765E-01   -0.422136406430479028E+01
    0.164407118336443034E+03   -0.873610937772067109E+00   -0.391078533923342597E+01    0.385200214677269281E+00   -0.421083621167522804E+01
    0.290689542038555032E+03   -0.113795379125051088E+01   -0.401758735072454876E+01    0.466450014615841721E-01   -0.420405086539880202E+01
    0.290689542038555032E+03   -0.113795379125051088E+01   -0.401758735072454876E+01    0.466450014615841721E-01   -0.420405086539880202E+01
    0.171157845902844059E+03   -0.133532710829582757E+01   -0.376081961796974973E+01    0.457223470463459791E-01   -0.420353011534456300E+01
    0.171157845902844059E+03   -0.133532710829582757E+01   -0.376081961796974973E+01    0.457223470463459791E-01   -0.420353011534456300E+01
    0.127090927511970719E+03    0.311191989333694963E+00   -0.418486194552214030E+01    0.251213058837190251E+00   -0.417947678498408504E+01
    0.290225290702035068E+03   -0.102335192204258085E+01   -0.412722056948630378E+01    0.687611845583201153E-01   -0.417809003850082217E+01
    0.305422352743926695E+03    0.222060572825736546E+00   -0.457809931843021722E+01    0.451885343323746996E-01   -0.417365627025892749E+01
    0.189880796334180104E+03   -0.970023282387159291E+00   -0.394095341182053760E+01    0.291512456979322543E+00   -0.416681316151983427E+01
    0.147428289616359194E+03   -0.303249855516170008E+00   -0.476099783356747430E+01    0.376261871207524690E+00   -0.415918075945184906E+01
    0.176631805238497037E+03    0.444409954959772868E+00   -0.466694356152399159E+01    0.165371868562325025E+00   -0.412441212889214981E+01
    0.175824236548938472E+03   -0.188553464838075580E+01   -0.379387432699220550E+01    0.759822358215315047E-01   -0.412143789017884465E+01
    0.183304828554737981E+03   -0.780370827972638237E+00   -0.486377491613892943E+01    0.557083731293825823E+00   -0.411918700113760039E+01
    0.183304828554737981E+03   -0.780370827972638237E+00   -0.486377491613892943E+01    0.557083731293825823E+00   -0.411918700113760039E+01
    0.342854991123223840E+03   -0.498373771056414228E+00   -0.472914840679262038E+01    0.873147171620162060E-01   -0.411535266675976086E+01
    0.342854991123223840E+03   -0.498373771056414228E+00   -0.472914840679262038E+01    0.873147171620162060E-01   -0.411535266675976086E+01
    0.329809166599361447E+03   -0.473398843955170401E+00   -0.461371629901115021E+01    0.721373104839629353E-01   -0.410092086236616105E+01
    0.154187966568159112E+03   -0.117625679917017001E+00   -0.302000565439924573E+01    0.100881816088074047E+00   -0.410060348424566445E+01
    0.173565579375957441E+03   -0.104026540675275214E+01   -0.283011948564158988E+01    0.230654697682687940E-01   -0.409112755900558156E+01
    0.173565579375957441E+03   -0.104026540675275214E+01   -0.283011948564158988E+01    0.230654697682687940E-01   -0.409112755900558156E+01
    0.244621486743737307E+03   -0.148467039744758345E+01   -0.486947893709560553E+01    0.401354318961958501E+00   -0.408339570378515226E+01
    0.158465786877799246E+03   -0.700279774701417779E-02   -0.440136389637306280E+01    0.466669781664337924E+00   -0.407859113084649572E+01
    0.158465786877799246E+03   -0.700279774701417779E-02   -0.440136389637306280E+01    0.466669781664337924E+00   -0.407859113084649572E+01
    0.252909652888774872E+03   -0.138342577219009399E+01   -0.484692573547363281E+01    0.366536160349845874E+00   -0.407823248229474178E+01
    0.128946849464946354E+03    0.345378741054300775E+00   -0.378811054174772455E+01    0.367172066632201477E+00   -0.407805633958845792E+01
    0.128946849464946354E+03    0.345378741054300775E+00   -0.378811054174772455E+01    0.367172066632201477E+00   -0.407805633958845792E+01
    0.235933635756440935E+03   -0.450271818365793886E+00   -0.431185806591623777E+01    0.205749409818626633E+00   -0.407686685805062154E+01
    0.150850488467886862E+03    0.478936801781447041E+00   -0.365534226742767920E+01    0.276592795943048043E-02   -0.407324117622132675E+01
    0.215969626605510712E+03   -0.876720190048217773E+00   -0.346203446388244629E+01    0.476907086133956937E-01   -0.404795209974105674E+01
    0.215969626605510712E+03   -0.876720190048217773E+00   -0.346203446388244629E+01    0.476907086133956937E-01   -0.404795209974105674E+01
    0.328185653839238057E+03   -0.150453962300579080E+01   -0.439193099106905382E+01    0.601923895285671473E-01   -0.403864781482562663E+01
    0.343617791468744713E+03   -0.143953270116317134E+01   -0.434661887114396617E+01    0.167093821157696561E-01   -0.402744927472902337E+01
    0.343617791468744713E+03   -0.143953270116317134E+01   -0.434661887114396617E+01    0.167093821157696561E-01   -0.402744927472902337E+01
    0.140665663654941824E+03   -0.905230192549313584E+00   -0.443250461077700564E+01    0.376750657954541268E+00   -0.401874379667935600E+01
    0.191254505515098572E+03   -0.295787155628204346E+00   -0.481784522533416748E+01    0.475945103502273592E+00   -0.401776478109064961E+01
    0.191254505515098572E+03   -0.295787155628204346E+00   -0.481784522533416748E+01    0.475945103502273592E+00   -0.401776478109064961E+01
    0.179068495670232807E+03   -0.402045824965387766E+00   -0.308141415810982489E+01    0.158684337078446765E-01   -0.401443784343810428E+01
    0.278139978245291786E+03   -0.142247073437159699E+00   -0.429117365725681488E+01    0.561519986087819778E-01   -0.400863029323658715E+01
    0.278139978245291786E+03   -0.142247073437159699E+00   -0.429117365725681488E+01    0.561519986087819778E-01   -0.400863029323658715E+01
    0.153296005222348271E+03    0.368808688243121630E+00   -0.368278099218555077E+01    0.194766796214228405E+00   -0.399981619381115117E+01
    0.267133437610821602E+03   -0.917900624559173650E-01   -0.484538910305931836E+01    0.774111127965037768E-02   -0.399179904328326041E+01
    0.294512605667114258E+03   -0.169725441932678223E+01   -0.453371405601501465E+01    0.174372794365882877E+00   -0.398651683300172710E+01
    0.320307941214254242E+03   -0.191363437762425082E+01   -0.411215022244766892E+01    0.587837331284104050E-02   -0.398347087720844595E+01
    0.225770330675622688E+03   -0.188589470713263374E+01   -0.457466250403801222E+01    0.163309520769990973E+00   -0.398332567646348989E+01
    0.158915788500138291E+03   -0.250553907884871530E+00   -0.377885296565866557E+01    0.291228782054696878E+00   -0.398287832344172310E+01
    0.128311159645424993E+03    0.410357237404412434E+00   -0.279092364059242470E+01    0.366521980186612154E-01   -0.398146230936237844E+01
    0.149721742898769918E+03    0.444609798380603216E+00   -0.314880195356206283E+01    0.572732536513678725E-02   -0.398098665823966336E+01
    0.145619192761756551E+03   -0.718095533358691362E+00   -0.494826681181791184E+01    0.498501428945553660E+00   -0.398080394976881813E+01
    0.223867871001150604E+03   -0.508646288908482402E+00   -0.412974983640340731E+01    0.180504374548699276E+00   -0.398072033746376519E+01
    0.348225393492717672E+03   -0.128422445969923582E+01   -0.459868668054625829E+01    0.627079699275682190E-01   -0.397371743098816221E+01
    0.348225393492717672E+03   -0.128422445969923582E+01   -0.459868668054625829E+01    0.627079699275682190E-01   -0.397371743098816221E+01
    0.223096875158574562E+03   -0.591485537208908951E-01   -0.487594410598017891E+01    0.361519681940566218E+00   -0.397224862575690318E+01
    0.137616312932158195E+03    0.395787768915055516E+00   -0.314411581452870337E+01    0.972152527486667556E-01   -0.396719986064254648E+01
    0.242266325473306097E+03   -0.345207868234292725E+00   -0.389544251581133594E+01    0.441972433104299012E-01   -0.396514309036479196E+01
    0.141805095289904614E+03   -0.872812725054861183E-01   -0.430473210812043217E+01    0.507980430322453991E+00   -0.396334478600964069E+01
    0.183036740124225616E+03   -0.177219533920288086E+01   -0.432837665081024170E+01    0.221299095940589913E+00   -0.396005023438070136E+01
    0.166227332650903605E+03   -0.672679630684451801E+00   -0.398151088315406154E+01    0.128793285135101271E+00   -0.395872554006107835E+01
    0.180468954145908356E+03    0.490760803222656250E-01   -0.388320147991180420E+01    0.187134758377075189E+00   -0.395761198676230386E+01
    0.135960893049393263E+03   -0.997578339174964857E+00   -0.377492647536783643E+01    0.440173409905700141E+00   -0.395654610451911282E+01
    0.132534684286687536E+03    0.469516364023990551E+00   -0.425966759210099877E+01    0.313344460772951083E+00   -0.395542563947199799E+01
    0.132534684286687536E+03    0.469516364023990551E+00   -0.425966759210099877E+01    0.313344460772951083E+00   -0.395542563947199799E+01
    0.197919417978575211E+03   -0.134734763997019513E+01   -0.338274012723336082E+01    0.901475024396416608E-01   -0.395177464727652872E+01
    0.215482381010270103E+03   -0.152662723407637380E+01   -0.467258798343701542E+01    0.411836347799153180E+00   -0.394866771481737899E+01
    0.215482381010270103E+03   -0.152662723407637380E+01   -0.467258798343701542E+01    0.411836347799153180E+00   -0.394866771481737899E+01
    0.141215791575520825E+03   -0.147466500087747754E+00   -0.367837262146335764E+01    0.329476601886250053E+00   -0.394636432262153658E+01
    0.197090210259076741E+03   -0.988788282429236443E+00   -0.399523232382887761E+01    0.439729335007973607E-01   -0.394109881407812734E+01
    0.329690474271774292E+03   -0.157849246263504028E+01   -0.444755613803863525E+01    0.572208053827285776E-01   -0.393863715611498222E+01
    0.161375702755965591E+03   -0.287635314603584824E+00   -0.343259642107861085E+01    0.174439629059956636E+00   -0.393823415237231433E+01
    0.132967603956854447E+03   -0.192519276985999355E+00   -0.414806957601094606E+01    0.299008589553114268E+00   -0.393317808687822579E+01
    0.157220499266090627E+03   -0.136103206293097800E+01   -0.375890357413313270E+01    0.149699998635243386E+00   -0.392736868366355507E+01
    0.162967365327189214E+03   -0.148953044595010953E+01   -0.360696877371569080E+01    0.910069401797631156E-01   -0.392538258848400901E+01
    0.164012610143160316E+03   -0.458799677791322802E+00   -0.338811820620456183E+01    0.160571148017812720E+00   -0.392390808894624854E+01
    0.140221404588425798E+03   -0.930093160066960856E+00   -0.439107175706474795E+01    0.389518656876636171E+00   -0.391176974408684419E+01
    0.151215039812592863E+03   -0.999087022695920091E+00   -0.439279948263934727E+01    0.343113119509392994E+00   -0.390781242272062235E+01
    0.151215039812592863E+03   -0.999087022695920091E+00   -0.439279948263934727E+01    0.343113119509392994E+00   -0.390781242272062235E+01
    0.130989694595336914E+03   -0.185331016778945923E+01   -0.358378112316131592E+01    0.440022851514816293E+00   -0.390630498186208985E+01
    0.266302606463432312E+03   -0.163339066505432129E+01   -0.378051936626434326E+01    0.448971855640411394E-02   -0.390530722134951969E+01
    0.344107303038589862E+03   -0.183735351154419391E+01   -0.446422779471694131E+01    0.416989109565890220E-01   -0.390183052172056755E+01
    0.179240996425367456E+03   -0.250429519310923165E+00   -0.458247361417198462E+01    0.225122822666822264E+00   -0.389355012640104547E+01
    0.145095539093017578E+03    0.177076995372772217E+00   -0.307621479034423828E+01    0.687561016559600918E-01   -0.387950841103197952E+01
    0.173238698430882494E+03    0.374456352290935435E+00   -0.384275746139869145E+01    0.122617027497443590E+00   -0.387565212604649023E+01
    0.204086521619041548E+03   -0.145610696723344146E+00   -0.454348942171370407E+01    0.135530418197406910E+00   -0.387300300471370562E+01
    0.275826684870162694E+03   -0.694655675635331704E+00   -0.425235928780446493E+01    0.589756451526104869E-01   -0.387014808080014916E+01
    0.171826175777930445E+03   -0.438944922637376722E+00   -0.336242294556123378E+01    0.108180274035089050E+00   -0.386997265421066494E+01
    0.159158378196610101E+03   -0.181617534547308335E+00   -0.393063072553578152E+01    0.126158862155192286E+00   -0.386449350924828527E+01
    0.187761020686238453E+03   -0.640610090522786280E-02   -0.455261013499663303E+01    0.174942248956077046E+00   -0.386208801947613978E+01
    0.187761020686238453E+03   -0.640610090522786280E-02   -0.455261013499663303E+01    0.174942248956077046E+00   -0.386208801947613978E+01
    0.132320233345967836E+03    0.232873566546900612E+00   -0.421827134307565199E+01    0.304651806528827729E+00   -0.385763896292413122E+01
    0.142345367627262704E+03   -0.450425677094003163E+00   -0.312157953842618552E+01    0.162187303681875061E+00   -0.385534164712230520E+01
    0.140097918047892819E+03   -0.137376553039601879E+01   -0.395385507595263697E+01    0.304581021391323703E+00   -0.385455946779230629E+01
    0.272767185711017646E+03   -0.166048681777695628E+01   -0.481111178765140579E+01    0.268585806549707484E+00   -0.385371548049165380E+01
    0.214413987730433007E+03    0.397096906097338831E+00   -0.466886944355946110E+01    0.113227837504604786E+00   -0.385282184726107646E+01
    0.190078088641166687E+03   -0.185428023338317871E+01   -0.395629405975341797E+01    0.126948340272903443E+00   -0.385067235705079591E+01
    0.187827159318040003E+03   -0.878658487488535034E+00   -0.432985706765807610E+01    0.178100664086943500E+00   -0.384989314751169065E+01
    0.136992807009705245E+03   -0.606674714293501172E+00   -0.309242754323470637E+01    0.188048100309862548E+00   -0.384718663919887804E+01
    0.140678116172301316E+03    0.281278352343319327E+00   -0.333529016371892650E+01    0.760400650661669994E-02   -0.384248200592464961E+01
    0.171337173646275829E+03   -0.441802434305910818E+00   -0.458321453882573415E+01    0.458788282529764169E+00   -0.384188437863074483E+01
    0.127294160425662994E+03   -0.654143154621124268E+00   -0.470398366451263428E+01    0.547476884651184048E+00   -0.384159614291772389E+01
    0.196683763567811468E+03    0.408828564271394246E+00   -0.396029004288381614E+01    0.410050285358546374E-01   -0.384146760889032990E+01
    0.167773450583822637E+03   -0.112401651813021086E+00   -0.433540053534866132E+01    0.375583905508507843E+00   -0.382861742627847512E+01
    0.228232790926795076E+03   -0.125447721550200497E+01   -0.442836122768311924E+01    0.258340562489195846E+00   -0.382843568864665773E+01
    0.143771283508343856E+03   -0.854324152688303862E+00   -0.297254156622513754E+01    0.128120172825579193E+00   -0.382432281938439189E+01
    0.238557296305713749E+03   -0.182214934898468384E+01   -0.433913586131246998E+01    0.907975390551188782E-01   -0.382409742662311158E+01
    0.125574277166904551E+03   -0.105247691827136181E+01   -0.364910105160818743E+01    0.430790513819168053E+00   -0.382173205179997622E+01
    0.168826783630697804E+03    0.811692384083739782E-02   -0.467532853785017366E+01    0.299267269339874020E+00   -0.382150570902462672E+01
    0.279428688356039629E+03   -0.165625518089480739E+01   -0.469034129579443793E+01    0.760616186089639601E-01   -0.381975613574746120E+01
    0.172153596580028534E+03   -0.155356955528259277E+01   -0.435067772865295410E+01    0.301451361894607528E+00   -0.381906667347593887E+01
    0.271040458393758684E+03   -0.198233884184391362E+01   -0.394660028456667078E+01    0.300919075209085535E-01   -0.381751033926478467E+01
    0.223665061279854456E+03    0.399812804877266892E+00   -0.464180111160055375E+01    0.100880473225518338E+00   -0.381399059604443469E+01
    0.188157636925612820E+03   -0.164968943544018964E+01   -0.407234909839747949E+01    0.163505565158644228E+00   -0.381334650948828813E+01
    0.160454932963975637E+03   -0.637802178045818957E+00   -0.416067004478701286E+01    0.384391105557371493E+00   -0.381324145006117821E+01
    0.141276632924461580E+03   -0.480859410668590170E+00   -0.401823283946050047E+01    0.268522744901345700E+00   -0.381275240700239948E+01
    0.174196542231810298E+03   -0.916361987446954185E-01   -0.374507729897346930E+01    0.165818024774038036E-01   -0.381262153252455693E+01
    0.201649205386638641E+03   -0.893678903579711914E+00   -0.368874251842498779E+01    0.109906720376014719E+00   -0.381254618964183489E+01
    0.192956479106738072E+03   -0.160700191687181926E+01   -0.380468203298512719E+01    0.203772826573296623E+00   -0.380991055432741454E+01
    0.233355108011277309E+03    0.745136537475303840E-01   -0.483600173205674189E+01    0.255188160319693713E+00   -0.380742510744107454E+01
    0.346994823297317510E+03   -0.122113289092967325E+01   -0.459679497441834162E+01    0.234786520714898583E-01   -0.380734057538675241E+01
    0.306901098154950205E+03   -0.527948378918038808E+00   -0.480137597498598190E+01    0.115435628545821845E+00   -0.380708894755674265E+01
    0.280157697233998988E+03   -0.166022545248766695E+01   -0.494462680889484840E+01    0.275107002009925161E+00   -0.380243520929675949E+01
    0.169604530379067342E+03   -0.827000852000005171E+00   -0.349421913020087338E+01    0.161881324832316487E+00   -0.380051488630642620E+01
    0.131891336246270811E+03    0.195847415028213234E+00   -0.337796377100285206E+01    0.805807171498680863E-01   -0.380037876868522773E+01
    0.255504496104108455E+03   -0.174610258472048696E+01   -0.474274153859079650E+01    0.166087395545005845E+00   -0.379537107201717783E+01
    0.214780567328393261E+03   -0.125882264740355687E+00   -0.492007789178811183E+01    0.368085179860489553E+00   -0.379507737060007555E+01
    0.152534873166178727E+03   -0.549476119449671119E+00   -0.348726600673994280E+01    0.707807638554217855E-01   -0.379399893506674601E+01
    0.157836406611106383E+03   -0.103174621591244997E+01   -0.350371217646119693E+01    0.218782357069516431E+00   -0.379240446210018112E+01
    0.210648557762039928E+03   -0.139288266625932478E+01   -0.452831936214377961E+01    0.339959428537223163E+00   -0.379236636077349676E+01
    0.250338219106197357E+03   -0.175440514087677002E+01   -0.410760939121246338E+01    0.433717491388320928E-01   -0.371757934536488399E+01
    0.239640705068435750E+03   -0.139510497052571392E+01   -0.429351323789994321E+01    0.130268679579579050E+00   -0.370271487468482130E+01
    0.233529287345512955E+03   -0.173192628840979967E+01   -0.404590866579203556E+01    0.879373406130693619E-01   -0.371253284330313971E+01
    0.266792827963721606E+03   -0.191459519885019236E+01   -0.390222424937215528E+01    0.114722375041998604E-01   -0.377658039917358668E+01
    0.203871870377682455E+03   -0.146048335018356834E+01   -0.406116792172952579E+01    0.133887316305503934E+00   -0.373278329988332302E+01
    0.221279072050955392E+03   -0.170845562329639278E+01   -0.387229076138082906E+01    0.961479431910712556E-01   -0.372592776023823502E+01
    0.215450592339038849E+03   -0.187191736698150635E+01   -0.413024246692657471E+01    0.165004893136024483E+00   -0.371891848697998650E+01
    0.184182308005080074E+03   -0.163559225862742941E+01   -0.370465749973317138E+01    0.864554867008566624E-01   -0.375800809867955099E+01
    0.192338435605803681E+03   -0.149276426791307393E+01   -0.355621091545631618E+01    0.950626893162935353E-02   -0.377026583315949004E+01
    0.204712895676159633E+03   -0.186332081621204426E+01   -0.382323219975222850E+01    0.150028804935903176E+00   -0.374063469789933700E+01
    0.210663655176331019E+03   -0.128219183596235387E+01   -0.379166769051871855E+01    0.816772852333047250E-01   -0.370784137058363683E+01
    0.204838542344627854E+03   -0.178356182386253659E+01   -0.449460086553277094E+01    0.255589753044741963E+00   -0.377955613007830182E+01
    0.239773242926902043E+03   -0.188145101735673359E+01   -0.451295881093793838E+01    0.247972568909996333E+00   -0.375755031444274668E+01
    0.206884216619324320E+03   -0.162163429391191261E+01   -0.470153639954442593E+01    0.377703948072778739E+00   -0.372355400489436938E+01
    0.214326862294642552E+03   -0.137582077261663271E+01   -0.432473135251140572E+01    0.209715138928894262E+00   -0.369984155143341020E+01
    0.225641661135334857E+03   -0.153318561717376545E+01   -0.451519923344448504E+01    0.246258090171608879E+00   -0.371002885616815314E+01
    0.213809547126534312E+03   -0.148763578054914669E+01   -0.426055089428074574E+01    0.200546648128440863E+00   -0.370398287582532459E+01
    0.258512781053651224E+03   -0.119030351807894652E+01   -0.427357662311159281E+01    0.995462623445794170E-01   -0.374716347939408312E+01
    0.224834802760330092E+03   -0.750864175361686037E+00   -0.433444758167006938E+01    0.112077557184105961E+00   -0.370096372659176076E+01
    0.267459095984872988E+03   -0.102830513390700551E+01   -0.408790414955244685E+01    0.176027238537250531E-01   -0.375478779604717428E+01
    0.259724490771743149E+03   -0.111038560158709121E+01   -0.415211380039914690E+01    0.434492250867939342E-01   -0.371810052804581748E+01
    0.271221150351672463E+03   -0.144199698996938031E+01   -0.432214601480629934E+01    0.564384220458096289E-01   -0.370373056322862837E+01
    0.257860554754734039E+03   -0.152097427845001221E+01   -0.450319945812225342E+01    0.130083688545227061E+00   -0.370526094578664456E+01
    0.181974365380418078E+03   -0.197172801230857320E+01   -0.405170585503372571E+01    0.262414249955185752E+00   -0.372092789627235554E+01
    0.216082483430974207E+03   -0.123735188157363951E+01   -0.420162275595213153E+01    0.117978011549242368E+00   -0.373508037412067262E+01
    0.232925315259949826E+03   -0.900116711835809769E+00   -0.430970556899244617E+01    0.715768115955712908E-01   -0.373093154605806898E+01
    0.158538360621622786E+03   -0.136568334134444269E+01   -0.383170324344098345E+01    0.206430537387852553E+00   -0.377768501885162689E+01
    0.285124251142007324E+03   -0.757699035075171778E+00   -0.496943455946041990E+01    0.104230957506100258E+00   -0.376360400363812886E+01
    0.281083838326663454E+03   -0.948140050910577514E-01   -0.477648941758379841E+01    0.122420955971399709E+00   -0.374851386448607915E+01
    0.292339377025020212E+03    0.668131184783415932E-02   -0.497100181343931435E+01    0.997750534760482449E-01   -0.368922139265256055E+01
    0.266087896326785881E+03    0.183096626120142769E+00   -0.489623002741370872E+01    0.805079853615243701E-01   -0.373327386533779171E+01
    0.272645601240298788E+03   -0.304118764872874259E+00   -0.455725657639025350E+01    0.790500806480334689E-01   -0.371543340962767488E+01
    0.266936462409761816E+03   -0.864056760636159105E+00   -0.441231864096563875E+01    0.728093576604123965E-01   -0.369785150123336415E+01
    0.287575792052521422E+03   -0.693554247584169836E+00   -0.432533406852441704E+01    0.322173886533810459E-02   -0.370737663189496169E+01
    0.284469228246439798E+03   -0.164049585166395118E+01   -0.496625448560622917E+01    0.213957234955384212E+00   -0.370818870225119612E+01
    0.341146176302254844E+03   -0.180039533186872980E+01   -0.487748316435293638E+01    0.793189697291621365E-01   -0.371346025665501678E+01
    0.281677900832107412E+03   -0.125231927809651244E+01   -0.493517136202369144E+01    0.232946487147738079E+00   -0.374914438268201655E+01
    0.329488272987722439E+03   -0.156178731566666440E+01   -0.489178616622230322E+01    0.143914132714986126E+00   -0.379192984529175892E+01
    0.312847758813206610E+03   -0.190262579740958171E+01   -0.482107788946484828E+01    0.158298203677032234E+00   -0.376402688584994660E+01
    0.231724631086930231E+03   -0.158507209200709820E+01   -0.490646065052235159E+01    0.286581226950990475E+00   -0.374865895019345663E+01
    0.289471594240297463E+03   -0.134334086507020967E+01   -0.480514383224320252E+01    0.157082128247789693E+00   -0.370542524659623318E+01
    0.250907648446339635E+03   -0.138445872479104448E+01   -0.480595340333960053E+01    0.205668418620520460E+00   -0.372290476321658659E+01
    0.268130311443334563E+03   -0.141285810996628580E+01   -0.481411523830372534E+01    0.182946496077017406E+00   -0.370181953249252160E+01
    0.317802221236600872E+03   -0.116669329569824254E+01   -0.476957690367249043E+01    0.289261844621536111E-01   -0.370764011232088730E+01
    0.315340532636696878E+03   -0.129474319474640498E+01   -0.494104564107382238E+01    0.733729502576261072E-01   -0.373439017349830582E+01
    0.324196648620806172E+03   -0.142318579965063252E+01   -0.466273543325118922E+01    0.203087531850426987E-01   -0.370111773627321039E+01
    0.308091878109659092E+03   -0.118817279003122822E+01   -0.483190285518942186E+01    0.915234662231998730E-01   -0.369302118509919142E+01
    0.327586495790263939E+03   -0.170517332547646916E+01   -0.474121981436197615E+01    0.695638043753904756E-01   -0.371474109398145114E+01
    0.332028957146858147E+03   -0.126698031202427952E+01   -0.496395162790581335E+01    0.881499507508458763E-01   -0.369569590175240981E+01
    0.277526631951332092E+03   -0.182043290138244629E+01   -0.462196946144104004E+01    0.157400706338882451E+00   -0.372547565328623520E+01
    0.320293675438082403E+03   -0.170514686137571836E+01   -0.461382482491706458E+01    0.794034300093400397E-01   -0.376213421767296863E+01
    0.194930053889318970E+03   -0.157231710513661516E+01   -0.467715730842810018E+01    0.421021353468009896E+00   -0.374132738640961371E+01
    0.132502239281133626E+03   -0.820542946192511113E+00   -0.447543173095962388E+01    0.545209336186436855E+00   -0.368335991431580378E+01
    0.147971272025577576E+03   -0.744607381933132251E+00   -0.456975885334970933E+01    0.514938429715396495E+00   -0.369476362362847244E+01
    0.150139833896443292E+03   -0.896681356409792185E+00   -0.472115910750159529E+01    0.520084984617822932E+00   -0.369027478470182313E+01
    0.171043480454108334E+03   -0.106659626538779984E+01   -0.476051911119034177E+01    0.477367327737774461E+00   -0.369249696808574601E+01
    0.172544230383826743E+03   -0.160168032704785634E+01   -0.338430570531422958E+01    0.764880882783072757E-01   -0.371278486608850544E+01
    0.235447286254988001E+03   -0.265345747818628297E+00   -0.419309414447802986E+01    0.490110067390024315E-01   -0.368316260236918769E+01
    0.195364964008331299E+03   -0.124327659606933594E+01   -0.407501041889190674E+01    0.240440319013595583E+00   -0.375666976607552128E+01
    0.172132501006126404E+03   -0.142296546697616577E+01   -0.377731144428253174E+01    0.166311259818077095E+00   -0.372350881195598893E+01
    0.186883020617801833E+03   -0.125638574428663663E+01   -0.350020645605294156E+01    0.690882820663212827E-01   -0.370899726997682500E+01
    0.149323121679285293E+03   -0.119000353762938960E+01   -0.336968369399256407E+01    0.175945119577304243E+00   -0.369901320513473042E+01
    0.167924069478838646E+03   -0.592507682814919612E+00   -0.346910075339136359E+01    0.486570069046573725E-01   -0.369771643247224313E+01
    0.144250237979271560E+03   -0.113281487827035865E+01   -0.341035651730596490E+01    0.172788680406443379E+00   -0.370248533831590132E+01
    0.194276440272802631E+03   -0.126207209031574141E+01   -0.368437869453491595E+01    0.795886761472587023E-01   -0.369622936137246816E+01
    0.202378856023025094E+03   -0.489068999477195732E+00   -0.352421115462830503E+01    0.750405175829684055E-02   -0.372857679876226999E+01
    0.139997189234904624E+03   -0.962132984616107301E+00   -0.322009074020612118E+01    0.126920845441834157E+00   -0.369740132364428709E+01
    0.164364482907004373E+03   -0.125409946678212791E+01   -0.345082278749969129E+01    0.710374131209402931E-01   -0.376319980371232088E+01
    0.142750389334829578E+03   -0.131302821255866320E+01   -0.328464687950979162E+01    0.118471794881501724E+00   -0.376941377093244290E+01
    0.127784374009062446E+03   -0.138471525974179199E+01   -0.343062073489853736E+01    0.301770883062173145E+00   -0.370053239375816245E+01
    0.187673412756180653E+03   -0.749825759700597949E+00   -0.342770777213610023E+01    0.557715401019757626E-01   -0.377719922399099994E+01
    0.188444478135098421E+03   -0.683872495580412298E+00   -0.404967895794796018E+01    0.985744647861465512E-01   -0.379220807800314041E+01
    0.192730954405759348E+03   -0.330645376792081613E+00   -0.405592939538405073E+01    0.172528905128656762E+00   -0.371057322766700226E+01
    0.166052255034446716E+03   -0.567778348922729492E-01   -0.351981580257415771E+01    0.938018360137939447E-02   -0.373599992800032510E+01
    0.243418492510281965E+03    0.126217893616727750E+00   -0.438085770195149138E+01    0.727034570220779081E-01   -0.376486044936636510E+01
    0.202226296067237854E+03    0.215430438518524170E+00   -0.421443104743957520E+01    0.113298463153839110E+00   -0.374322405950166326E+01
    0.220995688263735843E+03    0.225513166110213881E+00   -0.434407727518282272E+01    0.411114329806759327E-01   -0.375302017657475018E+01
    0.216115770461470220E+03   -0.430406413575590285E-01   -0.418865911092142706E+01    0.509664173163811435E-01   -0.369418130402713407E+01
    0.169346132884072233E+03   -0.187097269648539122E+00   -0.379487636181716237E+01    0.182147274725367098E+00   -0.372441540103599511E+01
    0.180249353666266586E+03   -0.313048896424039658E+00   -0.385228564522387451E+01    0.153856720968466393E+00   -0.372513305316563992E+01
    0.168356624548786328E+03   -0.465094907109199873E+00   -0.405278674917402704E+01    0.186361231445024089E+00   -0.373516823998288050E+01
    0.191594662077699752E+03    0.198720516509589551E-01   -0.423968047549242666E+01    0.204637441623376770E+00   -0.373904012743469805E+01
    0.190613733226475347E+03    0.957104590411370637E-01   -0.419364562694523801E+01    0.162121817669727969E+00   -0.371605136809967140E+01
    0.177505382478022085E+03   -0.276620639216259789E+00   -0.393774441635220107E+01    0.208271325507869282E+00   -0.377410670948511617E+01
    0.175275200439238006E+03   -0.741646600520673438E-01   -0.343835551375110526E+01    0.232991330790383163E-02   -0.368015169822527888E+01
    0.152835472251993338E+03   -0.553311396354116081E+00   -0.348513432664855793E+01    0.115979087466456701E+00   -0.369123603544057977E+01
    0.214010183435973261E+03    0.430011694888126073E-01   -0.436363650148161497E+01    0.153836416247833202E+00   -0.371980460087664522E+01
    0.212125051044790098E+03    0.361883286027513851E+00   -0.460449147336270315E+01    0.149092865511373296E+00   -0.378686454995247956E+01
    0.176802936855747703E+03   -0.113553011635013323E+01   -0.352008027849804872E+01    0.136307865169784381E+00   -0.376209117189541331E+01
    0.171018605864245870E+03   -0.174731791317897400E+00   -0.439938347121589324E+01    0.330975004010432172E+00   -0.369315069633369264E+01
    0.135902923765979835E+03    0.227503946983948602E+00   -0.403157128868086634E+01    0.341022006731716065E+00   -0.376763557446753516E+01
    0.141453779692638477E+03   -0.265883763496387537E+00   -0.428288301965298235E+01    0.410855365600321709E+00   -0.367700617580693256E+01
    0.156465510146654879E+03   -0.114940109847811112E+00   -0.435171074234945454E+01    0.335972588497206515E+00   -0.367931116811251435E+01
    0.173865599148763408E+03   -0.800616459990410867E-01   -0.457543464718808401E+01    0.396306707564798133E+00   -0.377210792728350430E+01
    0.167739687385389857E+03   -0.478876677064047573E+00   -0.451372742854100473E+01    0.423011289190037998E+00   -0.373577240489857765E+01
    0.189193341935009414E+03   -0.333452942153416920E+00   -0.468639578472654073E+01    0.286091943201068233E+00   -0.371404405196871013E+01
    0.185165868429993139E+03   -0.202444075130687740E+00   -0.488266279371128498E+01    0.408044242275088731E+00   -0.369200428233661526E+01
    0.196596908925750995E+03   -0.600162849129364906E+00   -0.489751374167132703E+01    0.370575650036243820E+00   -0.368458424979834609E+01
    0.202389164239103366E+03   -0.142172630696019375E+00   -0.491609528555515585E+01    0.331207372790727650E+00   -0.367845047354185484E+01
    0.158521500291758741E+03    0.174281345105615326E+00   -0.427288271759246641E+01    0.262949771689375555E+00   -0.372387132104655905E+01
    0.173488147276076489E+03   -0.225310013480215510E+00   -0.499916126550952455E+01    0.410232250654050445E+00   -0.376174939890486781E+01
    0.171352073334301366E+03   -0.587886240400740778E+00   -0.494774610765957945E+01    0.477164198266195605E+00   -0.368400638010153925E+01
    0.173983507549539183E+03   -0.407261377594936080E+00   -0.447144269870045186E+01    0.396426436589284559E+00   -0.379118144979185168E+01
    0.178376359534365122E+03    0.245911384935965760E+00   -0.453418434574855400E+01    0.225590269491079076E+00   -0.376107019684812460E+01
    0.187330749174422323E+03   -0.484285784690767329E+00   -0.481067531073866128E+01    0.318591514021382638E+00   -0.375717068251536634E+01
    0.183139827319576540E+03   -0.130998751384393408E+01   -0.434368284950677896E+01    0.243358895477572862E+00   -0.378080069263418661E+01
    0.173032563265853753E+03   -0.148188200600010589E+01   -0.404314126069671698E+01    0.313615686809758654E+00   -0.374328904245428706E+01
    0.141972331938230070E+03   -0.154597210656674910E+01   -0.371100934503627311E+01    0.331152059024872047E+00   -0.371247281457682954E+01
    0.155649591457207521E+03   -0.779348314340749360E+00   -0.411521101231314201E+01    0.382261667804742189E+00   -0.375953577667914374E+01
    0.169906043018521046E+03   -0.798942145168074713E+00   -0.413222548076727492E+01    0.337789403144755196E+00   -0.377888371952090063E+01
    0.150556132908648891E+03   -0.164123581971921961E+01   -0.380057027664941671E+01    0.332626756153163616E+00   -0.372582531169882181E+01
    0.125544436932574484E+03   -0.150848766600285900E+01   -0.401133242341696139E+01    0.524793774658208423E+00   -0.373672839050650607E+01
    0.147952256236494918E+03   -0.849152267698353613E+00   -0.430824843074624564E+01    0.411029271487478920E+00   -0.368663937310624545E+01
    0.153478103033092907E+03   -0.128476793897427988E+01   -0.436136351878463113E+01    0.438003879475609370E+00   -0.369670926384174647E+01
    0.138300543213081539E+03   -0.132327906017672703E+01   -0.430186871197516041E+01    0.462023455539799122E+00   -0.372238129891617398E+01
    0.160707745337289367E+03   -0.106433518931193372E+01   -0.435325511674274956E+01    0.372991899579912356E+00   -0.369743030509903026E+01
    0.134853020953181499E+03   -0.111353535183402674E+01   -0.403481765607550713E+01    0.359255956723728398E+00   -0.378227753327241967E+01
    0.132731026695676405E+03   -0.799572681807849017E+00   -0.417763937790356277E+01    0.406065053302675671E+00   -0.373925837679710149E+01
