    0.203708333148444495E+03   -0.324768025139386740E+00   -0.167069777113566742E+01    0.373502336167680027E+00   -0.650649130894968053E+01
    0.317254774272441864E+03   -0.166233491897583008E+01   -0.305144786834716797E+01    0.559729642009735073E+00   -0.635016728804322117E+01
    0.282957654428429123E+03    0.377778247098004449E+00   -0.202658824839435203E+01    0.175558562421911729E+00   -0.622178802869834069E+01
    0.255883136391639709E+03   -0.427946746349334717E+00   -0.178526401519775391E+01    0.281522190570831332E+00   -0.609680989736228351E+01
    0.348419991135597229E+03    0.663328588008880615E+00   -0.303868234157562256E+01    0.286946085834503206E+00   -0.580435705925800249E+01
    0.325061397254467010E+03   -0.228271484375000000E-01   -0.231830120086669922E+01    0.252495569014549281E+00   -0.576184699802744316E+01
    0.248588456515524229E+03    0.251851206907286684E+00   -0.176415849687829951E+01    0.253955432739064901E+00   -0.552641746252005461E+01
    0.342184887826442719E+03   -0.182545489072799683E+01   -0.281393766403198242E+01    0.524834571576118458E+00   -0.529568203773213586E+01
    0.185715931653976440E+03   -0.866280853748321533E+00    0.159394145011901855E+01    0.346323641538619997E+00   -0.513468798291089534E+01
    0.295322512090206146E+03   -0.194317150115966797E+01    0.184036910533905029E+01    0.354429665565490701E-01   -0.506132857045023510E+01
    0.258921864628791809E+03    0.897809088230133057E+00   -0.919882059097290039E+00    0.283207980179786711E+00   -0.503374075128244947E+01
    0.235639257729053497E+03    0.438801407814025879E+00    0.160570383071899414E+01    0.232157292366027852E-02   -0.496605319703961179E+01
    0.337038560211658478E+03    0.829187631607055664E+00   -0.205607175827026367E+01    0.127138546442985528E+00   -0.486865264995869040E+01
    0.234936583563747035E+03    0.921492251536796925E+00   -0.179480389158467624E+01    0.511947962919548916E+00   -0.485686881549081928E+01
    0.182873627099452875E+03   -0.659564459345972853E+00    0.146797177953791014E+01    0.352430495939695443E+00   -0.483992368087912883E+01
    0.329909785091876984E+03    0.739494740962982178E+00   -0.240239441394805908E+01    0.231324922871589678E+00   -0.477351704815134426E+01
    0.235523614287376404E+03   -0.114728552103042603E+01   -0.576993227005004883E+00    0.141386029171943678E+00   -0.476227893829074400E+01
    0.133461149036884308E+03   -0.953080356121063232E+00   -0.303468704223632812E+00    0.440627007722854624E+00   -0.472314333456238167E+01
    0.280986683849611438E+03    0.865498442004462021E+00   -0.275822536968187570E+01    0.523229997299214822E+00   -0.460297708552954443E+01
    0.189765518045308141E+03   -0.623791713876885368E+00    0.206828431467132035E+00    0.438866582601561556E-01   -0.450727485749715306E+01
    0.254507552087306976E+03   -0.154448956251144409E+01   -0.569626092910766602E+00    0.140085906028747570E+00   -0.447950971017706312E+01
    0.317743687331676483E+03   -0.169203162193298340E+00   -0.177663505077362061E+01    0.231101997828483591E+00   -0.445196649604529071E+01
    0.260581406127838648E+03   -0.390488474472931113E+00   -0.914416766812717441E+00    0.141371699608222601E+00   -0.443371557363049895E+01
    0.142479002110240089E+03   -0.193208141016696211E+01    0.311885134521144280E+01    0.101410570250243956E+00   -0.443052297768012338E+01
    0.246005915105342865E+03    0.848750948905944824E+00   -0.135262012481689453E+01    0.318495438265800512E+00   -0.435806929330232418E+01
    0.230798882348535187E+03    0.728407965328209173E+00   -0.476239307466389761E+00    0.327423817687109486E+00   -0.431236071952321343E+01
    0.170420342544666738E+03   -0.860834827713259587E+00    0.135882281855216203E+01    0.409049007131997711E+00   -0.427665292748898729E+01
    0.130887825009006860E+03   -0.158494489974871788E+01    0.657048219085626606E+00    0.258409100638943401E+00   -0.427204834079279028E+01
    0.156332921981811523E+03    0.772443711757659912E+00    0.843881368637084961E+00    0.148239319539070130E+00   -0.426780085678529630E+01
    0.278100450336933136E+03   -0.370758652687072754E+00   -0.227407157421112061E+01    0.495864585399627689E+00   -0.426075219402552285E+01
    0.152472648843734532E+03    0.364834319366948989E+00    0.236277699436527655E+00    0.957239353967137691E-01   -0.425765074324950277E+01
    0.210625325143337250E+03    0.571359932422637939E+00   -0.564771890640258789E-01    0.404128473687171974E+00   -0.422893318838960575E+01
    0.233902666946645013E+03   -0.142397018374399509E+01   -0.428253734307554978E+00    0.175043537567435986E+00   -0.417631957348815952E+01
    0.233898744904235798E+03   -0.131214672776171803E+01   -0.850566143831011701E+00    0.290412411349985466E+00   -0.415608703728310580E+01
    0.205400164881288561E+03   -0.352007769010863392E+00    0.182388356288204712E+00    0.141027932377972044E-01   -0.415439500246815818E+01
    0.237555213272571564E+03   -0.125937342643737793E+01    0.153553485870361328E-01    0.291232087612152100E-01   -0.415326784540515614E+01
    0.136905886555381358E+03   -0.610646368178839882E+00    0.236606328034608815E+01    0.231928498171580399E+00   -0.414596391699446087E+01
    0.255270409550936222E+03    0.730990809300302580E+00   -0.100769280936496841E-02    0.890989249214577811E-01   -0.413406046738406285E+01
    0.192109362226898952E+03   -0.178961371372626132E+00    0.130838974964129573E+01    0.269243335417080509E+00   -0.410092236378345198E+01
    0.211700698892660057E+03   -0.151437051508413290E+01   -0.205853399708200158E+00    0.200785442512436463E+00   -0.406551751321008226E+01
    0.209336758905040199E+03    0.489508842704582392E+00   -0.199915941383955609E+01    0.526126230097574199E+00   -0.406144497961478468E+01
    0.339383455156750642E+03   -0.445331587789995265E+00   -0.154851631961890623E+01    0.185665491524501902E+00   -0.404824427104975904E+01
    0.216970442159128737E+03   -0.127437101111060591E+01   -0.394085368147458759E+00    0.224593674061012383E+00   -0.404244489742030044E+01
    0.317210987210273743E+03   -0.924512147903442383E+00    0.110844016075134277E+01    0.368354463100433391E-01   -0.403788839947800149E+01
    0.296293251233052501E+03   -0.109730367552698671E+01    0.760232415684290785E+00    0.187026412001253001E+00   -0.395480735398717442E+01
    0.296293251233052501E+03   -0.109730367552698671E+01    0.760232415684290785E+00    0.187026412001253001E+00   -0.395480735398717442E+01
    0.256341311335563660E+03   -0.802284955978393555E+00    0.363928079605102539E-01    0.467344509315490764E+00   -0.393595614529433480E+01
    0.128865319752848620E+03   -0.286952594062816368E+00    0.105003595734594057E-01    0.400113888736252254E+00   -0.389921159290099162E+01
    0.325815739616442897E+03   -0.148554847100218557E+01   -0.223276026536390182E+01    0.495052600524373054E+00   -0.388198996589598488E+01
    0.317709882937356724E+03   -0.652218913869520245E+00   -0.201460878203439364E+01    0.394297435572196986E+00   -0.385932263646734608E+01
    0.317709882937356724E+03   -0.652218913869520245E+00   -0.201460878203439364E+01    0.394297435572196986E+00   -0.385932263646734608E+01
    0.185387052595615387E+03   -0.667017757892608643E+00    0.155088841915130615E+01    0.228080909729003911E+00   -0.385898209917656221E+01
    0.259402186527873482E+03   -0.125369256120090689E+01   -0.234313407516390626E+00    0.556365700081136727E+00   -0.384725008507177924E+01
    0.319008691619646697E+03   -0.175999650593252088E+01   -0.149807601107275978E+01    0.325559152043666311E+00   -0.383006219435559458E+01
    0.274277886748313904E+03   -0.150019913911819458E+01   -0.109274148941040039E+01    0.301105135488510145E+00   -0.378631072657510881E+01
    0.274277886748313904E+03   -0.150019913911819458E+01   -0.109274148941040039E+01    0.301105135488510145E+00   -0.378631072657510881E+01
    0.263927270790461421E+03    0.632424359799218738E+00   -0.242813158958429742E+01    0.519379972156248537E+00   -0.378546650440011367E+01
    0.152634910266395252E+03    0.228819094000339618E+00    0.170531945633733528E+01    0.206605656335628607E+00   -0.377717004851913707E+01
    0.310426082514913105E+03   -0.122841207315504830E+01   -0.342882956916994885E+00    0.440938605414141038E+00   -0.371147374363185190E+01
    0.220821363217211854E+03    0.854978781465636217E-01   -0.132201005037788866E+01    0.397560102143035776E+00   -0.370847933718996448E+01
    0.220821363217211854E+03    0.854978781465636217E-01   -0.132201005037788866E+01    0.397560102143035776E+00   -0.370847933718996448E+01
    0.194791711480187956E+03   -0.313057043620869280E+00   -0.122034951919264945E+01    0.502283338875030516E+00   -0.369238801786643256E+01
    0.162585432827472687E+03    0.698036193847656250E+00    0.684873461723327637E+00    0.117642362666130068E+00   -0.369189162952551087E+01
    0.131757861481699734E+03   -0.148022549043386209E+01    0.545668113560395796E+00    0.343309562010281011E+00   -0.369096880361090740E+01
    0.219282127916812897E+03    0.471400797367095947E+00   -0.161737501621246338E+01    0.434368627667427065E+00   -0.369020289568382065E+01
    0.335811489820480347E+03   -0.192535877227783203E+00   -0.162279427051544189E+01    0.230437248587608334E+00   -0.368806893724593943E+01
    0.180869384840900921E+03    0.892198789869849129E-01    0.123605887529099068E+01    0.233029946002650062E+00   -0.368121786627312986E+01
    0.224808843080233714E+03    0.638875162471394642E+00   -0.174676047304574222E+01    0.465738084501992500E+00   -0.367481196679618094E+01
    0.280530690871001184E+03    0.136509023781116845E+00   -0.804710436629959780E+00    0.812115977368224051E-01   -0.366792604868764816E+01
    0.233473175439550801E+03   -0.130499230154180434E+01   -0.804630170982942872E-01    0.565968449550687036E+00   -0.365566666111121652E+01
    0.248930725765306306E+03   -0.186984304976983262E+01   -0.495885902764569231E+00    0.242022872482907464E+00   -0.364827959406781765E+01
    0.229742332422826109E+03    0.501700756484678045E+00    0.690224454603150406E+00    0.102984489519672442E+00   -0.364771729411867529E+01
    0.229742332422826109E+03    0.501700756484678045E+00    0.690224454603150406E+00    0.102984489519672442E+00   -0.364771729411867529E+01
    0.264128429167779018E+03   -0.363440346610426346E-01    0.267728980755741475E+00    0.279138675512687617E+00   -0.364018308500786159E+01
    0.258586961135611659E+03   -0.174736597173047215E+01   -0.839385930766187727E-01    0.520988822850895428E+00   -0.363187114601511407E+01
    0.180353739857673645E+03    0.224246144294738770E+00    0.127238929271697998E+01    0.192019150471687328E+00   -0.362838877639751312E+01
    0.180353739857673645E+03    0.224246144294738770E+00    0.127238929271697998E+01    0.192019150471687328E+00   -0.362838877639751312E+01
    0.296074295043945312E+03    0.180451214313507080E+00    0.832400918006896973E+00    0.502683348655700701E-02   -0.362836334386194803E+01
    0.192729131867799083E+03    0.688442940476362342E+00   -0.269149766514702904E+00    0.246278507365850829E+00   -0.362014056327428468E+01
    0.248541490956321866E+03    0.650207096766194148E+00   -0.127314163417371384E+01    0.452050363048798920E+00   -0.360720566323335667E+01
    0.203146654071826617E+03   -0.938714094604755855E+00   -0.727024333107017640E+00    0.392311761552478211E+00   -0.360093064865279455E+01
    0.193799553470536750E+03   -0.557075451692403245E+00    0.589089297213478247E+00    0.445983651265534298E+00   -0.359566447874005179E+01
    0.128547650575637817E+03   -0.153673386573791504E+01    0.182334959506988525E+01    0.436587983965873727E+00   -0.359524465021144790E+01
    0.308107594397093635E+03   -0.966811009305919455E+00    0.963426896034516034E+00    0.472309041968390214E-01   -0.359416167507072082E+01
    0.308107594397093635E+03   -0.966811009305919455E+00    0.963426896034516034E+00    0.472309041968390214E-01   -0.359416167507072082E+01
    0.283203006796909335E+03    0.341983733806910717E+00   -0.188873628409147809E+01    0.366496486341835792E+00   -0.359347669669729797E+01
    0.226921112296772264E+03   -0.172222369652551599E+01    0.482536370980211515E+00    0.444840282366655571E+00   -0.359040064169391737E+01
    0.247179117149349793E+03    0.578389033041440292E+00   -0.111905522374545985E+01    0.494609995210316400E+00   -0.358659483120229616E+01
    0.314342545502538258E+03    0.595900142608849492E+00   -0.134233951560629361E+01    0.365474419755119795E+00   -0.357596911283706387E+01
    0.314342545502538258E+03    0.595900142608849492E+00   -0.134233951560629361E+01    0.365474419755119795E+00   -0.357596911283706387E+01
    0.163873261468772967E+03   -0.523358859633712425E+00   -0.282003918351576566E+00    0.382506666260026440E+00   -0.355581787509044300E+01
    0.316597624043065139E+03    0.335575992125237477E+00   -0.221936305008727697E+01    0.386916570662980130E+00   -0.354683331711946481E+01
    0.276826642453670502E+03    0.277164340019226074E+00    0.872455835342407227E+00    0.392592358589172359E-02   -0.354401521393212127E+01
    0.179349436909886720E+03    0.357429109575152282E+00   -0.151664678155291277E+00    0.176399314379137362E+00   -0.353734516653932385E+01
    0.179349436909886720E+03    0.357429109575152282E+00   -0.151664678155291277E+00    0.176399314379137362E+00   -0.353734516653932385E+01
    0.166674571282744978E+03    0.546065570693476943E-02    0.110649347387306829E+01    0.328111561361722870E+00   -0.348594496575910684E+01
    0.179719143141036398E+03    0.496543572141357359E+00   -0.103544261354482359E+00    0.153916996413318297E+00   -0.346344736895807159E+01
    0.294687115340506693E+03    0.115029948934104453E+00   -0.217799053325743230E+01    0.472279293727637051E+00   -0.343812805099314733E+01
    0.242990589141845703E+03   -0.118091773986816406E+01   -0.124794423580169678E+01    0.456375566840171831E+00   -0.343031240758623568E+01
    0.167479262338698845E+03   -0.122604566291002914E+01    0.136802632411465908E+01    0.345236395279381270E+00   -0.342822758149852280E+01
    0.167479262338698845E+03   -0.122604566291002914E+01    0.136802632411465908E+01    0.345236395279381270E+00   -0.342822758149852280E+01
    0.210600206255912781E+03   -0.449279785156250000E+00    0.673264861106872559E+00    0.333824588513374321E+00   -0.342745715748874735E+01
    0.210600206255912781E+03   -0.449279785156250000E+00    0.673264861106872559E+00    0.333824588513374321E+00   -0.342745715748874735E+01
    0.308698342124034980E+03   -0.741163550104854796E+00    0.124339805384883206E+00    0.243221571545809534E+00   -0.342292752243727483E+01
    0.158474809257338563E+03   -0.154861215956837772E+01    0.893742593214015280E+00    0.537647442132975661E+00   -0.341701641283370616E+01
    0.285269324481487274E+03    0.583582222461700439E+00   -0.288847684860229492E+00    0.114047994875907902E+00   -0.341487479602408461E+01
    0.199956691265106201E+03   -0.137780886888504028E+01    0.332951545715332031E+00    0.531850023365020741E+00   -0.341348723638747753E+01
    0.133138186947366393E+03   -0.784716086227903453E+00    0.645155186813885173E+00    0.294449425274922627E+00   -0.340984563949479380E+01
    0.133138186947366393E+03   -0.784716086227903453E+00    0.645155186813885173E+00    0.294449425274922627E+00   -0.340984563949479380E+01
    0.304175665974617004E+03   -0.197950309514999390E+01   -0.182146191596984863E+01    0.517282721328735318E+00   -0.338567114676599656E+01
    0.251120475780701781E+03   -0.199885317807161411E+01   -0.473088616338351642E+00    0.274694138074067173E+00   -0.337679416560557577E+01
    0.251120475780701781E+03   -0.199885317807161411E+01   -0.473088616338351642E+00    0.274694138074067173E+00   -0.337679416560557577E+01
    0.221464467048645020E+03   -0.173339915275573730E+01    0.570587515830993652E+00    0.468594991207122794E-01   -0.337329650411137116E+01
    0.221464467048645020E+03   -0.173339915275573730E+01    0.570587515830993652E+00    0.468594991207122794E-01   -0.337329650411137116E+01
    0.291576211500786144E+03   -0.512547004891417357E+00   -0.214896456418281323E+01    0.547304769345987485E+00   -0.337248715339433947E+01
    0.161075314825672109E+03    0.175721737156139923E+00    0.142140417800324581E+01    0.207549494619639868E+00   -0.336871592290337940E+01
    0.161075314825672109E+03    0.175721737156139923E+00    0.142140417800324581E+01    0.207549494619639868E+00   -0.336871592290337940E+01
    0.320280174147385196E+03   -0.979072104674147070E+00   -0.208467200782416207E+01    0.495215966894249904E+00   -0.336805596250006367E+01
    0.186991102542926996E+03    0.163809852380257137E+00    0.719471171574390667E+00    0.306069472229143769E+00   -0.336668803913832093E+01
    0.186991102542926996E+03    0.163809852380257137E+00    0.719471171574390667E+00    0.306069472229143769E+00   -0.336668803913832093E+01
    0.241400481760501862E+03    0.337888479232788086E+00   -0.489748120307922363E+00    0.110394330525398252E+00   -0.336547367679825449E+01
    0.180113701979230001E+03    0.363688101374095574E+00    0.409273657350295750E+00    0.373175821612303116E+00   -0.335082693547364308E+01
    0.172736386954784393E+03   -0.418756783008575439E+00   -0.416243076324462891E+00    0.405239243602752708E+00   -0.334842852477172936E+01
    0.182584352567380279E+03   -0.134150555776436153E+01    0.128802004620669930E+01    0.291934749109438341E+00   -0.334688437766718838E+01
    0.182584352567380279E+03   -0.134150555776436153E+01    0.128802004620669930E+01    0.291934749109438341E+00   -0.334688437766718838E+01
    0.182173327664663020E+03   -0.122702169050627719E+01   -0.645672641719992058E+00    0.487454725072084150E+00   -0.334604108474414819E+01
    0.182173327664663020E+03   -0.122702169050627719E+01   -0.645672641719992058E+00    0.487454725072084150E+00   -0.334604108474414819E+01
    0.210657954216003418E+03   -0.490715086460113525E+00    0.108837187290191650E+01    0.204911921739578257E+00   -0.334315265111921711E+01
    0.133504436606963225E+03   -0.127501085914117707E+01    0.181134707824517349E+01    0.358842385176989076E+00   -0.333870374381974022E+01
    0.133504436606963225E+03   -0.127501085914117707E+01    0.181134707824517349E+01    0.358842385176989076E+00   -0.333870374381974022E+01
    0.143904705345630646E+03   -0.861845552921295166E+00    0.210082948207855225E+01    0.193767000174522419E+00   -0.333800679943807488E+01
    0.143904705345630646E+03   -0.861845552921295166E+00    0.210082948207855225E+01    0.193767000174522419E+00   -0.333800679943807488E+01
    0.165866832379102959E+03   -0.101224487624053339E+01    0.138706606650107034E+01    0.316330763026309303E+00   -0.333005854190469730E+01
    0.198390362476869541E+03   -0.119020975970994436E+01   -0.406808579838425999E+00    0.373650752997794544E+00   -0.332881216114574485E+01
    0.248853328135689821E+03    0.909041073508229935E-01   -0.284422685774829986E+00    0.693132993603363251E-01   -0.332800978852489759E+01
    0.275355061888694763E+03   -0.852156162261962891E+00    0.105935692787170410E+01    0.512381304502487200E-01   -0.332781175652934413E+01
    0.335318463574205850E+03   -0.958116996933535914E+00   -0.218548940394445257E+01    0.497994598041797187E+00   -0.330924603212089341E+01
    0.236686396794901498E+03    0.495820349592450249E+00   -0.924017320417736876E+00    0.484475097370402563E+00   -0.329868136870414830E+01
    0.236686396794901498E+03    0.495820349592450249E+00   -0.924017320417736876E+00    0.484475097370402563E+00   -0.329868136870414830E+01
    0.249353687843621202E+03   -0.138769189874553378E+01    0.749331221741254438E+00    0.240253494144859414E+00   -0.329223050687048513E+01
    0.249353687843621202E+03   -0.138769189874553378E+01    0.749331221741254438E+00    0.240253494144859414E+00   -0.329223050687048513E+01
    0.208087038520439791E+03    0.160411623633485156E-01   -0.839784324500403301E-02    0.468222438205320612E+00   -0.329170933905037844E+01
    0.311225877433566609E+03    0.223563378576250305E+00   -0.144390318114923089E+01    0.230755168787390191E+00   -0.328809437491612844E+01
    0.208359047078863284E+03   -0.224819227844069269E+00    0.151105971568079767E+01    0.598465975949857495E-01   -0.328726017680381233E+01
    0.227644098227298684E+03   -0.104347039858198953E+01   -0.119949471618722736E+01    0.501660491999608826E+00   -0.327930354668265567E+01
    0.278796602732729411E+03   -0.566961968119494175E+00   -0.969354881960703629E+00    0.259209499306721658E+00   -0.327352131831768300E+01
    0.164000146717516571E+03   -0.869599053187549931E+00    0.178718115400691957E+01    0.187159608241931757E+00   -0.327297935664412876E+01
    0.164000146717516571E+03   -0.869599053187549931E+00    0.178718115400691957E+01    0.187159608241931757E+00   -0.327297935664412876E+01
    0.316788817857266508E+03    0.574080601890917919E+00   -0.139831397890315001E+01    0.300565806031599769E+00   -0.326121898677157418E+01
    0.316788817857266508E+03    0.574080601890917919E+00   -0.139831397890315001E+01    0.300565806031599769E+00   -0.326121898677157418E+01
    0.326125544846777302E+03   -0.282664352227176341E+00   -0.183297185566879683E+00    0.237460463880984379E+00   -0.326090410501390870E+01
    0.205300631213391938E+03    0.136930004498350577E+00    0.803832799994072644E+00    0.213858924265231842E+00   -0.325278916426055487E+01
    0.158831042055777743E+03   -0.619129523111324076E+00    0.300219189771131489E+00    0.288550986159798795E+00   -0.323777369295068063E+01
    0.158831042055777743E+03   -0.619129523111324076E+00    0.300219189771131489E+00    0.288550986159798795E+00   -0.323777369295068063E+01
    0.287047450496744602E+03   -0.129520336677820591E+00   -0.976235963655518901E+00    0.533692950988727044E+00   -0.323069757435813365E+01
    0.158491440931980151E+03    0.195284525644166873E+00    0.403846492380413480E+00    0.180476957187057641E+00   -0.320319157205281346E+01
    0.238135526568477331E+03   -0.294779074311610767E+00   -0.842099120798257772E+00    0.324239924184902162E+00   -0.318341268804871902E+01
    0.238135526568477331E+03   -0.294779074311610767E+00   -0.842099120798257772E+00    0.324239924184902162E+00   -0.318341268804871902E+01
    0.246185703918674761E+03   -0.194579913061434850E+01   -0.345717884332064074E-01    0.192490135276729812E+00   -0.318098090745468820E+01
    0.132116731405502037E+03   -0.664642744507794703E+00    0.363759262310274778E-01    0.507810222854086168E+00   -0.317903927403948039E+01
    0.303461000290722382E+03   -0.458647658524921065E+00   -0.168574048850286706E+01    0.409964315056591866E+00   -0.317653566689887290E+01
    0.303461000290722382E+03   -0.458647658524921065E+00   -0.168574048850286706E+01    0.409964315056591866E+00   -0.317653566689887290E+01
    0.257035480439662933E+03    0.167410671710968018E+00   -0.761472582817077637E+00    0.202616073560714732E+00   -0.315319197841550913E+01
    0.247769076837897501E+03    0.265857871080967811E+00   -0.370351945526406823E+00    0.109972596694237992E+00   -0.313513929301874850E+01
    0.130240000283159418E+03   -0.601991749685197419E+00    0.206860644181003916E+01    0.216742085820576913E+00   -0.313468859699232949E+01
    0.130240000283159418E+03   -0.601991749685197419E+00    0.206860644181003916E+01    0.216742085820576913E+00   -0.313468859699232949E+01
    0.196176399290561676E+03   -0.570239365100860596E+00    0.810378789901733398E+00    0.302532347059249862E+00   -0.312707280285062295E+01
    0.167681522858827009E+03   -0.121708795432669925E+01    0.502312591479967097E+00    0.261705728383185621E+00   -0.312575887704718891E+01
    0.167681522858827009E+03   -0.121708795432669925E+01    0.502312591479967097E+00    0.261705728383185621E+00   -0.312575887704718891E+01
    0.253679108523344922E+03   -0.183516310845821407E+01   -0.754094440483985551E-01    0.187205257132302877E+00   -0.312489458089162042E+01
    0.253679108523344922E+03   -0.183516310845821407E+01   -0.754094440483985551E-01    0.187205257132302877E+00   -0.312489458089162042E+01
    0.177990311384201050E+03   -0.538053929805755615E+00   -0.630041956901550293E+00    0.490287842845916755E+00   -0.311520219064155146E+01
    0.311185226974363786E+03   -0.804556591785815955E+00   -0.110368992441297786E+01    0.535312004387916152E+00   -0.310821824445897388E+01
    0.311185226974363786E+03   -0.804556591785815955E+00   -0.110368992441297786E+01    0.535312004387916152E+00   -0.310821824445897388E+01
    0.149614018309344573E+03   -0.197374971794156640E+01    0.145994130049319892E+01    0.383463665468556425E+00   -0.310369058938445264E+01
    0.149614018309344573E+03   -0.197374971794156640E+01    0.145994130049319892E+01    0.383463665468556425E+00   -0.310369058938445264E+01
    0.182132086711470777E+03    0.527079044304956668E-02    0.170386337302329238E+01    0.178164527723126374E-01   -0.310204738175920536E+01
    0.182132086711470777E+03    0.527079044304956668E-02    0.170386337302329238E+01    0.178164527723126374E-01   -0.310204738175920536E+01
    0.294819188771810161E+03    0.517725603528364164E+00   -0.456443065609521526E+00    0.719637978625589786E-01   -0.308978698902480753E+01
    0.345955644547939301E+03   -0.145308792591094971E+00   -0.942962765693664551E+00    0.373008970141410823E+00   -0.308685371961979715E+01
    0.185056418523727558E+03   -0.534556732609998253E+00    0.134863242428927332E+01    0.162473148926842448E+00   -0.308091653606229920E+01
    0.185056418523727558E+03   -0.534556732609998253E+00    0.134863242428927332E+01    0.162473148926842448E+00   -0.308091653606229920E+01
    0.323186321412703933E+03   -0.128331747666049401E+01   -0.325520525940922845E+00    0.320576866373981306E+00   -0.307760308183118525E+01
    0.323186321412703933E+03   -0.128331747666049401E+01   -0.325520525940922845E+00    0.320576866373981306E+00   -0.307760308183118525E+01
    0.261836082148985156E+03   -0.117932120552175101E+01   -0.115043132660114678E+01    0.435512166299563686E+00   -0.307732460053490176E+01
    0.224378177523612976E+03    0.403063833713531494E+00   -0.423200726509094238E+00    0.201088828897476202E+00   -0.305168066240406688E+01
    0.186044262379846600E+03   -0.162086214298321685E+01    0.111477222883569205E+00    0.339672788749282473E+00   -0.304689253242209546E+01
    0.240195532129033325E+03   -0.369506031269923874E-01   -0.186248681972688068E+00    0.133635275268446096E+00   -0.304446490419893534E+01
    0.213811029839996138E+03   -0.717881603447359184E+00   -0.731976801447490999E+00    0.434326678847401892E+00   -0.303940604267726799E+01
    0.332297946552844792E+03   -0.147915812851500861E+01   -0.112824348714818701E+01    0.526648125109605680E+00   -0.303462437879388514E+01
    0.332297946552844792E+03   -0.147915812851500861E+01   -0.112824348714818701E+01    0.526648125109605680E+00   -0.303462437879388514E+01
    0.303101306038653775E+03   -0.596209710068814180E+00   -0.103677410384204993E+01    0.267802567695219873E+00   -0.303431379885804997E+01
    0.185557779335651105E+03    0.244756513434851275E+00    0.355404940728347718E+00    0.113443917592672874E+00   -0.302822146868459185E+01
    0.185557779335651105E+03    0.244756513434851275E+00    0.355404940728347718E+00    0.113443917592672874E+00   -0.302822146868459185E+01
    0.243242702160923784E+03    0.295258680055833445E+00   -0.731699828788488382E+00    0.451608696344636129E+00   -0.301852952655620976E+01
    0.328402947070588084E+03   -0.132921285618999496E+01   -0.517857639039755568E+00    0.351002055088932396E+00   -0.301253420819946305E+01
    0.328402947070588084E+03   -0.132921285618999496E+01   -0.517857639039755568E+00    0.351002055088932396E+00   -0.301253420819946305E+01
    0.154967959398529075E+03   -0.231946138671901725E+00   -0.283179454900236216E+00    0.488457757939940118E+00   -0.301198959827723289E+01
    0.177416645471806845E+03    0.239704642507235111E+00    0.261449066410501807E+00    0.178160058947539557E+00   -0.300734130208838568E+01
    0.208870131575157330E+03   -0.173087891191829235E+01   -0.271400104358515470E+00    0.397962627173960082E+00   -0.300653495704683493E+01
    0.264487151847413770E+03    0.277261294095125344E+00   -0.172550536544584432E+01    0.477436556374307930E+00   -0.300560105489994456E+01
    0.264487151847413770E+03    0.277261294095125344E+00   -0.172550536544584432E+01    0.477436556374307930E+00   -0.300560105489994456E+01
    0.260606077313423157E+03   -0.141762071847915649E+01   -0.303713083267211914E+00    0.232644117808341988E+00   -0.299838304277890977E+01
    0.260606077313423157E+03   -0.141762071847915649E+01   -0.303713083267211914E+00    0.232644117808341988E+00   -0.299838304277890977E+01
    0.303707038877942125E+03   -0.128787830961596073E+01   -0.422875001713681975E+00    0.369238144796697865E+00   -0.299676940093243349E+01
    0.298704894432361129E+03    0.720952890545580871E-01   -0.507072064686945545E+00    0.289581908366388863E+00   -0.299443893861271526E+01
    0.174273464674169190E+03   -0.888563157342532772E+00   -0.445004002458652792E+00    0.510844214176219058E+00   -0.299418654989914934E+01
    0.290609966972484131E+03   -0.545307502803951127E-01   -0.864197287382650003E+00    0.436766070899688663E+00   -0.299410932668893937E+01
    0.267544267475756953E+03   -0.136537642564622330E+01   -0.697394919349056508E+00    0.322387025854442455E+00   -0.299407548790937117E+01
    0.312383089829362120E+03   -0.701235690133809930E+00   -0.158304957804617086E+01    0.417193138068642611E+00   -0.299160092119146626E+01
    0.218958662015164947E+03   -0.224740752159171997E+00    0.438256069337317200E+00    0.533852382774865283E-01   -0.298961161932227482E+01
    0.234054960187963616E+03   -0.125746803717150657E+01    0.334474747404116535E+00    0.115712004908834584E+00   -0.298197900210616762E+01
    0.235571530379277192E+03   -0.527431163186476315E+00   -0.708513640309207382E+00    0.569614524804922806E+00   -0.296973647468649604E+01
    0.269578752838083346E+03   -0.397558145981411037E+00    0.570153876457746733E+00    0.101130874553686481E+00   -0.296931791742822515E+01
    0.175801042494796775E+03    0.175909819217423546E-02    0.170657829035701702E+01    0.154159998150220200E-01   -0.296555690927401017E+01
    0.172623873837037422E+03    0.286765151370270921E+00    0.883337356017149133E+00    0.205128469130098190E+00   -0.295846152964211040E+01
    0.340424443008892467E+03   -0.515171003690592544E+00   -0.136008115692961340E+01    0.496076488397619308E+00   -0.295659824947750938E+01
    0.263640869756656343E+03   -0.179073974278381165E+01   -0.569516651211150027E+00    0.337079860720382207E+00   -0.295024887537445135E+01
    0.273548465633975638E+03   -0.191698630765633493E+01    0.343497914427201678E+00    0.630686444947896191E-01   -0.293845017186913759E+01
    0.273548465633975638E+03   -0.191698630765633493E+01    0.343497914427201678E+00    0.630686444947896191E-01   -0.293845017186913759E+01
    0.190698403364946643E+03    0.738041149011658959E-02    0.422166417197908928E+00    0.326737442186191773E+00   -0.293549346496274799E+01
    0.254350289130063828E+03   -0.228204521924096237E+00    0.264117906620015219E+00    0.206150927785368587E+00   -0.292855533899599685E+01
    0.331751026086838010E+03    0.651033070646049872E-01   -0.174561491231628896E+01    0.370139461106683221E+00   -0.292747381682066088E+01
    0.190762845790408932E+03   -0.698445786823989279E+00    0.224186961966969633E+00    0.449569235841412451E+00   -0.292739006514591171E+01
    0.277955672517505889E+03   -0.174012460418491877E+01    0.444969104835077900E+00    0.190682995765678154E+00   -0.291841898033797520E+01
    0.285813389889490622E+03   -0.269407828051878351E+00   -0.193164640132070309E+01    0.570908367411285922E+00   -0.291039320351073627E+01
    0.285813389889490622E+03   -0.269407828051878351E+00   -0.193164640132070309E+01    0.570908367411285922E+00   -0.291039320351073627E+01
    0.158057488442985260E+03   -0.101483175787738755E+01    0.128517845468645664E+01    0.286731605698897107E+00   -0.290888232594635232E+01
    0.168296208585453513E+03    0.427781923042875878E+00    0.680584746588206002E+00    0.171707240797349975E+00   -0.290719759053435034E+01
    0.161854676791876869E+03    0.291141535746576530E+00    0.382926101796251750E+00    0.374259807541304224E+00   -0.290638434253048672E+01
    0.161854676791876869E+03    0.291141535746576530E+00    0.382926101796251750E+00    0.374259807541304224E+00   -0.290638434253048672E+01
    0.214991600188953328E+03    0.132069303716963127E+00    0.668137359661217900E+00    0.142866015537673030E+00   -0.290595460440679432E+01
    0.306533182806206241E+03   -0.497273361444991568E+00   -0.456435464000703561E+00    0.292735282989905587E+00   -0.290369607914663552E+01
    0.242325294485561130E+03   -0.137863214412564661E+01    0.630014552084232626E+00    0.206459882733809913E+00   -0.290025402855464831E+01
    0.340352079406989731E+03   -0.689842569466671218E+00   -0.813633910687199702E+00    0.339668222827201383E+00   -0.289836463147962586E+01
    0.329113824699870463E+03    0.210935222226963592E+00   -0.214560769429823939E+01    0.484530814840992086E+00   -0.289731974384795077E+01
    0.289791255127787849E+03   -0.152115300314423796E+01    0.262068971859969579E+00    0.200648041888401213E+00   -0.289706217176857583E+01
    0.183881031685463824E+03   -0.281556181151307872E+00    0.403361309848207839E+00    0.200131502425372532E+00   -0.289289297650010280E+01
    0.239361546046341914E+03   -0.145985445093033128E+01    0.626696014843775018E-01    0.377021754979826096E+00   -0.288904369765006175E+01
    0.188975660502910614E+03   -0.137733966112136841E+01    0.782680511474609375E-01    0.370177235269546545E+00   -0.288648688388268493E+01
    0.256471127731094839E+03   -0.902207155090356094E+00   -0.147074957437898624E+01    0.571607248674015023E+00   -0.288647230913111574E+01
    0.177963646105204020E+03   -0.140394057353818136E+01   -0.792789112712668498E-01    0.454872230620768536E+00   -0.288629252639935974E+01
    0.265282826351534709E+03   -0.164117772337466850E+01    0.102436325818321183E+01    0.415382665194654402E-01   -0.288608778730125337E+01
    0.279451272549791270E+03   -0.142711490174819167E+01    0.194900725599840285E+00    0.229002775641305945E+00   -0.288387942736489311E+01
    0.144160660606831698E+03   -0.141569482199402019E+01    0.101326720902210354E+01    0.447226333438749957E+00   -0.288224633577544509E+01
    0.265016008765134188E+03   -0.137456350949945483E+01    0.925338678711673523E+00    0.529784326932738123E-01   -0.288121652759174030E+01
    0.189015125177248819E+03   -0.149161008910603687E+01   -0.292683203995629526E-01    0.563370983581339413E+00   -0.288009525434277824E+01
    0.175385466451619266E+03   -0.124648922093774162E+01    0.256243893229486375E+00    0.362224927525774787E+00   -0.287962427002103016E+01
    0.208114856844708413E+03   -0.158009894653129002E+01   -0.610167145664676447E+00    0.525975363237998428E+00   -0.287936740805251246E+01
    0.265573795115392386E+03    0.306958580649509649E+00   -0.131044242915806786E+01    0.498513222171227788E+00   -0.287875772331116453E+01
    0.335829440315515967E+03   -0.122176750177850391E+01   -0.647983642480715716E+00    0.326931747343404577E+00   -0.287800811690685743E+01
    0.262989836931228638E+03    0.254334986209869385E+00   -0.147442877292633057E+01    0.567428607773780791E+00   -0.287474419660929792E+01
    0.326933573454424732E+03   -0.119268307484616809E+00   -0.208800089770295294E+01    0.518177380931721165E+00   -0.287440969459486784E+01
    0.210361405734613129E+03   -0.662150439530367008E+00   -0.215533583358570091E+00    0.338561617063044884E+00   -0.287336392225018056E+01
    0.210270193703608015E+03   -0.330147490719700620E+00    0.406448318750953774E-01    0.237906811882971081E+00   -0.287200818798755986E+01
    0.308639781802232619E+03   -0.170258526856039660E+01   -0.602266107481618462E+00    0.394347179024600258E+00   -0.287199732212987247E+01
    0.255066184846445907E+03   -0.126283512178838508E+01    0.101051765998041887E+01    0.462658959676050252E-01   -0.287049544361011710E+01
    0.240772373306304303E+03   -0.465469128870279025E+00   -0.797146077646496920E+00    0.395024940947225400E+00   -0.286761699082272248E+01
    0.154369717554131853E+03    0.517193795772232789E-01    0.342448107062754303E+00    0.326401552021955588E+00   -0.285066027058212423E+01
    0.214987495997799044E+03    0.961098282481387400E-01    0.445507646568277238E-02    0.313732793821731415E+00   -0.283668401348295252E+01
    0.140917421517974560E+03   -0.306786660237489350E+00    0.920533428309005863E+00    0.283148267165421963E+00   -0.279986763098866920E+01
    0.179514979136117290E+03   -0.276593167480827518E-01    0.182048309193869606E+00    0.400078421186442823E+00   -0.283450040280207727E+01
    0.175336198508739471E+03   -0.288242638111114502E+00    0.556029081344604492E+00    0.356153018760681173E+00   -0.286705803938237791E+01
    0.163970741417899546E+03   -0.407129158038702421E+00    0.252059465498653879E+00    0.436197537138772573E+00   -0.276514559674589888E+01
    0.161435029671949309E+03   -0.243946172891494228E+00   -0.354104737506677480E-01    0.476529732593489519E+00   -0.278202696910246594E+01
    0.201503846900604458E+03   -0.156402827888664664E+00   -0.390269504315751803E+00    0.442517554622958054E+00   -0.276686108544325782E+01
    0.189033810443749701E+03   -0.386444337809628724E+00   -0.127013051592774318E+00    0.465661817597488259E+00   -0.278078577937774973E+01
    0.194020282240065512E+03   -0.522542720653891735E+00    0.868189582315039843E-01    0.386492398159870354E+00   -0.276868175771495029E+01
    0.227519518837295806E+03   -0.186685181760497532E+00   -0.315337131021191652E+00    0.315681667246049680E+00   -0.278509807397544762E+01
    0.164540633336781383E+03    0.318933586074061637E-01   -0.159282442604679275E+00    0.461188286487061672E+00   -0.279961176250737243E+01
    0.154389898276896275E+03   -0.643773945783647772E-01   -0.770739045823756186E-01    0.499004204731224144E+00   -0.278617476590011526E+01
    0.191044446943720914E+03   -0.649014533223690737E+00    0.817931214058980061E-01    0.419266569287560065E+00   -0.277986305434092262E+01
    0.215181368600688927E+03   -0.190870068925124925E+01    0.485471755749648182E+00    0.342476646317297129E+00   -0.284869460729915058E+01
    0.157188759072969958E+03   -0.114962909660016543E+01    0.350344313022226572E+00    0.443196572840690584E+00   -0.280189727534208988E+01
    0.140675029497792764E+03   -0.694037672912066306E+00    0.692235998821512766E+00    0.466283036461712264E+00   -0.279124969607358775E+01
    0.133505687117576599E+03   -0.117504870891571045E+01    0.154073476791381836E+01    0.301624372744560276E+00   -0.281721083203252975E+01
    0.151915471255779266E+03   -0.119657182693481445E+01    0.727231502532958984E+00    0.363701661944389354E+00   -0.279779325579324789E+01
    0.134636506283678415E+03   -0.172574476901961527E+01    0.128230092877381718E+01    0.407955780411741742E+00   -0.282476796604230218E+01
    0.156049397721595454E+03   -0.184701116072528437E+01    0.116659487758739466E+01    0.291941550213365597E+00   -0.278313191906420787E+01
    0.215721750259399414E+03   -0.133694005012512207E+01   -0.268982052803039551E+00    0.477573438906669645E+00   -0.278002484409407646E+01
    0.214315655827522278E+03   -0.142280828952789307E+01    0.178599357604980469E-01    0.401768654823303262E+00   -0.277956615066200197E+01
    0.172581017452208130E+03   -0.132447699099309335E+01    0.177894258317250475E+00    0.512018157712013533E+00   -0.279051718649245073E+01
    0.199461831467611830E+03   -0.199517843726665767E+01   -0.172878257510604705E+00    0.497214084749832197E+00   -0.280427859194018714E+01
    0.183430871973161771E+03   -0.175854243557824974E+01   -0.728040165007861617E-01    0.569520749623649736E+00   -0.280766027859115797E+01
    0.134798386081900532E+03   -0.174297168449194051E+01    0.122069549708173852E+01    0.431620611454994973E+00   -0.283480931706662087E+01
    0.157642005334495622E+03   -0.140996487396063541E+01    0.623700720967825362E+00    0.459961452612100696E+00   -0.280442980496761951E+01
    0.150789405338324826E+03   -0.109883297771175337E+01    0.118532396003540352E+01    0.338432767114416888E+00   -0.286357998998469254E+01
    0.230053676233056137E+03   -0.154939262997366312E+01   -0.627088994033906388E-01    0.369319405985831462E+00   -0.277891583412263854E+01
    0.125276081766845721E+03   -0.183044276904038461E+01    0.146895719526297164E+01    0.316341391426289364E+00   -0.281614418944194123E+01
    0.126542745853991534E+03   -0.119744804472210253E+01    0.588159807363595633E+00    0.563124521509642761E+00   -0.277401714182268222E+01
    0.205563942235409712E+03   -0.110745554550145631E+01    0.194015893062820410E+00    0.346382168095697163E+00   -0.277220715549795571E+01
    0.183521371960872756E+03   -0.189719784056984153E+01    0.515155762880033841E+00    0.331745077982959380E+00   -0.280838907562536866E+01
    0.222935905339828878E+03   -0.958827105983554251E+00   -0.773408579413636943E-02    0.323728533733770474E+00   -0.277325786226420146E+01
    0.167491726645473847E+03   -0.104613064774844133E+01   -0.147683954655138727E+00    0.528981636997003069E+00   -0.281886954002003742E+01
    0.229268641469623958E+03   -0.132466639042068834E+01   -0.603888114532151299E+00    0.492076574454719917E+00   -0.278207817532469237E+01
    0.240626381793934144E+03   -0.158103645190480724E+01   -0.307884203142329227E+00    0.459582850333922877E+00   -0.282532379407756640E+01
    0.244065267475612899E+03   -0.113553715286412560E+01   -0.297395963778442685E+00    0.403178762204303598E+00   -0.279448041378360523E+01
    0.239223351105465667E+03   -0.452471410942306029E+00   -0.306821607220530090E+00    0.383088019008442249E+00   -0.281070079296821440E+01
    0.241297056182607918E+03   -0.522569352390234165E+00   -0.307707893451448555E+00    0.369052201397689739E+00   -0.278806661139850487E+01
    0.140924984893451864E+03   -0.110592492589886793E+01    0.105057694199406004E+01    0.359586043730963256E+00   -0.277267739440970473E+01
    0.180933531943873675E+03   -0.765303925428515885E+00    0.432470912744999936E-01    0.364413343369147991E+00   -0.286576316437471323E+01
    0.179266657916215649E+03   -0.301467613837567372E+00   -0.642845002038804125E+00    0.538186131625608244E+00   -0.285142186994271363E+01
    0.227230954494364113E+03   -0.286734514501600257E+00   -0.391191798951100900E+00    0.436122331842567434E+00   -0.281989093956543080E+01
    0.198404181595100027E+03   -0.143716323468472362E+01    0.532050071203837405E+00    0.332322028019262083E+00   -0.280175475525761453E+01
    0.194129613064826515E+03   -0.199010169151309246E+01    0.235175018609306008E+00    0.399329463998420731E+00   -0.280110277169904576E+01
    0.200031336825637652E+03   -0.855692336135775333E+00   -0.654810582522014073E-01    0.388747964024887926E+00   -0.278770212347947144E+01
    0.221760247647762299E+03   -0.135404145717620850E+01    0.933238267898559570E+00    0.129853189373016376E+00   -0.279387240275468729E+01
    0.266478143632411957E+03   -0.109389257431030273E+01    0.217177271842956543E+00    0.192797886943817137E+00   -0.279680661027075672E+01
    0.266883551931314969E+03   -0.142989797427795295E+01    0.543108343571885754E+00    0.129152847077666499E+00   -0.281367231118139660E+01
    0.195419903959690316E+03   -0.130642650125129833E+01    0.631145233509750270E+00    0.247873707471451488E+00   -0.278179016635647436E+01
    0.297247183927319725E+03   -0.845858987110805316E+00    0.422747207777016243E+00    0.250399164714167170E-01   -0.277250768024091787E+01
    0.242359652866945908E+03   -0.945318063796223962E+00    0.831412217106843876E+00    0.107525795245684591E+00   -0.286083338824884192E+01
    0.248009843284517501E+03   -0.125961030293495591E+01    0.946313553182280387E+00    0.226692522674463957E-01   -0.277662551185108075E+01
    0.266155023533173619E+03   -0.147549508555013897E+01    0.772962611702018521E+00    0.315593556115488158E-01   -0.277877399842399875E+01
    0.266722544490020141E+03   -0.920089974179018721E+00   -0.200287661211557833E-01    0.247535194709252476E+00   -0.279480558872548812E+01
    0.287401283252100370E+03   -0.949986758456356384E+00    0.344610329766021017E+00    0.585817376064844964E-01   -0.277074162576267025E+01
    0.308374857771863049E+03   -0.180774174735082682E+01    0.673539981496311668E+00    0.240350760346760527E-01   -0.283156022998865353E+01
    0.185573922097682953E+03   -0.788888752460479736E+00    0.137714207172393799E+01    0.978564856767654423E-01   -0.282897847733862973E+01
    0.198805537350370713E+03   -0.459974216867253372E+00    0.850224229886236138E+00    0.102701513456012361E+00   -0.277890767602888289E+01
    0.181411648147180557E+03   -0.285958675634517157E+00    0.110097308548380113E+01    0.158711231458291774E+00   -0.284337998962176464E+01
    0.175271985876882269E+03   -0.666880821527768619E+00    0.513578529149684826E+00    0.252168306792816821E+00   -0.285634867408991200E+01
    0.135282165200332599E+03    0.278051431018372153E+00    0.156020543545444479E+01    0.124398788571064400E+00   -0.284786108096611912E+01
    0.135437989724960005E+03   -0.897747866885632018E-01    0.143749210963373564E+01    0.132347090006000589E+00   -0.281260275232933932E+01
    0.172022203685661850E+03    0.237935212949779817E+00    0.710768665079863027E+00    0.230332636025695009E+00   -0.285824048321485868E+01
    0.211554372165550063E+03   -0.488738191211301132E+00    0.203856747278629236E+00    0.241211131951928032E+00   -0.278824751486738931E+01
    0.205464318787837442E+03   -0.346547992458340559E+00    0.575535587643106084E+00    0.228713613742201560E+00   -0.280975035200858247E+01
    0.209400755829611057E+03   -0.199576813801048969E+00    0.821005758572368904E+00    0.932781377952788399E-01   -0.276609741445321511E+01
    0.182575441535872272E+03   -0.209911163908643061E+00    0.840442283610967067E+00    0.127380943979587935E+00   -0.277942540367719504E+01
    0.304948188404379607E+03   -0.167105508889174015E+01   -0.308551452547233040E+00    0.245009611798328308E+00   -0.278144133260679283E+01
    0.281342719403040746E+03   -0.156630013951265390E+01   -0.366931886526035811E+00    0.296580805165437500E+00   -0.278786107593346566E+01
    0.274827243303929890E+03   -0.118521018393204525E+01    0.575560492347532815E+00    0.234242016771653294E-01   -0.277827031435719585E+01
    0.136756017749656195E+03    0.305892050785799618E+00    0.124919625044396465E+01    0.193179535479583719E+00   -0.284505362735937517E+01
    0.250401727743599849E+03   -0.158970061750379910E+01    0.223546010515518034E+00    0.196126187863695817E+00   -0.280446797624763011E+01
    0.296573751624377792E+03   -0.126294129874138639E+01    0.451172133552613097E+00    0.982849937678555302E-01   -0.285419985238996077E+01
    0.231108748748681080E+03   -0.198012987310269395E+00    0.700785587441302482E+00    0.819094250223944276E-01   -0.278593765844684249E+01
    0.197121756475211726E+03    0.133387097739072757E-01    0.713713794078449482E+00    0.172538474405443648E+00   -0.280857267291797008E+01
    0.245503714972603007E+03   -0.632928071011086502E+00   -0.334203475085589119E+00    0.316907443142341816E+00   -0.277536705298253938E+01
    0.266409871450445166E+03   -0.518493257153046505E+00    0.487772407866129853E+00    0.994751301206247274E-01   -0.283602572174859446E+01
    0.327355683060576098E+03   -0.257257796531083160E+00   -0.193799587800379536E+01    0.561031474432611810E+00   -0.276398706746851275E+01
    0.258670693771113122E+03   -0.287060442055697695E+00   -0.139758328403163734E+01    0.517476513460228604E+00   -0.282871747204338853E+01
    0.286568416108806616E+03    0.316792204510202957E+00   -0.188036825107320826E+01    0.538299416641209838E+00   -0.284914204278405858E+01
    0.261301217591471982E+03    0.120972548104577360E+00   -0.131956246178499770E+01    0.460937800755376159E+00   -0.280986294355128097E+01
    0.317756593643622125E+03    0.205790960999737926E+00   -0.168683244800689280E+01    0.459566021099662159E+00   -0.280867637179795260E+01
    0.320494895243867290E+03   -0.507063758648165441E+00   -0.176133089788459785E+01    0.487893130098324579E+00   -0.283201842468560372E+01
    0.340447949452857756E+03    0.111531802110464096E+00   -0.208590337397837233E+01    0.513291204519394362E+00   -0.279236523161721184E+01
    0.324587663938619698E+03   -0.269512502605514737E+00   -0.161376105713231333E+01    0.450863464598919295E+00   -0.277891393262607433E+01
    0.342072717858849273E+03    0.116590008831400915E+00   -0.167004194437656084E+01    0.396978059244853299E+00   -0.279168399823189661E+01
    0.316926910183114160E+03   -0.158555021835260490E+00   -0.155491872866878378E+01    0.485956264407271743E+00   -0.277043576478909603E+01
    0.343703602548885442E+03   -0.696990845667879055E+00   -0.164328217163566226E+01    0.510974260608830444E+00   -0.278023674158663825E+01
    0.329561509199691386E+03   -0.853764743953460137E-01   -0.162109857318255290E+01    0.410981152874668465E+00   -0.279877259165365810E+01
    0.235846611992945185E+03   -0.230077099096135829E+00   -0.987694925378251654E+00    0.502822690408217143E+00   -0.276844812388632810E+01
    0.339162450027511966E+03   -0.239867046911866444E+00   -0.199449472756633739E+01    0.481448800949564493E+00   -0.286193118571985083E+01
    0.337135113588492004E+03   -0.864994558139948744E-01   -0.188813193518608324E+01    0.558575228280993930E+00   -0.280509277930545897E+01
    0.250846400715576124E+03   -0.514219856228500305E+00   -0.103342696258723388E+01    0.523580361048875620E+00   -0.276647974993538392E+01
    0.239218397438526154E+03    0.221003890037536621E+00   -0.100215017795562744E+01    0.397334718704223655E+00   -0.286107990141194035E+01
    0.227074435513115191E+03   -0.148173810876783829E+00   -0.826351556579117741E+00    0.430267552649213070E+00   -0.283936217022848902E+01
    0.201266068629601989E+03   -0.521104393832834356E+00   -0.879939807753890690E+00    0.570271975980957690E+00   -0.282243515271909207E+01
    0.323740413417736249E+03   -0.226330223514164874E+00   -0.167335102781890388E+01    0.483096109110376148E+00   -0.276622144921163127E+01
    0.346099827160169127E+03   -0.548781744697771190E+00   -0.163176361187982621E+01    0.510330049817016795E+00   -0.280152074504068249E+01
    0.308788743615150452E+03   -0.128495150804519653E+01   -0.118309199810028076E+01    0.485956771588325509E+00   -0.278618129621244659E+01
    0.307066081464290619E+03   -0.127036654949188232E+01   -0.433887839317321777E+00    0.259457319545745857E+00   -0.277535271309003040E+01
    0.292703666626823747E+03   -0.128711202070491471E+01   -0.786229289257053487E+00    0.341979169075365796E+00   -0.282701655372661298E+01
    0.250749949176857115E+03   -0.140525638408807807E+01   -0.692769965214578676E+00    0.476526731003944604E+00   -0.277698694680669256E+01
    0.321208689979600649E+03   -0.158272757931132491E+01   -0.112062701214135441E+01    0.441788043420794307E+00   -0.277993868162607249E+01
    0.330036236957206597E+03   -0.181070017159888508E+01   -0.844344963880302224E+00    0.324163278566177493E+00   -0.280333460942979240E+01
    0.330462003091738154E+03   -0.138601666825909930E+01   -0.113352413127967822E+01    0.419894899639471519E+00   -0.277834330123433482E+01
    0.304161690324017570E+03   -0.817032389101942425E+00   -0.919617163528587689E+00    0.389880102626625979E+00   -0.277804942701225199E+01
    0.310975948988588129E+03   -0.142643066657371564E+01   -0.365793844494268328E+00    0.298268438597691921E+00   -0.284979895485295076E+01
    0.335666053757147552E+03   -0.723997600292032528E+00   -0.136059818503366792E+01    0.400697524288580520E+00   -0.277321470083950450E+01
    0.301506387979132114E+03   -0.608908033771006885E+00   -0.130879120640886359E+01    0.428459953425645468E+00   -0.279727082057797727E+01
    0.340616357845768960E+03   -0.400832721419817295E+00   -0.122104732296419050E+01    0.292823448116101448E+00   -0.282291718119247825E+01
    0.349658219516277313E+03    0.561800003051757812E-01   -0.104342639446258545E+01    0.250161986660957347E+00   -0.278120229111483797E+01
    0.304126204274406916E+03   -0.196708594907781809E+00   -0.105896807887583533E+01    0.330591432408238184E+00   -0.277883338044178796E+01
    0.336577676170618702E+03   -0.639985049054434985E+00   -0.111410019393733073E+01    0.359525602671048439E+00   -0.277223076850482286E+01
    0.311007480323314667E+03   -0.697330832481384277E+00   -0.520704984664916992E+00    0.299550289607048048E+00   -0.285790279241402034E+01
    0.315351963299244346E+03   -0.633200808828496609E+00   -0.643443632561502277E+00    0.275435427745948369E+00   -0.277655626282302048E+01
    0.272672195732593536E+03   -0.170528709888458252E+00   -0.437142848968505859E+00    0.186206586384773248E+00   -0.285310735246832170E+01
    0.300200676681038203E+03   -0.114857701367210296E+00   -0.689863040619091983E+00    0.225498681072595936E+00   -0.278548580532843726E+01
    0.280404211853527386E+03   -0.253762015896585202E+00   -0.614594892949817506E+00    0.334472261519829339E+00   -0.279214016434456358E+01
    0.318738813401604716E+03   -0.858866766323935771E-01   -0.825569196294797081E+00    0.236736714043787849E+00   -0.276982274302085818E+01
