    0.210795797804537301E+03    0.786988889918164958E+00   -0.484420066875780009E+01    0.458846723973166837E+00   -0.107480272322360921E+02
    0.193550288677215576E+03    0.986185014247894287E+00   -0.441762864589691162E+01    0.123734111881256104E+00   -0.987497716215174215E+01
    0.186489748954772949E+03   -0.139641284942626953E+00   -0.283049464225769043E+01    0.103895795989036560E+00   -0.961714105339792447E+01
    0.260751238465309143E+03   -0.367305040359497070E+00   -0.407623350620269775E+01    0.245730302309989934E+00   -0.938423431014383524E+01
    0.248241435309932825E+03   -0.150889034499633201E+00   -0.435465600530819952E+01    0.338330765411444190E+00   -0.916075514715308792E+01
    0.194240529235224642E+03   -0.943301383525324999E+00   -0.478166994382888788E+01    0.162476511088302716E+00   -0.895991849602863510E+01
    0.316022628607552633E+03   -0.874790052708421806E+00   -0.426083096780062220E+01    0.171464648200320480E+00   -0.895674643538193571E+01
    0.216748013388118125E+03   -0.374316503841298776E-01   -0.456785561821311603E+01    0.473800793634383766E+00   -0.894795303830271749E+01
    0.128886601328849792E+03    0.861599445343017578E+00   -0.399823367595672607E+01    0.342099802207946779E+00   -0.893022031022264429E+01
    0.145266593898020830E+03    0.443649250485795399E+00   -0.470375173754309550E+01    0.262364094341981768E+00   -0.889343424642410341E+01
    0.149129614749680599E+03   -0.198382471789317671E+00   -0.471076840521275297E+01    0.289252412194981490E+00   -0.887208092599699860E+01
    0.278389951027313600E+03   -0.113569936301435304E+01   -0.447267228627730340E+01    0.314202420269938498E+00   -0.875238436014993937E+01
    0.234151932806772720E+03   -0.163479306445691153E+01   -0.409855810868459791E+01    0.334976586923388331E+00   -0.871620766404020131E+01
    0.195900614559650421E+03    0.452427387237548828E+00   -0.462301254272460938E+01    0.481409632945060728E+00   -0.863540917757198834E+01
    0.250277522334474952E+03   -0.187198240670374694E+01   -0.361462257531501763E+01    0.159539437544801183E+00   -0.862935372351557284E+01
    0.246050813192869043E+03   -0.171421467120902871E+01   -0.493312153371827833E+01    0.984047413775218649E-01   -0.860993381207445552E+01
    0.209764690938883973E+03   -0.149089481752823572E+01   -0.457313534075159911E+01    0.989768684296447321E-01   -0.850961146282705627E+01
    0.157020090994508053E+03   -0.755649576797652545E+00   -0.478362164780397592E+01    0.319707302585394482E+00   -0.849323921170174501E+01
    0.125821456110608352E+03    0.398544598391834093E+00   -0.378740761778599877E+01    0.543438660691801245E+00   -0.836107205572463030E+01
    0.283694103360176086E+03   -0.183027017116546631E+01   -0.401413559913635254E+01    0.174258363604545607E+00   -0.834202369862617488E+01
    0.172322863332716793E+03    0.776181916141329253E+00   -0.421763536566129194E+01    0.117263750866105479E+00   -0.833512058582335769E+01
    0.260051704877748648E+03   -0.134825610078921887E+01   -0.339868345718880827E+01    0.393758907394278004E-01   -0.830098977469097754E+01
    0.218329617237919820E+03   -0.107052908930814517E+01   -0.301998602200769195E+01    0.338396626382614363E-01   -0.828990626897359562E+01
    0.208656480491079833E+03    0.485376945508639857E+00   -0.488394106343262102E+01    0.114498290969479416E+00   -0.821389182373580873E+01
    0.270788759235867815E+03    0.434589349252474832E+00   -0.487286410239474499E+01    0.298587069444226749E+00   -0.803880565396953273E+01
    0.158630727282939176E+03    0.164515781555519158E+00   -0.432890160391188239E+01    0.542800049724394773E+00   -0.798662478730651770E+01
    0.271384051442146301E+03    0.377805292606353760E+00   -0.431236684322357178E+01    0.149212390422821056E+00   -0.798252516597870798E+01
    0.311073847695542554E+03   -0.950772611543187374E+00   -0.484641686480324196E+01    0.296994679640494419E+00   -0.798030843331425732E+01
    0.257786862868465846E+03   -0.118083114924690880E+01   -0.340660028363194156E+01    0.226027451164524523E-01   -0.797096568671759709E+01
    0.242386488616466522E+03   -0.989528894424438477E+00   -0.484232664108276367E+01    0.883911784172058124E-01   -0.796698758727944423E+01
    0.150852224361354303E+03    0.714387807040131495E+00   -0.416378938609426896E+01    0.214341664805756060E+00   -0.791207931923399954E+01
    0.218187925054650407E+03    0.183010485208432883E+00   -0.479658556354838694E+01    0.454635011208133155E+00   -0.789052525826612339E+01
    0.207022726730009310E+03   -0.101325697153708161E+01   -0.371560369000147883E+01    0.244929300205347672E+00   -0.788661472138538944E+01
    0.207435879818469118E+03   -0.564552963130051433E+00   -0.484807919325941850E+01    0.184769050008830205E+00   -0.785250041490738937E+01
    0.204050592964785949E+03   -0.764117917063249275E+00   -0.469047996733644901E+01    0.159594820462225312E+00   -0.783932646738494299E+01
    0.203990701232074400E+03   -0.656574293451722468E+00   -0.484602605073328618E+01    0.200035548535079877E+00   -0.783905751487011937E+01
    0.314892413203785509E+03   -0.155363907930110567E+01   -0.473556012755673805E+01    0.264770163265813319E+00   -0.775995368397645979E+01
    0.143122402739926201E+03   -0.116437336427268878E+01   -0.307495305187350176E+01    0.296141367416777379E+00   -0.771939687753796022E+01
    0.243391998232127776E+03    0.495574037183946992E+00   -0.425138387585388777E+01    0.147143882298330891E+00   -0.771407875065109749E+01
    0.243558773783249478E+03    0.586425091711060276E-01   -0.407369324296451119E+01    0.172896494962144515E+00   -0.770930407541526552E+01
    0.222192734814091352E+03    0.239262116024730354E+00   -0.488001096667637402E+01    0.446222501353831291E+00   -0.770764755603183094E+01
    0.332256563402969505E+03   -0.122874780941146700E+01   -0.419648962139605075E+01    0.654302802683735113E-01   -0.769778055931789140E+01
    0.261704201799750763E+03    0.109135795612054665E+00   -0.477052042459946968E+01    0.317042093454483143E+00   -0.769166690545826803E+01
    0.293149379038375457E+03   -0.945214968080076989E+00   -0.385551204022703597E+01    0.412249876121832323E-01   -0.768379515498616605E+01
    0.270445841550827026E+03   -0.112787258625030518E+01   -0.493426620960235596E+01    0.400498691725730938E+00   -0.765803725912122424E+01
    0.191089720189981108E+03   -0.194379723025148832E+01   -0.337812404582012560E+01    0.205141360544963125E+00   -0.761053861300190881E+01
    0.182438626359085674E+03   -0.609097269746194048E+00   -0.467521509528990009E+01    0.228211322360459545E+00   -0.760559681675576549E+01
    0.182438626359085674E+03   -0.609097269746194048E+00   -0.467521509528990009E+01    0.228211322360459545E+00   -0.760559681675576549E+01
    0.153025521570279722E+03    0.464355573799401178E+00   -0.455483884299807595E+01    0.268475258454088650E+00   -0.759520689432995066E+01
    0.227691832597565849E+03    0.621196142479038649E+00   -0.465394910912478288E+01    0.210007900128332592E+00   -0.756003375618403872E+01
    0.304340259951340727E+03    0.854889569662029558E-01   -0.497706160969882205E+01    0.264673487373198457E+00   -0.753972367800027232E+01
    0.152996708646106214E+03    0.645078681873095583E+00   -0.444357771392611500E+01    0.304012611216544326E+00   -0.752469023276165583E+01
    0.165005941840198631E+03   -0.706719812291116689E+00   -0.377063561251995250E+01    0.373282145382760555E+00   -0.751612555561246332E+01
    0.270144455134868622E+03   -0.745544433593750000E-01   -0.472800970077514648E+01    0.286724320793151854E+00   -0.750541874013319532E+01
    0.200472815998247484E+03   -0.115175769055733168E+01   -0.331142020369321699E+01    0.126259262762616120E+00   -0.749575745332542720E+01
    0.295281129606520722E+03   -0.104139926645406056E+01   -0.438612446760396324E+01    0.175765183916341133E+00   -0.749322542291091587E+01
    0.244977272464287523E+03   -0.108463732203793661E+01   -0.348576073625859051E+01    0.398186538454467012E-01   -0.747544160242487354E+01
    0.151720096480085544E+03   -0.105154051265774484E-01   -0.490993822549064962E+01    0.410276668981282400E+00   -0.746053875694051616E+01
    0.148643861537250530E+03    0.239988132063157167E+00   -0.285643588950233562E+01    0.111441998521407473E+00   -0.744780164191626870E+01
    0.141054776355603423E+03   -0.321751525411924089E-01   -0.385489159774679591E+01    0.466145435008254561E+00   -0.744057086230942399E+01
    0.141054776355603423E+03   -0.321751525411924089E-01   -0.385489159774679591E+01    0.466145435008254561E+00   -0.744057086230942399E+01
    0.208980107716682596E+03   -0.175827176977241240E+01   -0.474060014517415329E+01    0.522117725720211645E+00   -0.740834541860542029E+01
    0.221354361591985821E+03   -0.145963404928254681E+01   -0.430333544157106296E+01    0.339250903415926952E+00   -0.734288128170729415E+01
    0.209503903217021758E+03   -0.167073097706437856E+01   -0.449911330876673077E+01    0.442825958889996207E+00   -0.733825742542493309E+01
    0.146400592238437014E+03   -0.119214929135656211E+01   -0.456971600102008679E+01    0.404604317296310301E+00   -0.730262547120464056E+01
    0.146400592238437014E+03   -0.119214929135656211E+01   -0.456971600102008679E+01    0.404604317296310301E+00   -0.730262547120464056E+01
    0.246115245811341651E+03   -0.454808137528941892E+00   -0.445958520101009270E+01    0.277120582765369328E+00   -0.729703362830309832E+01
    0.252249559850324857E+03   -0.182754806335885989E+01   -0.458395632087814153E+01    0.757349866480377387E-01   -0.727226644769027342E+01
    0.252249559850324857E+03   -0.182754806335885989E+01   -0.458395632087814153E+01    0.757349866480377387E-01   -0.727226644769027342E+01
    0.262518202997809567E+03    0.582466652264141516E+00   -0.480076623905230182E+01    0.130086803121358119E+00   -0.726689779966369187E+01
    0.150412276131281430E+03    0.175389867104980723E+00   -0.313531847497446314E+01    0.176806289866386940E+00   -0.726237827860906737E+01
    0.343045322134701280E+03   -0.178506309261460205E+01   -0.454056614055808083E+01    0.124168121013044253E+00   -0.723784333707216287E+01
    0.197935070097446442E+03   -0.829560160636901855E-01   -0.466736555099487305E+01    0.462301606392860442E+00   -0.723687764426247071E+01
    0.136533735015964311E+03    0.302488543813870692E+00   -0.297231788883822601E+01    0.176454406005265907E+00   -0.723556022755195549E+01
    0.260199343096928089E+03   -0.149111654466263488E+01   -0.469220082865880972E+01    0.335995514226856473E+00   -0.720884160820808617E+01
    0.260199343096928089E+03   -0.149111654466263488E+01   -0.469220082865880972E+01    0.335995514226856473E+00   -0.720884160820808617E+01
    0.126881949107492048E+03   -0.189615497776882291E+01   -0.358861161506591975E+01    0.259669518524117016E+00   -0.717226529568309346E+01
    0.310351758625032403E+03   -0.108125204434537237E+01   -0.470999586131008652E+01    0.205227414094964367E+00   -0.715278889228086889E+01
    0.170775802566973510E+03   -0.243883209496913445E-01   -0.309573172004272879E+01    0.862012355114030321E-01   -0.709681992352743229E+01
    0.131994140753954468E+03    0.328254909390893967E+00   -0.406920187407029665E+01    0.504118369825559909E+00   -0.708698658689373140E+01
    0.297775573191664535E+03   -0.774688506709253488E+00   -0.448396102194213331E+01    0.153727142911424558E+00   -0.708669357423186863E+01
    0.297775573191664535E+03   -0.774688506709253488E+00   -0.448396102194213331E+01    0.153727142911424558E+00   -0.708669357423186863E+01
    0.183036740124225616E+03   -0.177219533920288086E+01   -0.432837665081024170E+01    0.221299095940589913E+00   -0.708089928263783364E+01
    0.183036740124225616E+03   -0.177219533920288086E+01   -0.432837665081024170E+01    0.221299095940589913E+00   -0.708089928263783364E+01
    0.239689625441743829E+03   -0.135011618002935041E+01   -0.390330357075447409E+01    0.145606886559521864E+00   -0.707666423872944517E+01
    0.239689625441743829E+03   -0.135011618002935041E+01   -0.390330357075447409E+01    0.145606886559521864E+00   -0.707666423872944517E+01
    0.189295086421025530E+03   -0.756463146047462454E+00   -0.493100576051355421E+01    0.333516900914462955E+00   -0.707620308680360921E+01
    0.212586827982062971E+03   -0.112440649702253426E+01   -0.373760102597176314E+01    0.173954755706530628E+00   -0.707380475715588197E+01
    0.165286243154389808E+03    0.502322989895761740E+00   -0.447034934765226222E+01    0.397556640523087423E+00   -0.707239842380474215E+01
    0.159170510600948433E+03    0.434106928454176533E+00   -0.301199309759190736E+01    0.360885743253029009E-01   -0.706258908526489471E+01
    0.237217614725755084E+03   -0.775899859627986466E+00   -0.461683239557009539E+01    0.965072898827706444E-01   -0.705501528479483664E+01
    0.221558155677361242E+03   -0.138452820521356057E+01   -0.449760114938853839E+01    0.137746797303234081E+00   -0.704402372362008133E+01
    0.152784019359031589E+03   -0.266809973084608520E+00   -0.276353313158576386E+01    0.716424620638532739E-01   -0.703286022613653827E+01
    0.186749217643334759E+03    0.168448473898097362E-01   -0.318867431356386710E+01    0.337858291577866621E-01   -0.699835041919068601E+01
    0.316646207869052887E+03   -0.547633171081542969E-01   -0.489956915378570557E+01    0.183913228797912609E+00   -0.698621870290176972E+01
    0.316646207869052887E+03   -0.547633171081542969E-01   -0.489956915378570557E+01    0.183913228797912609E+00   -0.698621870290176972E+01
    0.127294160425662994E+03   -0.654143154621124268E+00   -0.470398366451263428E+01    0.547476884651184048E+00   -0.698437836778566368E+01
    0.127294160425662994E+03   -0.654143154621124268E+00   -0.470398366451263428E+01    0.547476884651184048E+00   -0.698437836778566368E+01
    0.137910919218360050E+03    0.513531674600418597E+00   -0.282410321241956286E+01    0.828631652975633792E-02   -0.697719520132206394E+01
    0.215365865330752740E+03   -0.251475122182126309E+00   -0.480283938067965899E+01    0.427546938126495191E+00   -0.697180140598118925E+01
    0.208866610781076872E+03   -0.548863079190868852E-01   -0.423345409527918104E+01    0.494395566429747871E-01   -0.697094458211870371E+01
    0.143866014480590820E+03    0.283885240554809570E+00   -0.303616583347320557E+01    0.133118491959571844E+00   -0.696326351763005036E+01
    0.143866014480590820E+03    0.283885240554809570E+00   -0.303616583347320557E+01    0.133118491959571844E+00   -0.696326351763005036E+01
    0.326263004195938720E+03   -0.118174182768902170E+01   -0.436278239672157753E+01    0.607123773711883766E-01   -0.695695670205765104E+01
    0.201604223356998489E+03   -0.172361860055178395E+00   -0.409843522679265249E+01    0.413157435311182000E-01   -0.695574176438425607E+01
    0.201604223356998489E+03   -0.172361860055178395E+00   -0.409843522679265249E+01    0.413157435311182000E-01   -0.695574176438425607E+01
    0.256234710973380061E+03   -0.932233893608845898E+00   -0.484317325480869698E+01    0.346482236131944565E+00   -0.694933942740217780E+01
    0.255202802211030843E+03   -0.139183884042433004E+01   -0.441389597214711316E+01    0.240984107088267563E+00   -0.694600887597470784E+01
    0.207989853070925392E+03   -0.150797008431471102E+01   -0.442861865029494872E+01    0.382257226974724307E+00   -0.692590495048939570E+01
    0.252909652888774872E+03   -0.138342577219009399E+01   -0.484692573547363281E+01    0.366536160349845874E+00   -0.691648838773050123E+01
    0.252909652888774872E+03   -0.138342577219009399E+01   -0.484692573547363281E+01    0.366536160349845874E+00   -0.691648838773050123E+01
    0.177301144685004687E+03    0.465640623997551906E+00   -0.471806767780027236E+01    0.412106115595412159E+00   -0.691595708401527887E+01
    0.177301144685004687E+03    0.465640623997551906E+00   -0.471806767780027236E+01    0.412106115595412159E+00   -0.691595708401527887E+01
    0.314363594734396543E+03   -0.195392991633106328E+01   -0.454996328747404366E+01    0.152412239468946498E+00   -0.690529417993115047E+01
    0.129802890692230903E+03   -0.179425307718538374E+01   -0.398380637298970353E+01    0.387696343139496691E+00   -0.688948235022501709E+01
    0.174877467725625451E+03   -0.184941022755138818E+01   -0.422776849142998223E+01    0.436862217865233660E+00   -0.688188927758251001E+01
    0.201634881195070648E+03   -0.114889361746103469E+01   -0.467673376014925157E+01    0.264280978917483700E+00   -0.686377066555393167E+01
    0.237809789086470460E+03   -0.172838744810788336E+01   -0.424685731028494651E+01    0.233453675922958459E+00   -0.685731589354482463E+01
    0.237809789086470460E+03   -0.172838744810788336E+01   -0.424685731028494651E+01    0.233453675922958459E+00   -0.685731589354482463E+01
    0.190266814734358235E+03   -0.145321645047556247E+01   -0.330877678482963677E+01    0.103225182020813544E+00   -0.685542275594346862E+01
    0.205550653648587286E+03   -0.128033169462976648E+01   -0.446310795846055708E+01    0.384932138158570358E+00   -0.685319884647998911E+01
    0.159422888903238629E+03   -0.191167804725975610E+01   -0.421641349644535168E+01    0.323721380717354901E+00   -0.685102070002929153E+01
    0.190078088641166687E+03   -0.185428023338317871E+01   -0.395629405975341797E+01    0.126948340272903443E+00   -0.684379971341657267E+01
    0.190078088641166687E+03   -0.185428023338317871E+01   -0.395629405975341797E+01    0.126948340272903443E+00   -0.684379971341657267E+01
    0.297202395026844101E+03    0.116083223008098813E-01   -0.479053409576272227E+01    0.174137165677152123E+00   -0.683704708700809505E+01
    0.137859851096883972E+03   -0.148907269902240547E+01   -0.380373839753581811E+01    0.461918591891166963E+00   -0.683366214008834838E+01
    0.215969626605510712E+03   -0.876720190048217773E+00   -0.346203446388244629E+01    0.476907086133956937E-01   -0.682585396087183049E+01
    0.215969626605510712E+03   -0.876720190048217773E+00   -0.346203446388244629E+01    0.476907086133956937E-01   -0.682585396087183049E+01
    0.307268653571374671E+03   -0.769796573292362618E+00   -0.473441976975644963E+01    0.173311192981241285E+00   -0.682362279581476372E+01
    0.307268653571374671E+03   -0.769796573292362618E+00   -0.473441976975644963E+01    0.173311192981241285E+00   -0.682362279581476372E+01
    0.158044703800802154E+03    0.429173766014725899E+00   -0.468843485270025084E+01    0.495206103256306818E+00   -0.681981072756045048E+01
    0.166052255034446716E+03   -0.567778348922729492E-01   -0.351981580257415771E+01    0.938018360137939447E-02   -0.681630601973283312E+01
    0.294512605667114258E+03   -0.169725441932678223E+01   -0.453371405601501465E+01    0.174372794365882877E+00   -0.681457737811583009E+01
    0.249776334231403268E+03   -0.354559548068932529E+00   -0.423956741794362291E+01    0.152978117998517515E+00   -0.681329090403863180E+01
    0.297611789709367486E+03   -0.183329282709928032E+01   -0.458869423751285588E+01    0.184562755551883825E-01   -0.681165102875328099E+01
    0.130989694595336914E+03   -0.185331016778945923E+01   -0.358378112316131592E+01    0.440022851514816293E+00   -0.681107811108208772E+01
    0.130989694595336914E+03   -0.185331016778945923E+01   -0.358378112316131592E+01    0.440022851514816293E+00   -0.681107811108208772E+01
    0.172153596580028534E+03   -0.155356955528259277E+01   -0.435067772865295410E+01    0.301451361894607528E+00   -0.680077237630919473E+01
    0.172153596580028534E+03   -0.155356955528259277E+01   -0.435067772865295410E+01    0.301451361894607528E+00   -0.680077237630919473E+01
    0.178851143104955440E+03   -0.153686678447406422E+01   -0.441699315359567546E+01    0.454871316498324019E+00   -0.679294592284709076E+01
    0.146771705660956599E+03    0.114650385628950691E+00   -0.331228738411432300E+01    0.244452508108417670E-01   -0.678921022082601944E+01
    0.146771705660956599E+03    0.114650385628950691E+00   -0.331228738411432300E+01    0.244452508108417670E-01   -0.678921022082601944E+01
    0.232004859178014243E+03   -0.100820140659224755E+01   -0.425307201294241644E+01    0.472280425248363597E-01   -0.678857845598105847E+01
    0.229507294496803439E+03   -0.307844040135724750E+00   -0.390717155738882838E+01    0.103886387761617627E+00   -0.678296737106163405E+01
    0.229507294496803439E+03   -0.307844040135724750E+00   -0.390717155738882838E+01    0.103886387761617627E+00   -0.678296737106163405E+01
    0.205735104249131211E+03   -0.622185664206969857E+00   -0.377452246249197021E+01    0.155682754411113372E+00   -0.677795535249822834E+01
    0.289558417695588616E+03   -0.158264729694119888E+01   -0.489996755196269085E+01    0.279663746295560289E+00   -0.676908116680867611E+01
    0.163653670387631962E+03   -0.112109179010931248E+01   -0.370856571414539582E+01    0.133263990555605338E+00   -0.676148798269712969E+01
    0.273113669763244673E+03    0.193889631238792326E+00   -0.475882340596188325E+01    0.183614287558863942E+00   -0.675737354512791022E+01
    0.286700487354592042E+03   -0.178205281889622502E+01   -0.436458854933660412E+01    0.136644101452295663E+00   -0.675534709990780868E+01
    0.286700487354592042E+03   -0.178205281889622502E+01   -0.436458854933660412E+01    0.136644101452295663E+00   -0.675534709990780868E+01
    0.182110192568237210E+03   -0.158104977945379033E+01   -0.453202796104334649E+01    0.469613912438249237E+00   -0.674987924589081612E+01
    0.185500770096724011E+03   -0.195133319709859698E+01   -0.433203381086814865E+01    0.266563885186093918E+00   -0.674579441850199668E+01
    0.185500770096724011E+03   -0.195133319709859698E+01   -0.433203381086814865E+01    0.266563885186093918E+00   -0.674579441850199668E+01
    0.130691360987962611E+03    0.432840008575685165E+00   -0.412330756090519657E+01    0.440639912313403770E+00   -0.673944041021614737E+01
    0.130691360987962611E+03    0.432840008575685165E+00   -0.412330756090519657E+01    0.440639912313403770E+00   -0.673944041021614737E+01
    0.329497922227752781E+03   -0.141064901088150263E+01   -0.453221033258898043E+01    0.822982527449211965E-01   -0.673880080654867264E+01
    0.205356045900754282E+03   -0.145110906529651840E+01   -0.380482829872434802E+01    0.337622716205621051E-01   -0.673027115325253078E+01
    0.227528258439213232E+03    0.450364978901461654E+00   -0.448058482984985851E+01    0.123798490146295598E+00   -0.672430086130682714E+01
    0.131634730917715501E+03   -0.536699074872497350E+00   -0.463195527498085546E+01    0.529391585264141096E+00   -0.672343617074353173E+01
    0.131634730917715501E+03   -0.536699074872497350E+00   -0.463195527498085546E+01    0.529391585264141096E+00   -0.672343617074353173E+01
    0.338780931054980442E+03   -0.798323224844696311E+00   -0.472367403936439967E+01    0.969711729941091644E-01   -0.672239263596984227E+01
    0.338780931054980442E+03   -0.798323224844696311E+00   -0.472367403936439967E+01    0.969711729941091644E-01   -0.672239263596984227E+01
    0.219008796572263094E+03   -0.437940049277537158E+00   -0.441447224600643384E+01    0.117066353830125439E+00   -0.672111796247102156E+01
    0.177686149974617393E+03   -0.391286250221406284E+00   -0.345934442424957034E+01    0.135756464785176445E+00   -0.671988463423982818E+01
    0.131283872923226880E+03    0.451523679709344705E-01   -0.439953016070698677E+01    0.434490799909947933E+00   -0.671469201342029365E+01
    0.131283872923226880E+03    0.451523679709344705E-01   -0.439953016070698677E+01    0.434490799909947933E+00   -0.671469201342029365E+01
    0.138109317845491148E+03   -0.150824337362977245E+01   -0.434359376562159039E+01    0.462540146897114979E+00   -0.670715698787961223E+01
    0.329690474271774292E+03   -0.157849246263504028E+01   -0.444755613803863525E+01    0.572208053827285776E-01   -0.670223304639529793E+01
    0.204147810129882771E+03   -0.431409745760640062E+00   -0.490308267923558549E+01    0.308731187632701631E+00   -0.670141409364589791E+01
    0.266302606463432312E+03   -0.163339066505432129E+01   -0.378051936626434326E+01    0.448971855640411394E-02   -0.669448320760090532E+01
    0.275334998062304294E+03   -0.173736088299715430E+01   -0.462442588388263953E+01    0.900125365485314605E-01   -0.669257998268254362E+01
    0.191254505515098572E+03   -0.295787155628204346E+00   -0.481784522533416748E+01    0.475945103502273592E+00   -0.668686765861300447E+01
    0.183425761801078949E+03   -0.496753555655821799E+00   -0.451669304266181371E+01    0.417398210044270301E+00   -0.667900157195771271E+01
    0.163577143285072935E+03   -0.138239027020112948E+01   -0.357509584810483805E+01    0.251779480487036189E+00   -0.667500246877625614E+01
    0.163662347164080700E+03   -0.272191648704005695E+00   -0.461434800938782619E+01    0.520517436006104228E+00   -0.667495336160697050E+01
    0.203546958640586439E+03   -0.297665185952880051E+00   -0.399476067385172628E+01    0.467835277125970006E-01   -0.667321576789789539E+01
    0.200680029590590976E+03   -0.557419728673165249E+00   -0.388271713971825161E+01    0.184874271985250277E+00   -0.667109848440771636E+01
    0.200680029590590976E+03   -0.557419728673165249E+00   -0.388271713971825161E+01    0.184874271985250277E+00   -0.667109848440771636E+01
    0.144213288740732850E+03    0.196760156146352116E+00   -0.434015378867146051E+01    0.355226972728978407E+00   -0.665950335305062513E+01
    0.222120159720978336E+03    0.310296231991216143E+00   -0.431014605345985924E+01    0.159372278769738446E+00   -0.665779146546688860E+01
    0.222120159720978336E+03    0.310296231991216143E+00   -0.431014605345985924E+01    0.159372278769738446E+00   -0.665779146546688860E+01
    0.127217360296724706E+03   -0.822022291642602099E+00   -0.409556931559554194E+01    0.561403715248366741E+00   -0.665633223947993358E+01
    0.142137524320531952E+03   -0.116061057495561260E+01   -0.396816472559122779E+01    0.452443989670775426E+00   -0.665353318212133082E+01
    0.157793359855249065E+03   -0.125114010603378745E+01   -0.483039435868246514E+01    0.508883514495888423E+00   -0.665138878071607120E+01
    0.235190695240650086E+03   -0.544034270383887852E+00   -0.373453776961366390E+01    0.295268112386789031E-01   -0.665076775698554457E+01
    0.235190695240650086E+03   -0.544034270383887852E+00   -0.373453776961366390E+01    0.295268112386789031E-01   -0.665076775698554457E+01
    0.163489053663250843E+03   -0.164301590936378461E+01   -0.456565642501224822E+01    0.538972952602263300E+00   -0.664714235126761910E+01
    0.315651881343779223E+03   -0.498542558861463814E+00   -0.497375817329009795E+01    0.187156312390618113E+00   -0.664546201088238231E+01
    0.168027605154303274E+03   -0.177151197878204636E+01   -0.442423622544818596E+01    0.479694067307249672E+00   -0.663977901186772446E+01
    0.218231131508952387E+03    0.149660551099382921E+00   -0.415401527831165307E+01    0.151023101994118475E+00   -0.663682638956089122E+01
    0.147776783781084248E+03   -0.170357561840484095E+01   -0.325877136034242643E+01    0.225858760897990174E+00   -0.663657058296631508E+01
    0.199538428502678101E+03   -0.589917847018675445E+00   -0.345074075095863186E+01    0.584456381877679065E-01   -0.663135661465273696E+01
    0.236813205411435035E+03   -0.153428354293648139E+01   -0.416928117008442012E+01    0.172297279108391849E+00   -0.662647396114997722E+01
    0.129668074665196372E+03    0.705119579001660668E-01   -0.411000840102312459E+01    0.499556361393800163E+00   -0.662402685340508413E+01
    0.164564530008685608E+03   -0.102878822409492154E+01   -0.456012620015080117E+01    0.396827220345298715E+00   -0.662071934544445906E+01
    0.243045431668922674E+03   -0.140751107072912296E+01   -0.395274125546671051E+01    0.908439565068646093E-01   -0.661550700368644229E+01
    0.136867073647773680E+03    0.355240471676263603E+00   -0.274314613293741782E+01    0.423650694453563386E-02   -0.661308943993154941E+01
    0.212652048094835294E+03   -0.130184404846031776E+01   -0.401369040440502811E+01    0.848415968441383062E-01   -0.661210771135560105E+01
    0.199205930232427676E+03   -0.107792787202010065E+01   -0.436989560503011365E+01    0.335059942408408196E+00   -0.661083425641901634E+01
    0.189394038000623510E+03   -0.356511487622272139E+00   -0.491288220308523993E+01    0.368502247996231769E+00   -0.661001215101363826E+01
    0.152652161073874908E+03   -0.137150000294289232E+01   -0.417155208820372181E+01    0.460604086638968901E+00   -0.660789520651170648E+01
    0.199349252931129399E+03   -0.253429954673000335E+00   -0.494075830671289040E+01    0.471120603552646899E+00   -0.660774879658316650E+01
    0.199349252931129399E+03   -0.253429954673000335E+00   -0.494075830671289040E+01    0.471120603552646899E+00   -0.660774879658316650E+01
    0.177084567451998907E+03   -0.137862089752634276E+01   -0.388698406250285045E+01    0.167077788964371809E+00   -0.660711508997084529E+01
    0.250321976313244505E+03   -0.166397842776850502E+01   -0.496350842948041304E+01    0.267237806791815469E+00   -0.660577889785453820E+01
    0.215424660490079759E+03    0.365543473848847000E+00   -0.428084875177299828E+01    0.137215054175534285E+00   -0.660282567825495192E+01
    0.181932464106021229E+03    0.374353698738322471E+00   -0.495849990599221435E+01    0.421079768060964865E+00   -0.659873555618135654E+01
    0.165385425539468201E+03   -0.786025026199181687E+00   -0.435316574869304684E+01    0.325398612000326659E+00   -0.659565766348694105E+01
    0.165385425539468201E+03   -0.786025026199181687E+00   -0.435316574869304684E+01    0.325398612000326659E+00   -0.659565766348694105E+01
    0.243231904477366584E+03   -0.192478385239709149E+01   -0.413976180008980332E+01    0.144859357854098092E+00   -0.659378927599440345E+01
    0.172132501006126404E+03   -0.142296546697616577E+01   -0.377731144428253174E+01    0.166311259818077095E+00   -0.659341911352654453E+01
    0.155607649296771740E+03   -0.176171919940221078E+01   -0.341360825064710394E+01    0.224773816953559580E+00   -0.659204662398420815E+01
    0.237635989705268628E+03   -0.168036264136328928E+01   -0.442481159393173407E+01    0.150385683768736567E+00   -0.659080488394935315E+01
    0.173039211808289622E+03   -0.139874770952808403E+01   -0.414729632496404133E+01    0.362728591827297442E+00   -0.659053097779835273E+01
    0.334829019521064083E+03   -0.511289602605125459E+00   -0.467419987606114606E+01    0.569430243687891399E-01   -0.658967152735848050E+01
    0.242448778013469564E+03    0.349859789865119453E+00   -0.442569308993055888E+01    0.875058634689664661E-01   -0.658948293492136106E+01
    0.220966975845488975E+03   -0.572312903190094202E+00   -0.355347978690666544E+01    0.967937897712263864E-02   -0.658846516960607520E+01
    0.202226296067237854E+03    0.215430438518524170E+00   -0.421443104743957520E+01    0.113298463153839110E+00   -0.658482140040372954E+01
    0.189763353801231261E+03   -0.332189436794148474E+00   -0.419359162451343082E+01    0.282224125462575637E+00   -0.658072980415337039E+01
    0.247458988139407779E+03    0.184225776951420173E+00   -0.458505369101041360E+01    0.875377853235439901E-01   -0.657934679127502164E+01
    0.169523255687412899E+03   -0.128304460405341336E+01   -0.355465998951956852E+01    0.200483252250470284E+00   -0.657888870370165701E+01
    0.188463958252926915E+03   -0.150299390769491970E+01   -0.414432586377740098E+01    0.217612897489319917E+00   -0.657389124524725066E+01
    0.192716135331398561E+03   -0.953143681743754412E+00   -0.373032171171162474E+01    0.562120960058036245E-01   -0.657211210162008630E+01
    0.225537603418263814E+03   -0.122462631857724391E+01   -0.373542862247347340E+01    0.580644511984863762E-01   -0.656874238675947719E+01
    0.214800962217821052E+03   -0.187126815979053096E+01   -0.379530210431721571E+01    0.117500360290446665E+00   -0.656837465614526739E+01
    0.237480810300242695E+03   -0.241522953041305444E+00   -0.413084278974865171E+01    0.108770699756775988E+00   -0.656820330623291948E+01
    0.174500826235359369E+03   -0.161219042902970777E+01   -0.497911014913927019E+01    0.523508192632999525E+00   -0.656668633758129161E+01
    0.178710446093749312E+03   -0.140388793689537250E+01   -0.342743728017642546E+01    0.122208458312118240E+00   -0.656544259676570174E+01
    0.182951955002910637E+03    0.103286177937125245E-01   -0.382710295897468988E+01    0.638910513359268045E-01   -0.656258066820643560E+01
    0.243742564125772418E+03   -0.127555573224463914E+01   -0.443354078876929059E+01    0.122357341549824375E+00   -0.656113816498635405E+01
    0.180468954145908356E+03    0.490760803222656250E-01   -0.388320147991180420E+01    0.187134758377075189E+00   -0.656059292086290302E+01
    0.263742846267770915E+03   -0.782537612254275761E+00   -0.494219953596598316E+01    0.188931043347432104E+00   -0.655896042469736074E+01
    0.222609882303054519E+03   -0.180923375975771816E+01   -0.441862945391458606E+01    0.259245755275850920E+00   -0.655716276607420312E+01
    0.256867820142837161E+03   -0.301484808277402649E+00   -0.482717395600373855E+01    0.258654118500744712E+00   -0.655645935338083685E+01
    0.284165443578156783E+03   -0.958840009447393005E+00   -0.486373501545573461E+01    0.225824189925291546E+00   -0.655355711929021645E+01
    0.221828269825721577E+03    0.794785388804992721E-01   -0.496697625152755862E+01    0.272082626601348687E+00   -0.655278801484908335E+01
    0.215450592339038849E+03   -0.187191736698150635E+01   -0.413024246692657471E+01    0.165004893136024483E+00   -0.655232731401953394E+01
    0.167957342132107698E+03    0.259940373181269280E+00   -0.367948300628901492E+01    0.938624078030344533E-01   -0.655071228388828164E+01
    0.204081877292701847E+03   -0.106569842037735873E+01   -0.415370683789534478E+01    0.168614623077779580E+00   -0.650524298661722078E+01
    0.218436506960128838E+03   -0.123408103754516696E+01   -0.377403406792591634E+01    0.883639090934738025E-01   -0.654848767472044013E+01
    0.244083145757812730E+03   -0.137748524454847265E+01   -0.408638646125250116E+01    0.459252882936911494E-01   -0.650998151568699335E+01
    0.226467565225224575E+03   -0.178031427500046435E+01   -0.401613248995894612E+01    0.118849157668280511E+00   -0.653863022072329070E+01
    0.195364964008331299E+03   -0.124327659606933594E+01   -0.407501041889190674E+01    0.240440319013595583E+00   -0.652116707362520920E+01
    0.182680475031446178E+03   -0.122103368106969290E+01   -0.410367170405751658E+01    0.237403678395922774E+00   -0.648573970675135403E+01
    0.212630556358349139E+03   -0.194831735098854497E+01   -0.363338394568632594E+01    0.663855011231285763E-01   -0.654911562106037870E+01
    0.201711507411898282E+03   -0.144306282125344332E+01   -0.398940005003955367E+01    0.156362098140435335E+00   -0.650980754175490528E+01
    0.191978837172450824E+03   -0.124046384566651158E+01   -0.405359984193633771E+01    0.218197342503662489E+00   -0.648323531906196671E+01
    0.184495728154242386E+03   -0.189492010523415666E+01   -0.362769454707960204E+01    0.122854754842241939E+00   -0.653904887753518249E+01
    0.178759852196471456E+03   -0.168410215963040555E+01   -0.383947886923066406E+01    0.233481211665557492E+00   -0.654062267620640725E+01
    0.221771460173693299E+03   -0.163856051734435670E+01   -0.374818046318725973E+01    0.352036764452472381E-01   -0.652662516192561615E+01
    0.172722916390922251E+03   -0.158928882939815797E+01   -0.382343483340858681E+01    0.240035781764533329E+00   -0.652218388872955668E+01
    0.231218506073192543E+03   -0.171130128158906669E+01   -0.374678697593175691E+01    0.220799269327105648E-01   -0.652170640103197297E+01
    0.216880898310679441E+03   -0.976964668211326881E+00   -0.400158410977743006E+01    0.848617422980322000E-01   -0.648863227995942538E+01
    0.201649205386638641E+03   -0.893678903579711914E+00   -0.368874251842498779E+01    0.109906720376014719E+00   -0.653993902673220617E+01
    0.180447020709325841E+03   -0.872125009257859629E+00   -0.334443839940449728E+01    0.186833353344442073E-01   -0.645579326739285975E+01
    0.169306860062491353E+03   -0.659000201834164967E+00   -0.333327643649491367E+01    0.952725494470054030E-01   -0.648057995473875348E+01
    0.170634655701502197E+03   -0.113451208812724724E+01   -0.370299297773174585E+01    0.214982437489365880E+00   -0.650972172485387812E+01
    0.161219527829808101E+03   -0.108145700994802807E+01   -0.383890068054066358E+01    0.229266920301027660E+00   -0.651899123050010676E+01
    0.141437688051987607E+03   -0.836202884730878004E+00   -0.432710012711148906E+01    0.510844181672179931E+00   -0.648923690060497371E+01
    0.136742317812351843E+03   -0.913235803341265528E+00   -0.428673687337776599E+01    0.477968305969228069E+00   -0.648156946210570339E+01
    0.180024256144293645E+03   -0.106369481912385533E+01   -0.471121816877963351E+01    0.455637623281380133E+00   -0.648427614857434520E+01
    0.135541544956289783E+03   -0.156790502374859964E+01   -0.427474405023997939E+01    0.538806824204824952E+00   -0.652540722815143326E+01
    0.172135212266724665E+03   -0.172006024821638981E+01   -0.476728082984115265E+01    0.512451538378973614E+00   -0.653149063544296560E+01
    0.151280657043033727E+03   -0.136023490553784798E+01   -0.448496803541643985E+01    0.481472596879539860E+00   -0.651843100595670144E+01
    0.222858992297420116E+03   -0.143737738474894750E+01   -0.499704672112352544E+01    0.397673091577363746E+00   -0.650521301019657727E+01
    0.131957915381797534E+03   -0.110470682645397322E+01   -0.418134700773373336E+01    0.468816871066563556E+00   -0.652045857396302786E+01
    0.182090146627817717E+03   -0.126788067005169114E+01   -0.491944518552854948E+01    0.499529843205896329E+00   -0.647978740672035958E+01
    0.204875078614094832E+03   -0.158979135848385389E+01   -0.487237649920889648E+01    0.439117874033413402E+00   -0.652219633015609013E+01
    0.163966363203296737E+03   -0.173535821922541489E+01   -0.477055853966149002E+01    0.536614380248812584E+00   -0.654060407028402579E+01
    0.127340341351386883E+03   -0.101258713438386194E+01   -0.420612460931807863E+01    0.518359977053538423E+00   -0.647557484665215366E+01
    0.223728924353824596E+03   -0.908376000265812333E+00   -0.470679228351907586E+01    0.302164889877495513E+00   -0.647168411611415095E+01
    0.217534627034100197E+03   -0.865513420876336870E+00   -0.496797784413541521E+01    0.344799570738948957E+00   -0.651059849575102323E+01
    0.196910081513684702E+03   -0.853280404494648259E+00   -0.443967815983124936E+01    0.341685678752942701E+00   -0.654277361730831775E+01
    0.177400902616411230E+03   -0.987364250514593866E+00   -0.439624336613276157E+01    0.322441760591808513E+00   -0.649616222611622618E+01
    0.194589789045503665E+03   -0.120248753621126525E+01   -0.466317969039318214E+01    0.351605635085977919E+00   -0.651780433469900267E+01
    0.200891668760465279E+03   -0.107890290875535122E+01   -0.451292592679027660E+01    0.304519561128358596E+00   -0.647297078006129656E+01
    0.196193833633091117E+03   -0.126440636485807945E+01   -0.453750035434510313E+01    0.307559949099500851E+00   -0.653612774988478495E+01
    0.197774545495816199E+03   -0.782005472457890871E+00   -0.462976883472852396E+01    0.364490869551362395E+00   -0.646649987466497933E+01
    0.174699499601615656E+03   -0.171712445229885646E+01   -0.404624416933203612E+01    0.305303753237802677E+00   -0.653669820749221842E+01
    0.146630233780877177E+03   -0.104790586932565644E+01   -0.377121958096602716E+01    0.305297858340777828E+00   -0.647237723772467000E+01
    0.132818008358502283E+03   -0.149605135541326484E+01   -0.332706160431739262E+01    0.258530910645668466E+00   -0.650959536850198717E+01
    0.277526631951332092E+03   -0.182043290138244629E+01   -0.462196946144104004E+01    0.157400706338882451E+00   -0.650804600833945557E+01
    0.257860554754734039E+03   -0.152097427845001221E+01   -0.450319945812225342E+01    0.130083688545227061E+00   -0.652598739794429417E+01
    0.261491762632429754E+03   -0.135074722119767099E+01   -0.427997550846093588E+01    0.742173935041120919E-01   -0.647495763666167168E+01
    0.311463166800455042E+03   -0.164088308816852835E+01   -0.496430860566842735E+01    0.182888718157584951E+00   -0.649109960991360069E+01
    0.263472806028206378E+03   -0.129391290214979593E+01   -0.425834769021582549E+01    0.597387198907718756E-01   -0.647135094973225655E+01
    0.270950809590271263E+03   -0.181885020184784119E+01   -0.437662850798633141E+01    0.934775160471840588E-01   -0.650801129120895094E+01
    0.260913891554772590E+03   -0.154096444993929227E+01   -0.469379561358280739E+01    0.242134465432052914E+00   -0.654104157204907466E+01
    0.328741844420992493E+03   -0.138197789174784225E+01   -0.494567311002884136E+01    0.156724492566187840E+00   -0.652627295262188589E+01
    0.273808046041611192E+03   -0.159559103272185987E+01   -0.411539847532957914E+01    0.254567288794825932E-02   -0.649286067139829726E+01
    0.326137391975256094E+03   -0.184287590625146369E+01   -0.495565340841113233E+01    0.157623877312412203E+00   -0.650986077862211321E+01
    0.326596161724426338E+03   -0.135915728061377550E+01   -0.449160797415142632E+01    0.357199882200750080E-01   -0.653566587420871059E+01
    0.264585355022746569E+03   -0.144485253519237844E+01   -0.425374291902314461E+01    0.872846104812813189E-01   -0.649439144234921528E+01
    0.298612601131621432E+03   -0.166492848500537982E+01   -0.462000806266684094E+01    0.881161046765269046E-01   -0.650036635321895329E+01
    0.282977959154542077E+03   -0.131065156854695219E+01   -0.466443262852666152E+01    0.159745189887474243E+00   -0.649469531748588302E+01
    0.270551040410119697E+03   -0.865241012751357674E+00   -0.495699498182829590E+01    0.276231257526124485E+00   -0.653833988568389746E+01
    0.273486985476350867E+03   -0.765799860370826924E+00   -0.477560225472751210E+01    0.144440326349991710E+00   -0.646446235364262378E+01
    0.303469140466128806E+03   -0.105548849295140923E+01   -0.468265276216350657E+01    0.798182225106105619E-01   -0.645315611055036786E+01
    0.270804769992707122E+03   -0.624582444844954399E+00   -0.497210433072433400E+01    0.187675057258911676E+00   -0.649534339996030674E+01
    0.272269620441258439E+03   -0.594555460280141723E+00   -0.496616914241032514E+01    0.203217172481387459E+00   -0.644619676584977874E+01
    0.288212744243334100E+03   -0.706458902538916522E+00   -0.479886153304202789E+01    0.150646890384950993E+00   -0.644483694907380400E+01
    0.304888869716897489E+03   -0.105711295487333690E+01   -0.458042228415674568E+01    0.859486413704234481E-01   -0.649613489328233928E+01
    0.275445606093689776E+03   -0.739130681775126419E+00   -0.436688260497632985E+01    0.113156417925329607E-01   -0.649246695220930103E+01
    0.299621802384378498E+03   -0.755072358896192508E+00   -0.460594825493246063E+01    0.546246003128312563E-01   -0.644319593135278978E+01
    0.281697973445195260E+03   -0.582671056656757225E+00   -0.456324229662833236E+01    0.377270877141215391E-01   -0.652257598092947966E+01
    0.258518900742925211E+03   -0.113238323208263725E+01   -0.487201445616415096E+01    0.281233136909336046E+00   -0.650551666433880538E+01
    0.240026036818892266E+03   -0.100290572905138764E+01   -0.465871940613722302E+01    0.217679577493155085E+00   -0.646457115115496617E+01
    0.300066737247049559E+03   -0.800809806190007745E+00   -0.466127452609894632E+01    0.584167521317583219E-01   -0.645913966651902172E+01
    0.257224010009682047E+03   -0.654235436350801614E+00   -0.442318658347012139E+01    0.599938861651235014E-01   -0.652914084732728295E+01
    0.256674101194790182E+03   -0.999307695261958617E+00   -0.488586521130991969E+01    0.271092100285252935E+00   -0.646825424422066497E+01
    0.314824913967551538E+03   -0.647560129048733391E+00   -0.498869069591944125E+01    0.172411727300752549E+00   -0.651472775643798840E+01
    0.348383293953630869E+03   -0.977948306325822303E+00   -0.498351852257099193E+01    0.972083333402245647E-01   -0.646231626291536720E+01
    0.289009518753703333E+03   -0.327779118470270969E+00   -0.490588594490632524E+01    0.167142281639073853E+00   -0.644383484103272686E+01
    0.197962324153269606E+03   -0.284199969941768327E+00   -0.381482237061370544E+01    0.617373302860691753E-01   -0.646279296632113187E+01
    0.145095539093017578E+03    0.177076995372772217E+00   -0.307621479034423828E+01    0.687561016559600918E-01   -0.651308479669527163E+01
    0.134995123048322085E+03   -0.105566482848281851E+00   -0.277975528808701799E+01    0.432811958989985715E-01   -0.644142187132711985E+01
    0.192524504327734235E+03    0.454865462777052088E-01   -0.380631145343546606E+01    0.548535237903223227E-01   -0.648569636813054728E+01
    0.185809953563329174E+03   -0.751947901009391018E-01   -0.357933160933826722E+01    0.238151803427839800E-01   -0.645302199751816019E+01
    0.157808252161507340E+03   -0.286016534203148876E+00   -0.344283252153733388E+01    0.124830054581154690E+00   -0.643494657577972085E+01
    0.184535798161816956E+03   -0.483505653601461471E-01   -0.357901881321581161E+01    0.536194523539763046E-01   -0.644599866943734234E+01
    0.192984586209361396E+03   -0.912193961986971225E-01   -0.358073522065743921E+01    0.719296361823621236E-02   -0.645128733863483017E+01
    0.167739433503943616E+03    0.206514110207396406E+00   -0.375486880785471211E+01    0.128854852289763400E+00   -0.651449420385670486E+01
    0.188295187181602927E+03   -0.174644467991683427E+00   -0.365388992049748396E+01    0.580045676268572327E-01   -0.643612055967030994E+01
    0.223990623913012087E+03   -0.323837475390546858E+00   -0.395219955298266434E+01    0.556443666606633650E-01   -0.644066339469283555E+01
    0.195182588958672284E+03    0.245982686257084637E-02   -0.369958749766751716E+01    0.697501655808893534E-01   -0.647007707628097339E+01
    0.154476583609236172E+03   -0.524484054077601902E+00   -0.311088675096546341E+01    0.104670408329787107E+00   -0.653568531089421700E+01
    0.233150017268232432E+03   -0.551962787873432559E+00   -0.411597176355470218E+01    0.410562797844122099E-01   -0.648469064368002091E+01
    0.227210911994324590E+03   -0.187566294777729237E+00   -0.432575331868147117E+01    0.137449566616196672E+00   -0.643476089562253684E+01
    0.226418194728403392E+03   -0.797658353758751382E+00   -0.426934480047741083E+01    0.187126029260655857E+00   -0.651955306082517883E+01
    0.201112082097386178E+03   -0.604060475433281230E+00   -0.447410770727467799E+01    0.247913080345356668E+00   -0.649116990352407619E+01
    0.254565536672454186E+03   -0.279196695869439848E+00   -0.490183472102879669E+01    0.279589500129405588E+00   -0.653264270219745313E+01
    0.250080317312217034E+03    0.268605207501440013E-01   -0.472877298093032472E+01    0.135066188293943651E+00   -0.652957313119898597E+01
    0.209492149909344874E+03   -0.215446303528491256E+00   -0.427152577587764881E+01    0.192982503503696612E+00   -0.644220610126095838E+01
    0.254682784781245971E+03   -0.409494901891110263E+00   -0.480902480411909039E+01    0.190511669804200590E+00   -0.645370353446494960E+01
    0.241289100531582420E+03   -0.506131614593323675E+00   -0.472007001478705046E+01    0.226295128505906717E+00   -0.643694384362348337E+01
    0.267604404361727461E+03    0.304477335930504189E-01   -0.484916518260352714E+01    0.199572375788074546E+00   -0.652189030688216231E+01
    0.207304911416429320E+03   -0.596490095245968188E+00   -0.416262626908551159E+01    0.148279637788150676E+00   -0.646491905826766278E+01
    0.232125423545211817E+03   -0.539802355839949621E+00   -0.441562413684096899E+01    0.153959003382528742E+00   -0.644130823855295187E+01
    0.227988483499377708E+03   -0.540514386917978928E+00   -0.453035829884538810E+01    0.192442919421820069E+00   -0.644907080915038033E+01
    0.193706564046376684E+03   -0.633079775554003632E+00   -0.411070998290864509E+01    0.235653447212284373E+00   -0.649114057895014707E+01
    0.242013078228228892E+03   -0.832519150311510359E-01   -0.478196386847046284E+01    0.220604915990123468E+00   -0.643892943994957090E+01
    0.267598831346594181E+03   -0.315648787835193900E+00   -0.445952888348014653E+01    0.660700726858233639E-01   -0.643821556533522621E+01
    0.253577717365740625E+03   -0.188115519885978966E+00   -0.472523378350585510E+01    0.192107996019507538E+00   -0.644280215860020267E+01
    0.159809464030785477E+03   -0.418537679675004437E+00   -0.418103718474711350E+01    0.383189391528121592E+00   -0.651390490520063459E+01
    0.200505660930679028E+03   -0.424901189593413386E+00   -0.486107627540040266E+01    0.342946864507613192E+00   -0.652036611172384983E+01
    0.172575347792735528E+03   -0.342284850012195996E+00   -0.421482808795907271E+01    0.339163538241602891E+00   -0.651655006833485384E+01
    0.169225821970986772E+03   -0.275685532983760417E-01   -0.476210076093706292E+01    0.457521601472039408E+00   -0.644304819091286163E+01
    0.142508338979356381E+03    0.848117786091897585E-01   -0.463647193353889620E+01    0.522880718998702032E+00   -0.646245176542361932E+01
    0.162084763585056010E+03   -0.698002805730473241E+00   -0.436809097408277136E+01    0.400908530127610241E+00   -0.644956233936995549E+01
    0.188061399426688183E+03   -0.521796770060850124E+00   -0.493454132436536419E+01    0.430457659126082859E+00   -0.645479555921758941E+01
    0.156734294746113733E+03   -0.587333035440753104E+00   -0.493210871490221692E+01    0.563640699511148813E+00   -0.645412617604790562E+01
    0.190723525870081687E+03   -0.712659359907933831E+00   -0.498192225889880635E+01    0.466859640764515693E+00   -0.644670737451049458E+01
    0.140515070779014565E+03    0.107360728583191012E+00   -0.465482127941447121E+01    0.523648388064498094E+00   -0.647354838630370466E+01
    0.139927809337302705E+03   -0.226911193116867693E-01   -0.443088230139902972E+01    0.452551349210218778E+00   -0.647985901749465221E+01
    0.167139721230534178E+03   -0.454419987101899459E+00   -0.466192408130075986E+01    0.454093058050174414E+00   -0.643876011551329164E+01
    0.191038678213239507E+03   -0.972183551047152150E-01   -0.450086992343493097E+01    0.315688374261466898E+00   -0.644922795016975314E+01
    0.186167825851713502E+03   -0.606489969436656784E+00   -0.497537541009122908E+01    0.487995033462923333E+00   -0.645291013878889430E+01
    0.173900685546730926E+03    0.428300445662737062E-01   -0.433958639495219778E+01    0.313756035639181419E+00   -0.646083234921783678E+01
    0.208447909576079354E+03    0.210023030291584423E+00   -0.463728015749032352E+01    0.278560924120867026E+00   -0.653056472808096622E+01
