    0.345955644547939301E+03   -0.145308792591094971E+00   -0.942962765693664551E+00    0.373008970141410823E+00   -0.500391814673933144E+01
    0.282098537683486938E+03    0.813546061515808105E+00    0.361395597457885742E+01    0.338001618361473077E+00   -0.448457745051864709E+01
    0.191089831292629242E+03    0.990242838859558105E+00    0.189995765686035156E+00    0.305591612863540640E+00   -0.442046416861301950E+01
    0.275355061888694763E+03   -0.852156162261962891E+00    0.105935692787170410E+01    0.512381304502487200E-01   -0.441345369260451559E+01
    0.210657954216003418E+03   -0.490715086460113525E+00    0.108837187290191650E+01    0.204911921739578257E+00   -0.437859734047285976E+01
    0.236376744508743286E+03   -0.118342381715774536E+01    0.494387447834014893E+01    0.169233816003799442E+00   -0.435553413336020689E+01
    0.199956691265106201E+03   -0.137780886888504028E+01    0.332951545715332031E+00    0.531850023365020741E+00   -0.425931552656597212E+01
    0.210625325143337250E+03    0.571359932422637939E+00   -0.564771890640258789E-01    0.404128473687171974E+00   -0.412591367437637757E+01
    0.180353739857673645E+03    0.224246144294738770E+00    0.127238929271697998E+01    0.192019150471687328E+00   -0.402937061362863602E+01
    0.204064789414405823E+03   -0.635315299034118652E+00    0.463771581649780273E+01    0.271560095500946064E+00   -0.381915543458193429E+01
    0.224427693470161728E+03    0.481910802182006215E+00    0.354683823776301210E+01    0.460056061794040183E+00   -0.381499202586779917E+01
    0.205549182186502236E+03    0.770367803481106783E+00    0.371173595264333578E+01    0.455086802252353817E+00   -0.379195561515559820E+01
    0.185387052595615387E+03   -0.667017757892608643E+00    0.155088841915130615E+01    0.228080909729003911E+00   -0.357564646631936434E+01
    0.193782619472407077E+03   -0.185593365353174344E+01    0.462195216211106974E+01    0.340857007414452740E+00   -0.355086308188403077E+01
    0.256341311335563660E+03   -0.802284955978393555E+00    0.363928079605102539E-01    0.467344509315490764E+00   -0.348515260486994327E+01
    0.249979366362094879E+03   -0.176583886146545410E+01    0.406800210475921631E+01    0.298941322803497334E+00   -0.338874285926039365E+01
    0.177357417345046997E+03   -0.485429704189300537E+00    0.441786110401153564E+01    0.336542779684066762E+00   -0.322119232033507386E+01
    0.299851663410663605E+03   -0.521772563457489014E+00    0.313157975673675537E+01    0.339636845541000376E+00   -0.313170229900748298E+01
    0.175310446747600963E+03   -0.188022293814985741E+01    0.412464950613726522E+01    0.484968546505166298E+00   -0.307278521986979269E+01
    0.312274274230003357E+03    0.572749853134155273E+00    0.332242250442504883E+01    0.158981379318237304E+00   -0.284438208096187717E+01
    0.235639257729053497E+03    0.438801407814025879E+00    0.160570383071899414E+01    0.232157292366027852E-02   -0.283930128353787037E+01
    0.234635816514492035E+03   -0.142505043745040894E+01    0.976019501686096191E+00    0.370047690367698690E+00   -0.281888990693322850E+01
    0.285599571466445923E+03   -0.757393717765808105E+00    0.427852869033813477E+01    0.740975003242492700E-02   -0.273824335481466230E+01
    0.346764612197875977E+03   -0.674247741699218750E-01    0.228216409683227539E+01    0.403450657367706300E+00   -0.272271524478024407E+01
    0.318309070169925690E+03   -0.699851036071777344E+00    0.256301164627075195E+01    0.405038256239891092E+00   -0.270257244547581843E+01
    0.251731278002262115E+03   -0.103341788053512573E+01    0.340747177600860596E+01    0.344586334204673772E+00   -0.268456094137703527E+01
    0.212929886118316347E+03    0.922395634144589138E+00    0.305379353089064942E+00    0.388238438222596627E+00   -0.267168955934808938E+01
    0.173096768558025360E+03    0.467616915702819824E+00    0.553585290908813477E+00    0.531750433802604672E+00   -0.264444272791378232E+01
    0.187341478500146081E+03    0.113049161940946163E+00    0.539756992593744656E+00    0.538948264698832058E+00   -0.261432362046539701E+01
    0.149349576234817505E+03   -0.717883527278900146E+00    0.393261313438415527E+01    0.523907218408584563E+00   -0.261038513547127193E+01
    0.251964160799980164E+03   -0.104772067070007324E+01    0.273590743541717529E+01    0.523895277214050270E+00   -0.260825921527935645E+01
    0.281831571891069927E+03    0.112252761798727008E+00    0.333484025179006593E+01    0.216812192538430731E+00   -0.260669860787276297E+01
    0.297987876832485199E+03   -0.133656847476959229E+01    0.367974400520324707E+01    0.152168313717842119E+00   -0.259073346403322358E+01
    0.289794211089611053E+03   -0.373421370983123779E+00    0.249379873275756836E-01    0.451785132837295544E+00   -0.258122438930275955E+01
    0.295322512090206146E+03   -0.194317150115966797E+01    0.184036910533905029E+01    0.354429665565490701E-01   -0.256346573160049651E+01
    0.170454779267311096E+03    0.851292788982391357E+00    0.932247042655944824E+00    0.383657752132415764E+00   -0.253279940205703191E+01
    0.180476450920104980E+03   -0.522017002105712891E+00    0.354942798614501953E+01    0.470864056992530866E+00   -0.252949724966359568E+01
    0.185715931653976440E+03   -0.866280853748321533E+00    0.159394145011901855E+01    0.346323641538619997E+00   -0.250020177024272083E+01
    0.298284693231902679E+03   -0.857892955601495810E+00    0.319612966096693363E+01    0.247523187309480114E+00   -0.249224306737062751E+01
    0.267115981019359708E+03    0.840080619524883332E-01    0.224545075288217255E+01    0.530946826583867715E+00   -0.241990066276654447E+01
    0.267115981019359708E+03    0.840080619524883332E-01    0.224545075288217255E+01    0.530946826583867715E+00   -0.241990066276654447E+01
    0.213484103977680206E+03    0.632042586803436279E+00    0.177896142005920410E+01    0.342614024162292488E-01   -0.240240137537199816E+01
    0.248909473419189453E+03    0.452733159065246582E+00    0.970449447631835938E+00    0.199588161921501167E+00   -0.239865377935212187E+01
    0.178702054302850144E+03   -0.168604060232261688E+01    0.243223605703582368E+01    0.205468583423372986E+00   -0.235886040046295031E+01
    0.238299688073568518E+03   -0.122644461761807566E+01    0.295431215603283626E+01    0.463784709552615859E+00   -0.235135363131339714E+01
    0.238299688073568518E+03   -0.122644461761807566E+01    0.295431215603283626E+01    0.463784709552615859E+00   -0.235135363131339714E+01
    0.292997906350527785E+03    0.374674357077390052E+00    0.850209062858045428E+00    0.151160065788162296E+00   -0.234026946362106836E+01
    0.253354483842849731E+03   -0.132449084520339966E+01    0.347156286239624023E+01    0.259255786299705526E+00   -0.223313070482386244E+01
    0.236436718702316284E+03   -0.778353214263916016E+00    0.966634750366210938E+00    0.400144822955131541E+00   -0.222052768118729826E+01
    0.237559214375266123E+03   -0.188347023217917298E+01    0.817753721784148624E+00    0.515935776824506087E+00   -0.221465226765622436E+01
    0.325629639220660977E+03   -0.627837767936622271E+00    0.105262774854041119E+01    0.156114284915756268E+00   -0.217141611736411821E+01
    0.290865954756736755E+03   -0.130158746242523193E+01    0.263152956962585449E+01    0.388726072740554818E+00   -0.215179902595358419E+01
    0.313978683948516846E+03    0.624395966529846191E+00    0.286212980747222900E+01    0.169143165278434759E+00   -0.214894098143993428E+01
    0.130787751078605652E+03   -0.823664844036102295E+00    0.489337325096130371E+01    0.254583401584625280E+00   -0.213925876406452442E+01
    0.233637900650501251E+03    0.529459714889526367E+00    0.394502043724060059E+01    0.658840396642684928E-01   -0.213811043750878005E+01
    0.233637900650501251E+03    0.529459714889526367E+00    0.394502043724060059E+01    0.658840396642684928E-01   -0.213811043750878005E+01
    0.238495783507823944E+03   -0.992922782897949219E-01    0.399277389049530029E+01    0.686277849912643456E-01   -0.213144534981222789E+01
    0.238495783507823944E+03   -0.992922782897949219E-01    0.399277389049530029E+01    0.686277849912643456E-01   -0.213144534981222789E+01
    0.184703062474727631E+03   -0.123495727777481079E+01    0.438230812549591064E+01    0.177644101667404186E+00   -0.212751518574688792E+01
    0.184703062474727631E+03   -0.123495727777481079E+01    0.438230812549591064E+01    0.177644101667404186E+00   -0.212751518574688792E+01
    0.128444170951843262E+03   -0.789509415626525879E-01    0.356698274612426758E+01    0.222120547771453881E-01   -0.210023400378862046E+01
    0.314890447258949280E+03   -0.577814280986785889E+00   -0.155594348907470703E+00    0.530038339447975182E+00   -0.204891519472824202E+01
    0.144846595627440934E+03    0.287925855462280111E+00    0.392008434392276506E+01    0.389795868857454708E+00   -0.202355080194666126E+01
    0.161918311306793470E+03   -0.141251704556465674E+01    0.262450285109824133E+01    0.263890495294728633E+00   -0.200392887889074744E+01
    0.343656573504126641E+03    0.642565695285158167E+00    0.305769350373995863E+01    0.313230805940278648E-01   -0.199346553638879032E+01
    0.343656573504126641E+03    0.642565695285158167E+00    0.305769350373995863E+01    0.313230805940278648E-01   -0.199346553638879032E+01
    0.316351481181384372E+03   -0.154645978961278918E+01    0.429361929953929078E+00    0.444155574941962783E+00   -0.197846635222184464E+01
    0.338024917416186952E+03   -0.107174223123112666E+01    0.135979259814748232E+01    0.111247973388451049E+00   -0.196702607910233596E+01
    0.338024917416186952E+03   -0.107174223123112666E+01    0.135979259814748232E+01    0.111247973388451049E+00   -0.196702607910233596E+01
    0.216503708064556122E+03    0.389004051685333252E+00    0.951006412506103516E+00    0.384989127087593086E+00   -0.195713024249449874E+01
    0.172609474326473276E+03   -0.760198543309808406E+00    0.212174234219180136E+01    0.331533859678021958E+00   -0.193223272556780534E+01
    0.296976241469383240E+03    0.881761610507965088E+00    0.306841909885406494E+01    0.945739536523819008E-01   -0.192375387873085102E+01
    0.296976241469383240E+03    0.881761610507965088E+00    0.306841909885406494E+01    0.945739536523819008E-01   -0.192375387873085102E+01
    0.319041644448184286E+03    0.895393011913946602E+00    0.317796003051442177E+01    0.915011495998488758E-02   -0.190371264546977259E+01
    0.330814044852538700E+03    0.768696979431586769E+00   -0.367322014981379397E-01    0.312077407804709828E+00   -0.188637562098011458E+01
    0.345277365196473795E+03    0.984860225091913399E+00    0.226220462919869370E+01    0.209856241748020450E+00   -0.188558387664203830E+01
    0.345277365196473795E+03    0.984860225091913399E+00    0.226220462919869370E+01    0.209856241748020450E+00   -0.188558387664203830E+01
    0.225754137337207794E+03   -0.113499635457992554E+01    0.290286719799041748E+01    0.417841468548774742E+00   -0.187892687225401800E+01
    0.267373263835906982E+03    0.443569302558898926E+00    0.567036867141723633E-01    0.488572916722297690E+00   -0.187762866607401002E+01
    0.267373263835906982E+03    0.443569302558898926E+00    0.567036867141723633E-01    0.488572916722297690E+00   -0.187762866607401002E+01
    0.223616832494735718E+03   -0.432872712612152100E+00    0.189563035964965820E+01    0.208673500370979315E+00   -0.186851330177829400E+01
    0.223616832494735718E+03   -0.432872712612152100E+00    0.189563035964965820E+01    0.208673500370979315E+00   -0.186851330177829400E+01
    0.326050979309705440E+03   -0.155802713261257564E+01    0.201777213099756914E+01    0.430528569028393648E+00   -0.186809460424335905E+01
    0.153595808148384094E+03    0.829081594944000244E+00    0.344328761100769043E+01    0.422429753136634833E+00   -0.185793822104125428E+01
    0.153595808148384094E+03    0.829081594944000244E+00    0.344328761100769043E+01    0.422429753136634833E+00   -0.185793822104125428E+01
    0.309591273310000020E+03   -0.161296472996784335E+01    0.306804170745439819E+01    0.166216256129938789E+00   -0.185466286013766135E+01
    0.147217548657119153E+03   -0.113857966082654882E+01    0.356525500329000700E+01    0.512862180511411747E+00   -0.184871711314643772E+01
    0.147217548657119153E+03   -0.113857966082654882E+01    0.356525500329000700E+01    0.512862180511411747E+00   -0.184871711314643772E+01
    0.289343748207842737E+03   -0.188149345704582283E+01    0.327320789218094177E+01    0.172913552319999914E+00   -0.184469587095484555E+01
    0.289343748207842737E+03   -0.188149345704582283E+01    0.327320789218094177E+01    0.172913552319999914E+00   -0.184469587095484555E+01
    0.340413208305835724E+03   -0.182422035932540894E+01    0.238216698169708252E+01    0.301323147583007822E+00   -0.181742909492801163E+01
    0.176720333849138115E+03   -0.163813269498444569E+01    0.436481487317581518E+01    0.165036132908159827E+00   -0.181506205563208822E+01
    0.348774619400501251E+03    0.550628602504730225E+00    0.292952120304107666E+01    0.259383898258209247E-01   -0.181410985952906145E+01
    0.212818889856536828E+03   -0.475395105029878806E-01    0.785368223427661327E+00    0.536040713934334723E+00   -0.181218158400969598E+01
    0.248598055541515350E+03   -0.121117126941680908E+01    0.335278630256652832E+01    0.207086754441261289E+00   -0.180062200539103401E+01
    0.248598055541515350E+03   -0.121117126941680908E+01    0.335278630256652832E+01    0.207086754441261289E+00   -0.180062200539103401E+01
    0.207316641185304576E+03   -0.739352701273700896E+00    0.366316119291845332E+01    0.219383486371809044E+00   -0.179646929500528740E+01
    0.254272368358047657E+03   -0.102352361723613416E+01    0.266734323849529886E+01    0.372097262957462260E+00   -0.178089283463344072E+01
    0.127998991310596466E+03   -0.190142560005187988E+01    0.426002204418182373E+01    0.251008003234863275E-01   -0.177940014949598702E+01
    0.348322603076601581E+03   -0.119248437024737552E+01    0.142699342457304468E+01    0.514228295417227255E+00   -0.177193577070314201E+01
    0.286192286014556885E+03   -0.187844532728195190E+01    0.181463479995727539E+01    0.190799067449569704E+00   -0.176933189030362925E+01
    0.286192286014556885E+03   -0.187844532728195190E+01    0.181463479995727539E+01    0.190799067449569704E+00   -0.176933189030362925E+01
    0.325333137262159084E+03   -0.330039787053933775E+00    0.115482829077218963E+01    0.180467924969767574E+00   -0.174384465712838166E+01
    0.325333137262159084E+03   -0.330039787053933775E+00    0.115482829077218963E+01    0.180467924969767574E+00   -0.174384465712838166E+01
    0.317604606115912986E+03   -0.893582480445712868E+00    0.260217451592217408E+01    0.219923467975872505E+00   -0.174303745803547017E+01
    0.247580119228134350E+03   -0.128578588192683752E+01    0.130014139941448370E+01    0.404435572999926551E+00   -0.172998319183906690E+01
    0.247580119228134350E+03   -0.128578588192683752E+01    0.130014139941448370E+01    0.404435572999926551E+00   -0.172998319183906690E+01
    0.229442808153849626E+03   -0.110286669931636050E+01    0.180768612659707362E+01    0.297923035130424729E+00   -0.172763589919306515E+01
    0.229442808153849626E+03   -0.110286669931636050E+01    0.180768612659707362E+01    0.297923035130424729E+00   -0.172763589919306515E+01
    0.342678789794445038E+03   -0.101669269800186157E+01    0.284800767898559570E+01    0.105670325732231146E+00   -0.172252140438743861E+01
    0.342678789794445038E+03   -0.101669269800186157E+01    0.284800767898559570E+01    0.105670325732231146E+00   -0.172252140438743861E+01
    0.166453902423381805E+03   -0.169883406162261963E+01    0.334341824054718018E+01    0.117413808202743539E+00   -0.172137322194287434E+01
    0.166453902423381805E+03   -0.169883406162261963E+01    0.334341824054718018E+01    0.117413808202743539E+00   -0.172137322194287434E+01
    0.304607890546321869E+03   -0.240663826465606689E+00    0.264683604240417480E+01    0.195368519067764285E+00   -0.171038020517694078E+01
    0.304607890546321869E+03   -0.240663826465606689E+00    0.264683604240417480E+01    0.195368519067764285E+00   -0.171038020517694078E+01
    0.264952088769320994E+03   -0.147158329559710177E+01    0.243723287362391616E+01    0.407873826747076340E+00   -0.170783879186981036E+01
    0.264952088769320994E+03   -0.147158329559710177E+01    0.243723287362391616E+01    0.407873826747076340E+00   -0.170783879186981036E+01
    0.318759113988922081E+03    0.594504080341339947E+00    0.177362515675100418E+00    0.335263553583748874E+00   -0.170748820437287607E+01
    0.153366758629755680E+03    0.685873366743949830E-01    0.335350832882898864E+01    0.450616495279569762E+00   -0.170451630688958344E+01
    0.153366758629755680E+03    0.685873366743949830E-01    0.335350832882898864E+01    0.450616495279569762E+00   -0.170451630688958344E+01
    0.210917380129232072E+03   -0.145838713456125024E+01    0.130568806360540179E+01    0.535575601319099759E+00   -0.169887780185579862E+01
    0.159674281592038710E+03   -0.108882502694972527E+01    0.288870965157205184E+01    0.239543976855723012E+00   -0.169125745688972740E+01
    0.172530460357666016E+03    0.389511704444885254E+00    0.141462981700897217E+01    0.456354277396202102E+00   -0.168712361853182435E+01
    0.172530460357666016E+03    0.389511704444885254E+00    0.141462981700897217E+01    0.456354277396202102E+00   -0.168712361853182435E+01
    0.315358452498912811E+03    0.505239009857177734E+00    0.903194546699523926E+00    0.163855809044837958E+00   -0.166237259496359124E+01
    0.251769270773777606E+03   -0.844248378533802857E-01    0.351815271034327459E+01    0.606571591919787476E-01   -0.166002260281855540E+01
    0.251769270773777606E+03   -0.844248378533802857E-01    0.351815271034327459E+01    0.606571591919787476E-01   -0.166002260281855540E+01
    0.279220312450322126E+03   -0.532080525960281214E+00    0.102525023266309212E+01    0.356138790109563064E+00   -0.165931452684800607E+01
    0.248601046204566956E+03   -0.151083928346633911E+01    0.115839838981628418E+01    0.482648412466049226E+00   -0.163568202141271568E+01
    0.289629528056718016E+03   -0.887191739067247909E-01    0.152284820707022117E+01    0.162771086754015637E+00   -0.163234901290740320E+01
    0.289629528056718016E+03   -0.887191739067247909E-01    0.152284820707022117E+01    0.162771086754015637E+00   -0.163234901290740320E+01
    0.166888554565542279E+03   -0.266042655259201233E+00    0.303700159266633207E+01    0.479596911058904951E+00   -0.162870527247453767E+01
    0.166888554565542279E+03   -0.266042655259201233E+00    0.303700159266633207E+01    0.479596911058904951E+00   -0.162870527247453767E+01
    0.168147217838885467E+03   -0.234717333681275786E+00    0.331824445299408666E+01    0.391112341058544255E+00   -0.162805907318125165E+01
    0.158513034880161285E+03   -0.181857573986053467E+01    0.382261931896209717E+01    0.450410940170288127E-01   -0.161613334308382472E+01
    0.158513034880161285E+03   -0.181857573986053467E+01    0.382261931896209717E+01    0.450410940170288127E-01   -0.161613334308382472E+01
    0.345021751386353799E+03   -0.487293148234035911E-02    0.980312492847702721E+00    0.548884624890254802E+00   -0.161373370858675402E+01
    0.345021751386353799E+03   -0.487293148234035911E-02    0.980312492847702721E+00    0.548884624890254802E+00   -0.161373370858675402E+01
    0.289040254207017426E+03   -0.185939002910361162E+01    0.291121124276616161E+01    0.207633456980519410E+00   -0.161079162297770995E+01
    0.289040254207017426E+03   -0.185939002910361162E+01    0.291121124276616161E+01    0.207633456980519410E+00   -0.161079162297770995E+01
    0.328738025026757839E+03   -0.119855440535279634E+00    0.105485952822883089E+01    0.558565907922080829E+00   -0.161010182587367945E+01
    0.328738025026757839E+03   -0.119855440535279634E+00    0.105485952822883089E+01    0.558565907922080829E+00   -0.161010182587367945E+01
    0.129120977589191568E+03   -0.876995446564884817E+00    0.444128376990378904E+01    0.266098976929173281E+00   -0.160950177393731564E+01
    0.297512675424986924E+03   -0.133953753450755775E+01    0.197129787875606155E+01    0.425311763402176746E+00   -0.160900596918588712E+01
    0.297512675424986924E+03   -0.133953753450755775E+01    0.197129787875606155E+01    0.425311763402176746E+00   -0.160900596918588712E+01
    0.184265500307083130E+03   -0.101917552947998047E+01    0.285804152488708496E+01    0.476400643014907865E+00   -0.159988585827217977E+01
    0.184265500307083130E+03   -0.101917552947998047E+01    0.285804152488708496E+01    0.476400643014907865E+00   -0.159988585827217977E+01
    0.269510903954505920E+03    0.354690551757812500E+00    0.164973139762878418E+00    0.528911909508705147E+00   -0.159570244726032628E+01
    0.269510903954505920E+03    0.354690551757812500E+00    0.164973139762878418E+00    0.528911909508705147E+00   -0.159570244726032628E+01
    0.338008752010270769E+03   -0.451239311160004597E+00    0.203760784138304452E+01    0.272929349011484357E+00   -0.158889204294269670E+01
    0.338008752010270769E+03   -0.451239311160004597E+00    0.203760784138304452E+01    0.272929349011484357E+00   -0.158889204294269670E+01
    0.242264614831694303E+03    0.728278913503603409E+00    0.412196521396552384E+00    0.468190491866315450E+00   -0.158659682349839093E+01
    0.282952606678009033E+03   -0.526978194713592529E+00    0.143050849437713623E+01    0.254347341227531443E+00   -0.158473068717779242E+01
    0.282952606678009033E+03   -0.526978194713592529E+00    0.143050849437713623E+01    0.254347341227531443E+00   -0.158473068717779242E+01
    0.306894278440035293E+03   -0.495502871788806587E-01    0.165375956924212453E+01    0.864688140955038181E-01   -0.157835582010864584E+01
    0.165851947665214539E+03   -0.103532528877258301E+01    0.324502527713775635E+01    0.440808343291282656E+00   -0.157742030478812367E+01
    0.165851947665214539E+03   -0.103532528877258301E+01    0.324502527713775635E+01    0.440808343291282656E+00   -0.157742030478812367E+01
    0.160399150848388672E+03   -0.999983429908752441E+00    0.358663320541381836E+01    0.359955402159690852E+00   -0.157610684422829728E+01
    0.342189326019558848E+03   -0.897521182727125888E+00    0.811852780540604613E+00    0.334629376660612932E+00   -0.157525651868500471E+01
    0.342189326019558848E+03   -0.897521182727125888E+00    0.811852780540604613E+00    0.334629376660612932E+00   -0.157525651868500471E+01
    0.163131482017401254E+03   -0.995724177496681850E+00    0.328822784930254741E+01    0.435141950285817425E+00   -0.157315347620863411E+01
    0.187099951505661011E+03   -0.183267450332641602E+01    0.265960395336151123E+01    0.553575662112236078E+00   -0.156923376843680673E+01
    0.187099951505661011E+03   -0.183267450332641602E+01    0.265960395336151123E+01    0.553575662112236078E+00   -0.156923376843680673E+01
    0.148508542776107788E+03   -0.992337524890899658E+00    0.287431478500366211E+01    0.321878344559669516E+00   -0.156646234695654929E+01
    0.266462353581163825E+03   -0.129460169038441597E+01    0.130727342312642314E+01    0.396635862023952068E+00   -0.155868278489581447E+01
    0.330901573559571261E+03   -0.571446640714342591E+00    0.120855651615553317E+01    0.221159323026435983E+00   -0.155737925479201378E+01
    0.329933194258280764E+03   -0.916634608821467189E+00    0.199021590864568232E+01    0.310603544980432855E+00   -0.155729781661309508E+01
    0.274532320431071639E+03   -0.866471519940279933E+00    0.256453642140295290E+01    0.268915070032355430E+00   -0.155300311330771423E+01
    0.318147123220531284E+03   -0.129972171558938321E+01    0.269358998017969498E+01    0.151948472157406589E+00   -0.155091830717109214E+01
    0.318147123220531284E+03   -0.129972171558938321E+01    0.269358998017969498E+01    0.151948472157406589E+00   -0.155091830717109214E+01
    0.300968643820751652E+03   -0.133136614392720620E+00    0.210386588247453687E+01    0.304283031651593261E+00   -0.154524372114337760E+01
    0.312167305007220534E+03    0.647981244543925694E+00    0.653016765151438250E+00    0.242228592391407455E+00   -0.154496915462787276E+01
    0.312167305007220534E+03    0.647981244543925694E+00    0.653016765151438250E+00    0.242228592391407455E+00   -0.154496915462787276E+01
    0.235242673281548349E+03   -0.801875695123367871E+00    0.192802390874854623E+01    0.272153385855202767E+00   -0.154299731949073915E+01
    0.273585703674607601E+03   -0.121334603179561684E+01    0.253645521403124619E+01    0.287756867448200788E-01   -0.154283670865423206E+01
    0.264818199543244077E+03   -0.124118285664168182E+01    0.270336174295172427E+01    0.262609536658150566E+00   -0.153045950854173496E+01
    0.295945409056589881E+03   -0.192979496425504271E+01    0.265263431745451861E+01    0.441962944542426909E-02   -0.152756457846008065E+01
    0.295945409056589881E+03   -0.192979496425504271E+01    0.265263431745451861E+01    0.441962944542426909E-02   -0.152756457846008065E+01
    0.279666938919842323E+03   -0.116313495865829264E+01    0.202600051165533390E+01    0.164102679410838725E+00   -0.152221155505902361E+01
    0.279666938919842323E+03   -0.116313495865829264E+01    0.202600051165533390E+01    0.164102679410838725E+00   -0.152221155505902361E+01
    0.278319489306776859E+03   -0.127596610779319297E+01    0.196489787482664724E+01    0.192387544842733266E+00   -0.152201597449791537E+01
    0.320105305314064026E+03   -0.614661574363708496E+00    0.133229434490203857E+01    0.227355021572113042E+00   -0.151462184350945206E+01
    0.250096723338169284E+03   -0.601620529223233280E+00    0.108074916657680120E+01    0.468359362081729291E+00   -0.151396993111831701E+01
    0.286796971353583899E+03   -0.394080873684546695E+00    0.206707477523583094E+01    0.351463852519289022E+00   -0.151305299452514919E+01
    0.271435639433759320E+03   -0.127361765431130691E+01    0.330966588346728052E+01    0.661281380932550594E-01   -0.151115503819723695E+01
    0.266808444261550903E+03   -0.149443703889846802E+01    0.235779881477355957E+01    0.130005763721466078E+00   -0.151000538992949829E+01
    0.279421956599587531E+03    0.142832714395177085E+00    0.573057890771653256E+00    0.444056746584728879E+00   -0.150992382362424316E+01
    0.218301429094492590E+03   -0.159156086648951423E+01    0.283725903773888177E+01    0.144031914531547983E+00   -0.150364339969303273E+01
    0.254458710471208121E+03   -0.167101708661820103E+01    0.204917519523291780E+01    0.485923582547859556E+00   -0.150345178172684268E+01
    0.171218453295165943E+03   -0.893720351836491123E+00    0.400939725832543203E+01    0.158450406723848414E+00   -0.149688979793457855E+01
    0.341194233447038755E+03   -0.769352848054829286E+00    0.130802309217327917E+01    0.451859894258920147E+00   -0.149527477799174413E+01
    0.184367682014684220E+03   -0.691700765041254328E-01    0.258248482050667771E+01    0.476399314365004656E+00   -0.149068478408820870E+01
    0.184367682014684220E+03   -0.691700765041254328E-01    0.258248482050667771E+01    0.476399314365004656E+00   -0.149068478408820870E+01
    0.233394275652499516E+03   -0.134323751616325748E+01    0.274147967283255234E+01    0.109424388711355569E+00   -0.148750513434392584E+01
    0.231056328117847443E+03   -0.763472497463226318E+00    0.299042940139770508E+01    0.237119370460510265E+00   -0.148656439954768493E+01
    0.223018818022011487E+03   -0.111864044186391243E+01    0.261009219276362447E+01    0.387060528469106269E+00   -0.148480537680202618E+01
    0.302709020674228668E+03   -0.440738737583160400E+00    0.235049664974212646E+01    0.219402049541473410E+00   -0.148353022439133198E+01
    0.242095048104103398E+03   -0.160823235675052567E+01    0.151177611110252652E+01    0.460618369990390408E+00   -0.148197763572051788E+01
    0.242095048104103398E+03   -0.160823235675052567E+01    0.151177611110252652E+01    0.460618369990390408E+00   -0.148197763572051788E+01
    0.296844376127271801E+03   -0.820673756167853652E+00    0.135875346974864364E+01    0.529156462983291109E+00   -0.148078296355138184E+01
    0.233778770187402586E+03   -0.990792027006917042E+00    0.296262962902281934E+01    0.203031581385266502E-01   -0.147895766328507805E+01
    0.306906722710001929E+03    0.892861320715023332E+00    0.925591566357482520E+00    0.169476092305863080E+00   -0.147849310458826499E+01
    0.303723871944896814E+03   -0.109316119073749718E+01    0.195238109948553884E+01    0.350327890934504282E+00   -0.147670788240498085E+01
    0.151909783082899594E+03    0.816735556757368197E+00    0.348506943890475007E+01    0.316426854661253643E+00   -0.147452766366066523E+01
    0.151909783082899594E+03    0.816735556757368197E+00    0.348506943890475007E+01    0.316426854661253643E+00   -0.147452766366066523E+01
    0.293969218895573817E+03   -0.478866550041645800E+00    0.181017072755308739E+01    0.394566279297345612E+00   -0.147434356100973085E+01
    0.256651864673140722E+03   -0.757630488440013794E+00    0.161406723272790487E+01    0.325555263997379718E+00   -0.147413644226544704E+01
    0.248025569090830373E+03   -0.118940067840506680E+01    0.327032181235456143E+01    0.121430189010295522E+00   -0.147267771697069461E+01
    0.250059164425863003E+03   -0.153958586089479454E+01    0.204880803034215120E+01    0.286229311626105765E+00   -0.147094790669475639E+01
    0.343160946879145229E+03    0.136297959599037899E+00    0.227594768837309047E+01    0.139689426790811033E+00   -0.146887743874530075E+01
    0.210758764217380559E+03   -0.983066506822883213E+00    0.317445270092940213E+01    0.250850704822660642E+00   -0.146787921073372840E+01
    0.314895045476158430E+03   -0.179111699918599410E+01    0.310434970105046304E+01    0.233302760035500219E-01   -0.146315893741961922E+01
    0.271610083255876532E+03   -0.136054643194779890E+01    0.285133179165293349E+01    0.175671473264143535E+00   -0.146122603906220938E+01
    0.308294977161458405E+03   -0.774051822649608701E+00    0.293984978801413455E+01    0.392526361624906742E-01   -0.145521348782214699E+01
    0.154493327526975861E+03   -0.171694558546575671E-01    0.293900437343575049E+01    0.488037065598255104E+00   -0.145378544884602512E+01
    0.338377977336794117E+03   -0.387475888574909888E+00    0.162293535848158843E+01    0.332371750284476131E+00   -0.144623566181825902E+01
    0.178820861954196999E+03   -0.412928593080099660E+00    0.215945167917541347E+01    0.386854071054201776E+00   -0.144569734597849386E+01
    0.152071388065814972E+03   -0.102014309167861938E+01    0.322724759578704834E+01    0.254545872116088867E+00   -0.144184326737888568E+01
    0.254141376912593842E+03   -0.788016676902770996E+00    0.266185283660888672E+01    0.520201422214508075E-01   -0.144051168771419680E+01
    0.173593194665336256E+03   -0.145226033628274487E+01    0.342503098156047692E+01    0.144835786992667165E+00   -0.143880111423165968E+01
    0.334318505227565765E+03    0.862719893455505371E+00    0.144457638263702393E+01    0.344713081455230719E+00   -0.143837475251712377E+01
    0.193659977614879608E+03   -0.161502933502197266E+01    0.186616837978363037E+01    0.539040908360481241E+00   -0.143835327017108527E+01
    0.255133557264959478E+03   -0.753769200366705361E+00    0.282462254283662162E+01    0.101556315584746637E-02   -0.143797316764748984E+01
    0.282238356594305174E+03   -0.834073689759168513E+00    0.163636051440591235E+01    0.464415400952905733E+00   -0.143675009523359209E+01
    0.256533442984951876E+03   -0.120509475243556086E+01    0.239768378636637181E+01    0.326604378502225678E+00   -0.143583575931027418E+01
    0.186227289440148439E+03    0.235575212497192155E+00    0.285757119944745774E+01    0.693705408432768456E-01   -0.143440415980411240E+01
    0.279366025135512245E+03   -0.156254019149229162E+01    0.275646945459097026E+01    0.175594411222253166E+00   -0.143274714710341056E+01
    0.247736514853565723E+03   -0.172166229378032098E+01    0.265117569498729999E+01    0.295797607211027880E+00   -0.143167336503780551E+01
    0.190807619741407109E+03   -0.148525846900481628E+01    0.418620926711810526E+01    0.199623048841233997E-01   -0.143012361322287629E+01
    0.335787421937227634E+03   -0.118443588070087169E+01    0.285517752080764442E+01    0.993590626301168491E-02   -0.143005702353115782E+01
    0.290242421627044678E+03   -0.189096552133560181E+01    0.280527412891387939E+01    0.148499432873725884E+00   -0.142575029539683151E+01
    0.214522628486156464E+03    0.743683278560638428E+00    0.358226299285888672E+01    0.453296273946762127E-01   -0.142528930795574027E+01
    0.300848646442386439E+03    0.592224852835357307E+00    0.158212206992184257E+01    0.386478420472416817E+00   -0.142212373384739776E+01
    0.333655255649480807E+03    0.684839127159467154E+00    0.264700293229075623E+01    0.130150578648716344E-01   -0.142111893390314714E+01
    0.273535431175738040E+03   -0.159019262348752477E+01    0.257285061525516312E+01    0.232748221567630059E+00   -0.142087158690818161E+01
    0.204440390257727103E+03    0.594622175109393858E+00    0.381087127449907115E+01    0.144270036675800007E-01   -0.141279466391668618E+01
    0.129444546942219773E+03   -0.131195214383030456E+01    0.338321681519417616E+01    0.365652069640925892E+00   -0.141042486905728515E+01
    0.269754954102356237E+03   -0.113136738252301283E+01    0.213933829730559211E+01    0.206122733275400316E+00   -0.140988217886144107E+01
    0.280805140902334927E+03   -0.136885127123745720E+01    0.133261843269929958E+01    0.552041275196664460E+00   -0.140857992529892395E+01
    0.309179635345935822E+03   -0.176100963354110718E+01    0.292992413043975830E+01    0.426650351285934454E-01   -0.140789243803615172E+01
    0.295928008965678316E+03    0.986220983076747437E+00    0.173202701434443362E+01    0.333435439019778401E+00   -0.140710634465862894E+01
    0.260558449259138683E+03   -0.144388693033797799E+01    0.221993363524334164E+01    0.352636686228940843E+00   -0.140643774355202078E+01
    0.184807440638542175E+03   -0.197531545162200928E+01    0.290153324604034424E+01    0.401756986570358299E+00   -0.140553749783559057E+01
    0.346596812344281716E+03    0.811095750128295823E+00    0.485951698705435753E+00    0.250648141786917633E+00   -0.140293004254198661E+01
    0.299579399934814091E+03   -0.474581034897564091E+00    0.176275975479568281E+01    0.355732661441250098E+00   -0.140160451963283128E+01
    0.299834034755499545E+03   -0.138798124403187861E+01    0.288126099633019095E+01    0.641183336382135094E-01   -0.140156537096585465E+01
    0.289769190462957681E+03   -0.162791881107891445E+01    0.244243276642011420E+01    0.133729218721360149E+00   -0.139804245725430798E+01
    0.247794224321842194E+03   -0.180348438024520874E+01    0.216843187808990479E+01    0.403868257999420166E+00   -0.139678269560568724E+01
    0.325799012009718581E+03   -0.193330685577078976E+01    0.239871524030198557E+01    0.941860776390456289E-01   -0.139588961532093236E+01
    0.323444111352738787E+03    0.820909919968271229E+00    0.170882951904388314E+01    0.281710683427175923E+00   -0.139290635240533067E+01
    0.255901444979228216E+03   -0.847747448844329510E+00    0.163027735031163701E+01    0.506745131114457403E+00   -0.139147709400632369E+01
    0.130865858524674593E+03   -0.164204397562525917E+01    0.341177524167442847E+01    0.399947905176676943E+00   -0.139105262041841171E+01
    0.307494392971097000E+03   -0.134492261738797203E+01    0.143353324074631239E+01    0.439493740986963810E+00   -0.139076755658115836E+01
    0.288132070069285191E+03    0.433922696647171868E+00    0.266193459019606671E+01    0.109492132891842023E+00   -0.138948555693253950E+01
    0.347342905312401570E+03   -0.113065563324895857E+01    0.899223311123478197E+00    0.504054075461123574E+00   -0.138527913994445684E+01
    0.150350387774126034E+03   -0.451056135741100261E+00    0.351654345182236305E+01    0.315356890550653246E+00   -0.138502044948089309E+01
    0.146023328401698535E+03   -0.184440085199947701E+01    0.357617206554742140E+01    0.335845703235141624E+00   -0.138399453397482963E+01
    0.280009141901648889E+03   -0.169668635652290578E+01    0.257686974136260893E+01    0.170437144897561232E+00   -0.138224045674905027E+01
    0.180099447074229630E+03   -0.153956105959507816E+01    0.307716670026382744E+01    0.324909319573583155E+00   -0.138203829837749304E+01
    0.232021143949576128E+03   -0.714892476920051090E+00    0.294232639930850226E+01    0.128660957845981666E+00   -0.133957893538655304E+01
    0.290809400379657745E+03   -0.216480851173400879E+00    0.258577585220336914E+01    0.562863557338714581E-02   -0.132265250048829519E+01
    0.221271964039622162E+03   -0.717456837066451580E+00    0.341464077703095370E+01    0.426590631490450650E-01   -0.134301806429124815E+01
    0.226483616090639089E+03   -0.141508416610950416E+01    0.339015239769193499E+01    0.645878590430174759E-01   -0.137161078437511641E+01
    0.247971648188689983E+03   -0.135885882364553834E+01    0.254473980497773766E+01    0.254773917447998766E+00   -0.137378895849880966E+01
    0.277827424492386626E+03   -0.186772424599961351E+00    0.193277076936130587E+01    0.193032470089052277E+00   -0.134061049974949298E+01
    0.321270077413070794E+03   -0.142036847147903900E+01    0.230327939402914694E+01    0.143564080119943760E+00   -0.137467613533519573E+01
    0.327193143083468499E+03   -0.874979792480090168E+00    0.237750430518120393E+01    0.559081516517607804E-01   -0.134941999862513740E+01
    0.287512549757957458E+03   -0.848244607448577881E+00    0.198097407817840576E+01    0.223888185739517215E+00   -0.136333516658219023E+01
    0.254636646266431683E+03   -0.516252286874286703E+00    0.234174429332037359E+01    0.234390440320878385E+00   -0.132993654933718397E+01
    0.297394157358778955E+03   -0.862804820970904274E+00    0.273960243175410678E+01    0.372298962358074900E-01   -0.134939627535511897E+01
    0.312545612139869604E+03   -0.144676809875951684E+01    0.234873110354938408E+01    0.110029262210824777E+00   -0.137867214042249397E+01
    0.296210567172218248E+03   -0.213005404689140754E+00    0.233374910898583465E+01    0.166820112578376506E+00   -0.135228906496172652E+01
    0.348986795544624329E+03    0.471366286277770996E+00    0.189461588859558105E+01    0.127483612847328204E+00   -0.124664290781554166E+01
    0.201824936436957614E+03    0.392474756285414728E+00    0.340649702064464499E+01    0.604181826651343026E-01   -0.125147725880576810E+01
    0.188402050802504817E+03    0.471562275770983863E+00    0.325384183656090720E+01    0.518496456705434261E-01   -0.119110797353780695E+01
    0.161908658285566901E+03    0.607706359081831238E+00    0.325731058997167011E+01    0.106873616413264205E+00   -0.118475327936928432E+01
    0.219507366550070458E+03   -0.380479556036170674E-01    0.326044060427032889E+01    0.394513779722897653E-01   -0.128696577106148902E+01
    0.203934427990922813E+03    0.558034150540807516E+00    0.243484033353284879E+01    0.186496363858952685E+00   -0.120187554095565896E+01
    0.226776712425947267E+03    0.526381097412762067E+00    0.242835191863716826E+01    0.223646825991803244E+00   -0.119875260664941297E+01
    0.230102014202547707E+03    0.607634654014401310E+00    0.304904032969674432E+01    0.116480536574951318E+00   -0.132873354390904774E+01
    0.281381313036720371E+03    0.293146025701750190E+00    0.245495356909971907E+01    0.712931911262109502E-01   -0.123023017583423866E+01
    0.265540108084678650E+03    0.680938363075256348E+00    0.247224092483520508E+01    0.952996712207794250E-01   -0.118976182639524475E+01
    0.292823410240601333E+03    0.479213893469490504E+00    0.189571900521941217E+01    0.894942559519595338E-01   -0.123911475419064643E+01
    0.288073707769692476E+03    0.521572801966471822E+00    0.234825675947627666E+01    0.692943769028045858E-01   -0.118730214653759458E+01
    0.280746717247644256E+03    0.697846878535472559E+00    0.247035982789661990E+01    0.946726850119293355E-02   -0.116064818786899626E+01
    0.302440661289662557E+03    0.649657837072528555E+00    0.184967486368481815E+01    0.117339008425238631E+00   -0.116487237638201213E+01
    0.299839043603933078E+03    0.511401265233928370E-01    0.218283646139426768E+01    0.146285118715248325E+00   -0.128163666678003718E+01
    0.239979930757873433E+03    0.208559975934626607E+00    0.207670850998798073E+01    0.245964619068903573E+00   -0.124579083681166924E+01
    0.224406104222244721E+03   -0.181978843092332365E+00    0.351372069546597743E+01    0.266493305891923847E-01   -0.136379292188159584E+01
    0.270393233061924434E+03    0.958888453145165798E-01    0.238221355960931280E+01    0.692201962621553507E-01   -0.127884680745262269E+01
    0.176463535260087440E+03    0.321287155850801032E+00    0.278717778113063996E+01    0.153467670180712557E+00   -0.133485201153675548E+01
    0.263548794052733001E+03    0.136450172758891597E+00    0.188709143804072177E+01    0.222471451430753669E+00   -0.127297037268309610E+01
    0.203307915896672512E+03   -0.778256682928346599E-01    0.301846228747492518E+01    0.977932073641599453E-01   -0.131960665043141256E+01
    0.190320466575526098E+03    0.567398319392115269E+00    0.334771281670284537E+01    0.103794095792029209E+00   -0.122931890642613650E+01
    0.264692379391136171E+03    0.348355723448426247E+00    0.219501118438271803E+01    0.218623723775749207E+00   -0.125232575618068820E+01
    0.220711584389209747E+03    0.560644507408142090E+00    0.229629933834075928E+01    0.310268501114845274E+00   -0.122860342552040969E+01
    0.238743093401775241E+03    0.919352603378530198E+00    0.234155936407721477E+01    0.264286437919147132E+00   -0.129716492843748932E+01
    0.238257372674306851E+03    0.299219131662165960E+00    0.229613661389116608E+01    0.857551163299330177E-01   -0.136872670077305703E+01
    0.160885481587310892E+03    0.363763111567713793E+00    0.337559492776486536E+01    0.554591897996275923E-01   -0.130896694569084482E+01
    0.273504169944889327E+03    0.612481362588909839E+00    0.297625137619102453E+01    0.909629844040396769E-02   -0.130822533744710645E+01
    0.238794658581176350E+03    0.464969607723923595E+00    0.273025159832589814E+01    0.919687820640537612E-01   -0.120056265478002855E+01
    0.288206126871600304E+03    0.850926557028550246E+00    0.189579553769098297E+01    0.172817978718914689E+00   -0.116253195283434629E+01
    0.312134429510142240E+03    0.427931539355711710E+00    0.222637470587289066E+01    0.165335809799193517E+00   -0.137536258467477790E+01
    0.145088181759195493E+03    0.937650909722674619E+00    0.275558311133065459E+01    0.319144282258210621E+00   -0.115429472322060156E+01
    0.179391089208342578E+03    0.777097014125984753E+00    0.299113420562291843E+01    0.298862937693034181E+00   -0.136071654252633190E+01
    0.151285480710154275E+03    0.308069202575694145E+00    0.363962675866103424E+01    0.116360256319498742E+00   -0.122395935483464080E+01
    0.143444430680863945E+03   -0.255714458290123847E+00    0.294892079403613305E+01    0.491533814801564883E+00   -0.135789687449667351E+01
    0.214716994762420654E+03   -0.375367581844329834E+00    0.239548504352569580E+01    0.310476857900619518E+00   -0.131710727085966761E+01
    0.166749112850905760E+03    0.340917314154661089E+00    0.235291739057268856E+01    0.352711715523237379E+00   -0.127941304661424882E+01
    0.133723062190473712E+03   -0.670747730368125517E+00    0.356188550734551157E+01    0.312673266577141951E+00   -0.133537847955637945E+01
    0.146234176088540636E+03   -0.851749643272046164E+00    0.301689054471396645E+01    0.410762198613154661E+00   -0.134698071425166588E+01
    0.186296384504399697E+03   -0.177221021554924985E+01    0.290310011357616382E+01    0.344194029048411620E+00   -0.138156078307105257E+01
    0.195813324490526185E+03   -0.118986372442712840E+01    0.233993631254440615E+01    0.420631294632314967E+00   -0.136854774310182359E+01
    0.129000823679696879E+03   -0.125824315603044923E+01    0.340937407364637934E+01    0.399069910352469692E+00   -0.136976268335455376E+01
    0.178508630566239788E+03   -0.783763338718948210E+00    0.244746730160690973E+01    0.482889234961761116E+00   -0.135889315111648412E+01
    0.236415663361549377E+03   -0.112515854835510254E+01    0.196592688560485840E+01    0.385711978769302355E+00   -0.136906967758469311E+01
    0.288016214728757348E+03   -0.106691184615539436E+01    0.194309218591430977E+01    0.302780570011688177E+00   -0.136112655581790531E+01
    0.260312327443947879E+03   -0.128869241652736499E+01    0.156512765668972964E+01    0.454178060204155798E+00   -0.137026698967075622E+01
    0.339070496698126817E+03   -0.450810135353410857E+00    0.143663040245957863E+01    0.319636844199288728E+00   -0.134426965777585328E+01
    0.318268233537673950E+03   -0.958755373954772949E+00    0.136471569538116455E+01    0.345152005648612981E+00   -0.135952985548665661E+01
    0.340911227464675903E+03   -0.907011806964874268E+00    0.994227528572082520E+00    0.422139377403259297E+00   -0.135092736929242774E+01
    0.278925556305605994E+03   -0.701240776446449665E+00    0.130361230871429434E+01    0.466192127359115638E+00   -0.133945303336544197E+01
    0.331659491237806606E+03   -0.102058005379932393E+01    0.656485607099217106E+00    0.540448103675508551E+00   -0.135664570785868910E+01
    0.301757934997596067E+03   -0.883071313243795064E+00    0.131379878345856405E+01    0.414310008350518622E+00   -0.134891351662468306E+01
    0.298718453364729839E+03   -0.762277187877725915E+00    0.100572527275730472E+01    0.554824123542211556E+00   -0.137000424465605342E+01
    0.338007706841288496E+03   -0.122245493314096598E+01    0.889651539302578342E+00    0.468974842803312364E+00   -0.136631165541093846E+01
    0.299413573272038661E+03   -0.101820562429878603E+01    0.154046041771340825E+01    0.396652850208318586E+00   -0.136540304412700664E+01
    0.311503057749998334E+03   -0.112642632009752530E+01    0.907552505195921455E+00    0.518933234172193503E+00   -0.136154222400559410E+01
    0.164981292864658343E+03    0.799032113389551490E+00    0.203385634189403497E+01    0.459642609911044830E+00   -0.115757541536853581E+01
    0.205618154903812723E+03    0.353073848936357848E+00    0.175651807055061315E+01    0.484817879386155337E+00   -0.122260577597094833E+01
    0.194825348817706470E+03    0.879372788491395774E+00    0.159846577008508284E+01    0.474682571223016936E+00   -0.115218585854679967E+01
    0.273601679668101781E+03    0.261826190908863943E+00    0.157968479781073512E+01    0.331908207254728527E+00   -0.123260242201902370E+01
    0.261244929149165841E+03    0.608534188448199398E+00    0.186873920342479316E+01    0.339655494916105638E+00   -0.127404267565632079E+01
    0.271938814936817607E+03    0.149653288753528901E+00    0.127293364358769523E+01    0.339384786853066889E+00   -0.131385481664862480E+01
    0.267700903104947145E+03    0.194529645946759366E+00    0.109293085915415134E+01    0.498558839444013580E+00   -0.124536705893836164E+01
    0.252325251929259252E+03   -0.516162246240217115E-01    0.118618788097681804E+01    0.564167987731169496E+00   -0.130599910753256010E+01
    0.256985573670159908E+03    0.355433614258471309E+00    0.113268159736119145E+01    0.378180381637737817E+00   -0.132339056275442180E+01
    0.240312735787038832E+03    0.855039046215644749E+00    0.175538925631091303E+01    0.428307481647159871E+00   -0.129127147011030985E+01
    0.252946264914880942E+03    0.822025992524336502E+00    0.175259958141977279E+01    0.393510973338047187E+00   -0.128469321049004703E+01
    0.237254185006803567E+03    0.774437311755509228E-01    0.149132466944514963E+01    0.409142309742938748E+00   -0.128821830284467409E+01
    0.146067611873149872E+03   -0.182760834693908691E+00    0.235112607479095459E+01    0.512093487596511854E+00   -0.134155404399059863E+01
    0.198481983419466360E+03    0.607809357953745355E+00    0.205876524023105922E+01    0.454972222501158985E+00   -0.123346709722301640E+01
    0.192304430250618054E+03    0.135481181312006260E+00    0.192800135764165681E+01    0.380039419645188614E+00   -0.134322591522176160E+01
    0.223870327770327151E+03   -0.154143289809840489E-01    0.203024855042454888E+01    0.362103714579578961E+00   -0.127985856043333635E+01
    0.270486326724954210E+03   -0.264969776708127380E+00    0.130529606613115856E+01    0.404582228532250399E+00   -0.133364861293074277E+01
    0.338658374697974978E+03    0.764779367268712207E+00    0.417075916069452823E+00    0.305511556426666997E+00   -0.134228537852584284E+01
    0.346976842426085113E+03    0.215315568516926792E+00    0.272036389138953894E+00    0.430137547696906763E+00   -0.135229392750542354E+01
    0.337867634374404020E+03   -0.330567341174172746E-01    0.731152214513005383E+00    0.386419568959077586E+00   -0.132047763603961910E+01
    0.339808807772084322E+03    0.392382056370594867E-01    0.896873610501781826E+00    0.388000833369352982E+00   -0.127002608481449641E+01
    0.329957024109303404E+03    0.567050304149101514E+00    0.991050270423232682E+00    0.425793552006723863E+00   -0.127105066972119407E+01
    0.331236039256349216E+03    0.128899620972786622E+00    0.763625392202116338E+00    0.382873217302000801E+00   -0.127612732495004866E+01
    0.321691038636757412E+03    0.493130762006386281E+00    0.936569435688446639E+00    0.335573769840298575E+00   -0.119255324915995042E+01
    0.343731395900249481E+03    0.446379184722900391E+00    0.301253199577331543E+00    0.532640462207794263E+00   -0.120361815199114108E+01
    0.314457186777382390E+03    0.720695829883270189E+00    0.827064173994063623E+00    0.502726396330081760E+00   -0.128103263893454411E+01
    0.332288879581488459E+03    0.307760496082281065E-01    0.614876472345140535E+00    0.405208942096272229E+00   -0.133043339161999485E+01
    0.326225382859880142E+03    0.895946038250256649E+00    0.685698320616819679E+00    0.384803527078422358E+00   -0.115126582427893553E+01
    0.321025098116727236E+03    0.992112292649641070E+00    0.159549539302630450E+01    0.139859602314271553E+00   -0.114690153423609531E+01
    0.310866142384394550E+03    0.828775296733332389E+00    0.731809573277542036E+00    0.329456266528272090E+00   -0.120972236481793960E+01
    0.327184514705661684E+03    0.881956490548644112E+00    0.815835886963848012E+00    0.275123515410903186E+00   -0.120267651969934830E+01
    0.275760595223438258E+03    0.721955835353955244E+00    0.129613100524765290E+01    0.322603525403083569E+00   -0.116152014475986798E+01
    0.303012827410169450E+03    0.843284088376654584E+00    0.181277772399079851E+01    0.239314578085645130E+00   -0.126726484817533014E+01
    0.321963890320723408E+03    0.729208655848584186E+00    0.942602164976501733E+00    0.341746343972689937E+00   -0.115859552697390167E+01
    0.306111697883775491E+03    0.617532774809738783E+00    0.180650379648855086E+01    0.217677089093889997E+00   -0.122723674273990224E+01
    0.317508702724772093E+03   -0.125824400968108652E+00    0.335521155945225580E+00    0.563522907985346433E+00   -0.132054568937137251E+01
    0.345335053489216648E+03   -0.190939669670914025E+00    0.757614520289422444E+00    0.397601073327046806E+00   -0.132640964885202073E+01
    0.305261408287351628E+03    0.434448154423618949E+00    0.813534576659757924E+00    0.547293046916850767E+00   -0.130757261044426354E+01
    0.320400044597986380E+03    0.724755035833971828E+00    0.119534045964289781E+01    0.234808087727843118E+00   -0.116940335583525723E+01
