    0.166688635945320129E+03    0.351289868354797363E+00   -0.215037465095520020E+01    0.264398074078559864E+00   -0.701526311418875181E+01
    0.212498413197031937E+03    0.149385781877783064E+00   -0.372191472030684167E+01    0.524141915808824299E+00   -0.584497517128249999E+01
    0.329701055586338043E+03   -0.109415256977081299E+01   -0.245995640754699707E+01    0.245224029779434229E-01   -0.578182245206749723E+01
    0.296488775015342071E+03   -0.152111443616381203E+01   -0.255948651078125389E+01    0.118812100909476762E+00   -0.523217513300653358E+01
    0.221597359012818657E+03   -0.114069786964633502E+01   -0.245616159408553303E+01    0.247581583074920702E+00   -0.513175969002106491E+01
    0.322774854302406311E+03   -0.186920762062072754E+00   -0.301769673824310303E+01    0.477739899158477824E-01   -0.501696064693213639E+01
    0.306375927666769144E+03   -0.328562189236437430E+00   -0.471044291710625007E+01    0.566920414384837201E+00   -0.499023094665509959E+01
    0.173101489245891571E+03   -0.154396545886993408E+01   -0.116417348384857178E+01    0.481771587610244773E-01   -0.485093354415012712E+01
    0.298228216171264648E+03    0.502649962902069092E+00   -0.402969419956207275E+01    0.120343017339706426E+00   -0.477605054474630109E+01
    0.224754357337951660E+03   -0.183825796842575073E+01   -0.325003981590270996E+01    0.486457789993286149E+00   -0.470986900196116665E+01
    0.321569127336659449E+03   -0.166225108910312391E+00   -0.492667784367429729E+01    0.555461845488836148E+00   -0.469709178786550474E+01
    0.260646198888616425E+03   -0.975752122845373826E+00   -0.358836115808816025E+01    0.387818670925414277E+00   -0.451981747837015568E+01
    0.191955004632472992E+03   -0.723237395286560059E+00   -0.477451205253601074E+01    0.439664206266403221E-01   -0.431131444616184289E+01
    0.133706852793693542E+03    0.815336346626281738E+00   -0.383716881275177002E+01    0.332093490600585961E-01   -0.429009026800683557E+01
    0.175574713945388794E+03   -0.525510489940643311E+00   -0.230151414871215820E+01    0.216313613104820252E+00   -0.427099953853006564E+01
    0.136777392029762268E+03   -0.205115795135498047E+00   -0.474276661872863770E+01    0.224444747757911678E+00   -0.422130122064515501E+01
    0.148360350728034973E+03    0.259562969207763672E+00   -0.366691052913665771E+01    0.568897545289993256E+00   -0.414948450547131209E+01
    0.312197710573673248E+03   -0.122350817918777466E+01   -0.378302156925201416E+01    0.301596942114830013E+00   -0.413494455434554453E+01
    0.327308873832225800E+03   -0.195897936820983887E+00   -0.319956243038177490E+01    0.984223959445953457E-02   -0.413121769325309529E+01
    0.220199592652043179E+03   -0.135870864483552767E+01   -0.211683158497822088E+01    0.769254105777434499E-01   -0.407601736159790384E+01
    0.127392289042472839E+03    0.623948037624359131E+00   -0.267389774322509766E+01    0.757583840131759723E-01   -0.404991731223025564E+01
    0.149791309237480164E+03    0.726521253585815430E+00   -0.495513737201690674E+01    0.184153792691230778E+00   -0.403511211042292395E+01
    0.150359813770309131E+03   -0.154752468964311518E+01   -0.265231323742518033E+01    0.500719557728609654E+00   -0.403444152457547567E+01
    0.194781408189645475E+03    0.505077240617394452E+00   -0.477451023483331216E+01    0.535748388106445539E+00   -0.400255147532161359E+01
    0.259820856728664921E+03    0.171390052895223910E-01   -0.300630640389768766E+01    0.387783996696528035E-01   -0.389271784331697157E+01
    0.326156878471374512E+03   -0.105381768941879272E+01   -0.413325250148773193E+01    0.334397902321815488E+00   -0.388667326183317297E+01
    0.217197213076096659E+03   -0.171122580201032104E+01   -0.237736800896228662E+01    0.162165891408858620E+00   -0.380789864679365753E+01
    0.322956927979996749E+03    0.851879145857759035E-01   -0.349174272364287486E+01    0.118913376291922539E-02   -0.378733301007253020E+01
    0.143109082989608453E+03    0.302356332256290106E+00   -0.417662838836391170E+01    0.859162212348282828E-02   -0.377913248107076338E+01
    0.151227098783190996E+03   -0.876606975996783389E+00   -0.287111308244869745E+01    0.469590939498280069E+00   -0.376181697093015011E+01
    0.275937806619457376E+03   -0.482473095808535035E+00   -0.449387006934998645E+01    0.476871623275939849E+00   -0.374047911410175615E+01
    0.223184367116193386E+03    0.403996644550650430E+00   -0.406147990188384878E+01    0.305226128042817624E+00   -0.372770542338215538E+01
    0.317829625308513641E+03   -0.157334208488464355E-01   -0.374810934066772461E+01    0.103311359810829173E+00   -0.371792115205511031E+01
    0.185338222980499268E+03   -0.676647961139678955E+00   -0.215521812438964844E+01    0.783017219781875634E-01   -0.361562797821849236E+01
    0.226593297055365611E+03   -0.154334080271448881E+01   -0.463312356073220588E+01    0.366842346539911837E-01   -0.360658969289338804E+01
    0.195900614559650421E+03    0.452427387237548828E+00   -0.462301254272460938E+01    0.481409632945060728E+00   -0.355088845673265574E+01
    0.266049751947760399E+03   -0.759534738722811964E+00   -0.462581098860790796E+01    0.539864148808076649E+00   -0.349575536756806660E+01
    0.255183482170104980E+03   -0.166809988021850586E+01   -0.268194794654846191E+01    0.954970079898834201E-01   -0.346944368013912108E+01
    0.315105243261606859E+03   -0.167952131490989554E+01   -0.309586647256523895E+01    0.682600627350580941E-01   -0.346237514736218133E+01
    0.156971197744276765E+03   -0.499340309419754824E+00   -0.244862586090888978E+01    0.242340872362697746E+00   -0.343914921193719536E+01
    0.142011231971333075E+03   -0.936827295302119278E+00   -0.153521335759138466E+01    0.895976110525701919E-01   -0.343844651452672068E+01
    0.140910877287387848E+03   -0.477226257324218750E+00   -0.173133969306945801E+01    0.100754067707061773E+00   -0.340915666998708655E+01
    0.198903350017913198E+03    0.392276084845740503E+00   -0.344027025286467136E+01    0.166728426892835929E+00   -0.340348089357898909E+01
    0.220360784168215616E+03   -0.106602808745739330E+01   -0.411433680113869649E+01    0.546409608825031423E+00   -0.338546009120869362E+01
    0.272373732924461365E+03   -0.105665349960327148E+01   -0.406279981136322021E+01    0.367819156408309922E+00   -0.330718241927417944E+01
    0.272373732924461365E+03   -0.105665349960327148E+01   -0.406279981136322021E+01    0.367819156408309922E+00   -0.330718241927417944E+01
    0.141609632968902588E+03   -0.986450254917144775E+00   -0.140717446804046631E+01    0.394639420509338423E-01   -0.328952948999021544E+01
    0.184545121305301507E+03   -0.768256399838715964E+00   -0.202783631983988677E+01    0.744406977182925523E-02   -0.326002827377679694E+01
    0.263162410259246826E+03    0.279692411422729492E-01   -0.370931267738342285E+01    0.145159241938591005E+00   -0.324385787194720576E+01
    0.206334189870513512E+03   -0.137750208944230890E+01   -0.437534451238730338E+01    0.653253645939435440E-01   -0.319644462971475907E+01
    0.316579182857791693E+03    0.240176199073853791E+00   -0.425951271249776919E+01    0.991272895241637475E-01   -0.318786731009380109E+01
    0.248218482732772827E+03   -0.853790521621704102E+00   -0.393030047416687012E+01    0.360351372170448325E+00   -0.316872290901476639E+01
    0.248218482732772827E+03   -0.853790521621704102E+00   -0.393030047416687012E+01    0.360351372170448325E+00   -0.316872290901476639E+01
    0.180244989693164825E+03   -0.106234103441238403E+01   -0.334912359714508057E+01    0.417887152147293106E+00   -0.313890979302891182E+01
    0.345768144726753235E+03   -0.267052650451660156E+00   -0.383772790431976318E+01    0.494834230899810837E-01   -0.313487035101083755E+01
    0.221893727492241567E+03   -0.422636436769051160E+00   -0.424896214281242912E+01    0.479918283328064021E+00   -0.312990790406973574E+01
    0.335698777661883582E+03   -0.130056965660545476E+01   -0.338452169412862913E+01    0.339901677271813654E-01   -0.312018405146429645E+01
    0.218074830044921327E+03   -0.133067022341176111E+01   -0.303177226924213317E+01    0.228835841450262839E+00   -0.310899912834698977E+01
    0.257064220309257507E+03   -0.169231057167053223E+01   -0.264418721199035645E+01    0.327693331003189106E-01   -0.309880341270886994E+01
    0.204946397990398168E+03   -0.151559979850258264E+01   -0.381385178226950128E+01    0.509821490988150106E+00   -0.309212453248727837E+01
    0.147758409780065506E+03   -0.717992347656600804E+00   -0.237180954231093866E+01    0.237740954270512783E+00   -0.309122801230335931E+01
    0.329428006708621979E+03   -0.135392898321151733E+01   -0.328661561012268066E+01    0.195786802053451552E-01   -0.308926623155480673E+01
    0.213821591503388277E+03   -0.266727701065974543E+00   -0.405831283201818849E+01    0.425959638557539322E+00   -0.308185415776714011E+01
    0.163520477712154388E+03    0.351837217807769775E+00   -0.426153063774108887E+01    0.496765906763076803E+00   -0.308126712842122696E+01
    0.271384051442146301E+03    0.377805292606353760E+00   -0.431236684322357178E+01    0.149212390422821056E+00   -0.307706771263156131E+01
    0.188436120748519897E+03   -0.130969166755676270E+01   -0.273754894733428955E+01    0.228670156502723709E+00   -0.307313302555486123E+01
    0.201896901322503822E+03    0.507474111629286906E+00   -0.402025135806940170E+01    0.112141066779670687E+00   -0.306767411072043128E+01
    0.293595981347197494E+03   -0.942148549104014466E+00   -0.364273702219984319E+01    0.158649303478616999E+00   -0.305497093911992312E+01
    0.200300619771555461E+03    0.444261612724622168E+00   -0.477511827603673655E+01    0.424335959097656867E+00   -0.303612885781258557E+01
    0.129079157114028931E+03   -0.119964510202407837E+01   -0.257929623126983643E+01    0.427482993721961968E+00   -0.301173506936315327E+01
    0.262778492271900177E+03   -0.199471336603164673E+01   -0.311692118644714355E+01    0.161484697222709667E+00   -0.301054555691749215E+01
    0.297053810954093933E+03   -0.976055979728698730E+00   -0.398179113864898682E+01    0.239467282247543350E+00   -0.299908269833011865E+01
    0.242386488616466522E+03   -0.989528894424438477E+00   -0.484232664108276367E+01    0.883911784172058124E-01   -0.297759741391789845E+01
    0.216512510522007119E+03    0.316073356183385279E+00   -0.488772164477141580E+01    0.478128438384269272E+00   -0.297284649934881395E+01
    0.151997907572191451E+03    0.473062545594758355E+00   -0.346845078439528276E+01    0.169267870608452636E+00   -0.296811856019586440E+01
    0.240168258564547159E+03   -0.910569799619376008E+00   -0.371280227887239800E+01    0.292806983344027438E+00   -0.295368914059589560E+01
    0.240168258564547159E+03   -0.910569799619376008E+00   -0.371280227887239800E+01    0.292806983344027438E+00   -0.295368914059589560E+01
    0.174950251534112141E+03   -0.153725954715358482E+01   -0.186033689930309354E+01    0.248558445924831548E-01   -0.293948075532171949E+01
    0.320740644509790286E+03   -0.157180642104557466E+01   -0.462885548302507210E+01    0.399766033102977869E+00   -0.287078633974351582E+01
    0.186489748954772949E+03   -0.139641284942626953E+00   -0.283049464225769043E+01    0.103895795989036560E+00   -0.286109346232795314E+01
    0.145928316537466742E+03    0.422376258792781734E+00   -0.426512874996670011E+01    0.477889099424973873E+00   -0.285704579580066120E+01
    0.145928316537466742E+03    0.422376258792781734E+00   -0.426512874996670011E+01    0.477889099424973873E+00   -0.285704579580066120E+01
    0.224943677188059326E+03   -0.301446303238462665E+00   -0.467446911329381720E+01    0.535747915359987906E-01   -0.285700400618169592E+01
    0.224943677188059326E+03   -0.301446303238462665E+00   -0.467446911329381720E+01    0.535747915359987906E-01   -0.285700400618169592E+01
    0.241453092950413662E+03   -0.180800031682239570E+01   -0.294711732766851098E+01    0.130147144474595355E+00   -0.283806638110756015E+01
    0.197904264926910400E+03   -0.100372135639190674E+00   -0.338347852230072021E+01    0.224641948056221008E+00   -0.283425252853324006E+01
    0.322047586030753394E+03   -0.497929008452263844E+00   -0.382456227866919551E+01    0.665525724814310243E-01   -0.283255038835010087E+01
    0.284460421389885028E+03   -0.182025635749874848E+00   -0.393414437344492374E+01    0.144196345832524581E+00   -0.282597992628357364E+01
    0.284460421389885028E+03   -0.182025635749874848E+00   -0.393414437344492374E+01    0.144196345832524581E+00   -0.282597992628357364E+01
    0.318048288028521540E+03   -0.149048683792860581E+01   -0.337148069999652300E+01    0.343895718895245589E-01   -0.280654973881800451E+01
    0.129685616038535926E+03   -0.563816733622036770E+00   -0.316503386438409695E+01    0.178930374354814327E-01   -0.279177523254127635E+01
    0.341627340825651231E+03   -0.131761389076424784E+01   -0.477962830744453182E+01    0.367537859716919435E+00   -0.279135015196605440E+01
    0.264377236366271973E+03   -0.758976221084594727E+00   -0.365611135959625244E+01    0.168376950001716624E+00   -0.278908097455490900E+01
    0.264377236366271973E+03   -0.758976221084594727E+00   -0.365611135959625244E+01    0.168376950001716624E+00   -0.278908097455490900E+01
    0.249423288363902600E+03   -0.177846409128704197E+00   -0.470435001593175262E+01    0.441776657617439450E+00   -0.277185724003208378E+01
    0.249423288363902600E+03   -0.177846409128704197E+00   -0.470435001593175262E+01    0.441776657617439450E+00   -0.277185724003208378E+01
    0.242506329715251923E+03   -0.593948662281036377E+00   -0.385120213031768799E+01    0.264885445404052733E+00   -0.277054874865173595E+01
    0.183036740124225616E+03   -0.177219533920288086E+01   -0.432837665081024170E+01    0.221299095940589913E+00   -0.274574157264538643E+01
    0.184547390016126599E+03    0.408407870650369542E+00   -0.400764518615597254E+01    0.219790580531612489E+00   -0.274565347122217229E+01
    0.184547390016126599E+03    0.408407870650369542E+00   -0.400764518615597254E+01    0.219790580531612489E+00   -0.274565347122217229E+01
    0.260751238465309143E+03   -0.367305040359497070E+00   -0.407623350620269775E+01    0.245730302309989934E+00   -0.273532400269996723E+01
    0.348752705752849579E+03   -0.944387853145599365E+00   -0.414302945137023926E+01    0.134828846311569217E+00   -0.272521941083222385E+01
    0.204414298703485656E+03   -0.358188828751257127E+00   -0.421846999315539950E+01    0.450359628992362093E+00   -0.270665715819770414E+01
    0.293977690596851517E+03   -0.128417824782655332E+01   -0.384956492799798911E+01    0.185927791917039315E+00   -0.268014163706363107E+01
    0.293977690596851517E+03   -0.128417824782655332E+01   -0.384956492799798911E+01    0.185927791917039315E+00   -0.268014163706363107E+01
    0.211777892644413669E+03   -0.199507252364367771E+01   -0.294176158363270801E+01    0.204173877749156935E+00   -0.266349432964075250E+01
    0.211777892644413669E+03   -0.199507252364367771E+01   -0.294176158363270801E+01    0.204173877749156935E+00   -0.266349432964075250E+01
    0.258497861027717590E+03   -0.131942772865295410E+01   -0.441454112529754639E+01    0.429352131843566909E+00   -0.265692168279215579E+01
    0.264605693519115448E+03   -0.182689756155014038E+01   -0.356148183345794678E+01    0.208274289178848271E+00   -0.264267906954415999E+01
    0.264605693519115448E+03   -0.182689756155014038E+01   -0.356148183345794678E+01    0.208274289178848271E+00   -0.264267906954415999E+01
    0.327536325234430478E+03   -0.121930075266059146E+01   -0.451111898019202240E+01    0.281581285700489514E+00   -0.263368334933212189E+01
    0.327536325234430478E+03   -0.121930075266059146E+01   -0.451111898019202240E+01    0.281581285700489514E+00   -0.263368334933212189E+01
    0.302488180994987488E+03   -0.188144940137863159E+01   -0.330179274082183838E+01    0.454155698776245106E-01   -0.262539276933528853E+01
    0.285526639917145076E+03   -0.115679331103517846E+01   -0.397060287621120978E+01    0.217762545553716269E+00   -0.262393444807691267E+01
    0.190078088641166687E+03   -0.185428023338317871E+01   -0.395629405975341797E+01    0.126948340272903443E+00   -0.261823156714376770E+01
    0.241029486970335086E+03   -0.140817483400829779E+00   -0.460173710389357904E+01    0.167829757122062266E-01   -0.261517693224646042E+01
    0.241029486970335086E+03   -0.140817483400829779E+00   -0.460173710389357904E+01    0.167829757122062266E-01   -0.261517693224646042E+01
    0.279322334960603598E+03   -0.190517400032692552E+01   -0.295718863314945457E+01    0.110022701894488088E-02   -0.261195901497141492E+01
    0.347991879648976919E+03   -0.750584608874200310E+00   -0.406264906132051173E+01    0.722543211217412662E-01   -0.260272774881620350E+01
    0.146462799483999390E+03   -0.900117138091317104E+00   -0.300649750171777264E+01    0.362225398800459120E+00   -0.259807360989868652E+01
    0.238848949704094110E+03   -0.113763710007098040E+01   -0.417971215021488440E+01    0.388529813190931772E+00   -0.259606809944309624E+01
    0.143866014480590820E+03    0.283885240554809570E+00   -0.303616583347320557E+01    0.133118491959571844E+00   -0.259058226660028312E+01
    0.143866014480590820E+03    0.283885240554809570E+00   -0.303616583347320557E+01    0.133118491959571844E+00   -0.259058226660028312E+01
    0.128894639829288394E+03   -0.910831534569836787E+00   -0.252823014945540425E+01    0.306524175578026636E+00   -0.257470208860460614E+01
    0.303789110167050012E+03   -0.129844527766184514E+01   -0.390420132439947087E+01    0.153517289406656404E+00   -0.257096005211293965E+01
    0.170659309457958017E+03   -0.143284725229849563E+01   -0.341072800171883284E+01    0.420938736873343433E+00   -0.256928356605605401E+01
    0.170659309457958017E+03   -0.143284725229849563E+01   -0.341072800171883284E+01    0.420938736873343433E+00   -0.256928356605605401E+01
    0.155296927289906364E+03   -0.159186822938768824E+01   -0.342291950377144261E+01    0.988941972715639273E-01   -0.256770346361715074E+01
    0.243403869919900217E+03    0.239625289153789112E+00   -0.480636208920257602E+01    0.295095784662504190E+00   -0.255241022833819287E+01
    0.243403869919900217E+03    0.239625289153789112E+00   -0.480636208920257602E+01    0.295095784662504190E+00   -0.255241022833819287E+01
    0.262240909822937056E+03   -0.644490574892354617E+00   -0.383428940780675109E+01    0.167270371633592457E+00   -0.254889968611760365E+01
    0.172153596580028534E+03   -0.155356955528259277E+01   -0.435067772865295410E+01    0.301451361894607528E+00   -0.254840481419825959E+01
    0.226537235770443203E+03   -0.757600011885370073E+00   -0.462291611463753593E+01    0.505641341857395621E+00   -0.254439792617833538E+01
    0.226537235770443203E+03   -0.757600011885370073E+00   -0.462291611463753593E+01    0.505641341857395621E+00   -0.254439792617833538E+01
    0.166898087083136346E+03   -0.129012501445121819E+01   -0.392202652036651012E+01    0.179266949610400822E+00   -0.254421622836625883E+01
    0.330889020921280235E+03   -0.165869758002000300E+01   -0.372543207219734640E+01    0.725345806973696217E-01   -0.254288604357245429E+01
    0.330889020921280235E+03   -0.165869758002000300E+01   -0.372543207219734640E+01    0.725345806973696217E-01   -0.254288604357245429E+01
    0.148556530347386854E+03   -0.722187659688716677E+00   -0.336433745433547049E+01    0.483475676806364649E-01   -0.253684574251075157E+01
    0.321497515541815346E+03   -0.782088237247522189E+00   -0.388988508560800028E+01    0.591056219378399694E-01   -0.253521745449404889E+01
    0.263832086558948959E+03   -0.192012665732454346E+01   -0.409057326901826190E+01    0.345958616342736391E+00   -0.253379390330062781E+01
    0.136395290737075442E+03    0.423612129574140184E-01   -0.456493141090302412E+01    0.398954551915309596E+00   -0.253262256520228357E+01
    0.136395290737075442E+03    0.423612129574140184E-01   -0.456493141090302412E+01    0.398954551915309596E+00   -0.253262256520228357E+01
    0.240808700032581413E+03    0.382808005335943946E-01   -0.406924794168764059E+01    0.168616795285475990E+00   -0.251945156944595672E+01
    0.127294160425662994E+03   -0.654143154621124268E+00   -0.470398366451263428E+01    0.547476884651184048E+00   -0.251694752308712388E+01
    0.230400644185921948E+03   -0.167721763925727729E+01   -0.460224802365914343E+01    0.196070809344051356E+00   -0.249585698210942120E+01
    0.230400644185921948E+03   -0.167721763925727729E+01   -0.460224802365914343E+01    0.196070809344051356E+00   -0.249585698210942120E+01
    0.178572266566700648E+03   -0.125057424067212541E+01   -0.295752623198368791E+01    0.215026619312672085E+00   -0.249197982280026187E+01
    0.178572266566700648E+03   -0.125057424067212541E+01   -0.295752623198368791E+01    0.215026619312672085E+00   -0.249197982280026187E+01
    0.307303315264722301E+03   -0.729546130017655781E+00   -0.450685195621869727E+01    0.241630607738127390E+00   -0.248405283175667613E+01
    0.315532554400373101E+03   -0.729942454675077013E+00   -0.468060327433406620E+01    0.272738183153862668E+00   -0.247841878619460587E+01
    0.245809217456954229E+03   -0.159065606383331559E+01   -0.463914559162323314E+01    0.515656179107527479E+00   -0.247599828456221882E+01
    0.245809217456954229E+03   -0.159065606383331559E+01   -0.463914559162323314E+01    0.515656179107527479E+00   -0.247599828456221882E+01
    0.164015791665614643E+03   -0.331258577615128225E+00   -0.280342443507745243E+01    0.133341266459132995E+00   -0.247402393191879355E+01
    0.125429397608764745E+03   -0.492419513850708146E+00   -0.303444317187270274E+01    0.644705495629995656E-01   -0.247284227902231235E+01
    0.125429397608764745E+03   -0.492419513850708146E+00   -0.303444317187270274E+01    0.644705495629995656E-01   -0.247284227902231235E+01
    0.167199092962870964E+03    0.179983449187541833E+00   -0.390025966929628165E+01    0.885533044840996625E-01   -0.247156561114747975E+01
    0.167199092962870964E+03    0.179983449187541833E+00   -0.390025966929628165E+01    0.885533044840996625E-01   -0.247156561114747975E+01
    0.295066551436573832E+03   -0.989668910189557938E+00   -0.360916818561158781E+01    0.394119594517740798E-01   -0.244638448398294894E+01
    0.295066551436573832E+03   -0.989668910189557938E+00   -0.360916818561158781E+01    0.394119594517740798E-01   -0.244638448398294894E+01
    0.210638044956799718E+03   -0.128854477670992829E+01   -0.399957715808334147E+01    0.726030565437833092E-01   -0.242805489455199508E+01
    0.163271606876141874E+03   -0.159145474733319747E+01   -0.445865936741144786E+01    0.402104835723775478E+00   -0.242162402546969169E+01
    0.163271606876141874E+03   -0.159145474733319747E+01   -0.445865936741144786E+01    0.402104835723775478E+00   -0.242162402546969169E+01
    0.210263132426249200E+03    0.259015409565033217E-01   -0.438249121814723441E+01    0.328850789582720349E+00   -0.242140287307543156E+01
    0.210263132426249200E+03    0.259015409565033217E-01   -0.438249121814723441E+01    0.328850789582720349E+00   -0.242140287307543156E+01
    0.244822230716243098E+03   -0.229046029786137417E-01   -0.472213066632168843E+01    0.340312481270446054E+00   -0.241937543000004940E+01
    0.135454110125401968E+03   -0.595433705816010850E-01   -0.276770890556974924E+01    0.187997101798557192E+00   -0.241134417772059706E+01
    0.141061882994865982E+03   -0.409943971205167568E+00   -0.261509166932955628E+01    0.171879530440340017E+00   -0.240789707990455870E+01
    0.208526523622401129E+03   -0.108098464481549938E+01   -0.405443115230226869E+01    0.401449978633709514E+00   -0.240706564157383163E+01
    0.176598345130329335E+03   -0.377807935052103527E+00   -0.401023270746244265E+01    0.413899444963287122E+00   -0.240239308453161726E+01
    0.270144455134868622E+03   -0.745544433593750000E-01   -0.472800970077514648E+01    0.286724320793151854E+00   -0.240230099788401130E+01
    0.270144455134868622E+03   -0.745544433593750000E-01   -0.472800970077514648E+01    0.286724320793151854E+00   -0.240230099788401130E+01
    0.239759328479439148E+03   -0.787853841383601150E+00   -0.385886691755828082E+01    0.214555449320271180E+00   -0.240141766819699143E+01
    0.160518468957494264E+03   -0.140289153908763731E+01   -0.291414281401335717E+01    0.273602407137870096E+00   -0.239979440782877340E+01
    0.160518468957494264E+03   -0.140289153908763731E+01   -0.291414281401335717E+01    0.273602407137870096E+00   -0.239979440782877340E+01
    0.223405472193187819E+03    0.220632707657938187E+00   -0.429408198908879868E+01    0.717009949932118779E-01   -0.239000470416048838E+01
    0.202226296067237854E+03    0.215430438518524170E+00   -0.421443104743957520E+01    0.113298463153839110E+00   -0.238887482550137431E+01
    0.166052255034446716E+03   -0.567778348922729492E-01   -0.351981580257415771E+01    0.938018360137939447E-02   -0.238694638963358674E+01
    0.322855743479741818E+03   -0.902097996392887680E+00   -0.436330402596753242E+01    0.165676825124219634E+00   -0.238638681998855207E+01
    0.335317266888955146E+03   -0.194878630896466287E+00   -0.453242980727949440E+01    0.103561105730743466E+00   -0.237894509611916805E+01
    0.132064248883810734E+03   -0.304728914129391182E+00   -0.302425555701389559E+01    0.313213980703116568E+00   -0.237541071333259257E+01
    0.172132501006126404E+03   -0.142296546697616577E+01   -0.377731144428253174E+01    0.166311259818077095E+00   -0.237534625987486070E+01
    0.172591582096243542E+03   -0.158874918111780117E+01   -0.336180353660601394E+01    0.567799787202383985E-01   -0.237402081271060172E+01
    0.251899074094318223E+03   -0.628889335751199319E-01   -0.487697521493421249E+01    0.366583116224199923E+00   -0.237267061703078497E+01
    0.251899074094318223E+03   -0.628889335751199319E-01   -0.487697521493421249E+01    0.366583116224199923E+00   -0.237267061703078497E+01
    0.186794973742138779E+03   -0.479470091513982455E+00   -0.462275713975972380E+01    0.555587584326559747E+00   -0.236945676797158988E+01
    0.133617262706359043E+03   -0.279871311968339365E+00   -0.347582159521145329E+01    0.165415672192095270E+00   -0.235949686334425035E+01
    0.160112004167084024E+03   -0.112216629381647115E+01   -0.330135759291611208E+01    0.351385034150962117E+00   -0.235906891519660977E+01
    0.145095539093017578E+03    0.177076995372772217E+00   -0.307621479034423828E+01    0.687561016559600918E-01   -0.235591717421645974E+01
    0.153396238124920330E+03   -0.420379868680375468E+00   -0.333098546468125223E+01    0.403979877820651034E-01   -0.235476418737846815E+01
    0.145673188589279732E+03   -0.174584453940092899E+01   -0.249098054058416185E+01    0.233920213291620854E+00   -0.235452884291393483E+01
    0.317540944612936300E+03   -0.159991359186919402E+01   -0.369149095424772966E+01    0.405500764195849683E-01   -0.235330243287645269E+01
    0.250338219106197357E+03   -0.175440514087677002E+01   -0.410760939121246338E+01    0.433717491388320928E-01   -0.234850815145939462E+01
    0.197028245290956988E+03    0.967743822351869731E-01   -0.438571239095102605E+01    0.171536772179400998E+00   -0.234810184392648669E+01
    0.185850707134823750E+03    0.133265996068137493E+00   -0.474290837989630631E+01    0.314466943200126692E+00   -0.234653962822001994E+01
    0.162372080186814259E+03   -0.138889555529786879E+01   -0.309062392925574336E+01    0.113945719146398786E-01   -0.234564180776868714E+01
    0.215450592339038849E+03   -0.187191736698150635E+01   -0.413024246692657471E+01    0.165004893136024483E+00   -0.233838767038939155E+01
    0.181878717772142892E+03   -0.180624341663626620E-01   -0.484643318698744174E+01    0.537299466548226801E+00   -0.233811401689445919E+01
    0.204804460089667998E+03    0.103108229438877874E+00   -0.432661723672090659E+01    0.146217745866879439E+00   -0.232549419988105077E+01
    0.204804460089667998E+03    0.103108229438877874E+00   -0.432661723672090659E+01    0.146217745866879439E+00   -0.232549419988105077E+01
    0.260247778950417569E+03   -0.280928266602831211E-01   -0.448625715047529194E+01    0.857464472549622839E-02   -0.232369788106706521E+01
    0.135109460612008974E+03   -0.119314663324562686E+01   -0.273207268398144754E+01    0.297550488179394612E+00   -0.232273744483221734E+01
    0.237141734836057424E+03   -0.127422380180293748E+01   -0.326452026377634663E+01    0.763282440556281305E-01   -0.232084369629167453E+01
    0.165918720409816672E+03   -0.712921389790525772E+00   -0.327146485571063517E+01    0.628269738192977888E-02   -0.231950006557703459E+01
    0.153739956807515455E+03   -0.825725838810682289E+00   -0.301329231077072013E+01    0.250882621426766983E+00   -0.231829770150711401E+01
    0.197935070097446442E+03   -0.829560160636901855E-01   -0.466736555099487305E+01    0.462301606392860442E+00   -0.231650159768743080E+01
    0.286133250725981497E+03   -0.856113278989943272E+00   -0.422592937412972525E+01    0.184885090384448419E+00   -0.231476787061414280E+01
    0.328787591271782389E+03   -0.150223456273062261E+01   -0.491992381524233302E+01    0.825007053059411410E-01   -0.230418614464295235E+01
    0.269320216353105593E+03   -0.154933408309464005E+01   -0.468998305905846014E+01    0.413599024794226333E+00   -0.230343149956655058E+01
    0.257860554754734039E+03   -0.152097427845001221E+01   -0.450319945812225342E+01    0.130083688545227061E+00   -0.230289537286959511E+01
    0.316646207869052887E+03   -0.547633171081542969E-01   -0.489956915378570557E+01    0.183913228797912609E+00   -0.230026666615243380E+01
    0.214272911366777805E+03   -0.102806556223366297E+01   -0.404609065892448871E+01    0.916844232937186199E-01   -0.229682690394362377E+01
    0.314021135465351392E+03   -0.129936624946013390E+01   -0.401340474354720644E+01    0.932920332859371870E-01   -0.229482397927896864E+01
    0.216846999211348475E+03   -0.175427387171586724E+01   -0.270119921337856805E+01    0.101393222231344476E-01   -0.228755978784688585E+01
    0.348737175762653351E+03   -0.111303031444549561E+01   -0.485669851303100586E+01    0.248160267162323006E+00   -0.228194052766334288E+01
    0.231743762091870792E+03   -0.948731394170024833E+00   -0.422703457160792162E+01    0.323582744447679149E+00   -0.228183840445218244E+01
    0.167910324165229838E+03   -0.174756030640900706E+01   -0.466563564298493993E+01    0.497875459430401623E+00   -0.228059381696578400E+01
    0.180468954145908356E+03    0.490760803222656250E-01   -0.388320147991180420E+01    0.187134758377075189E+00   -0.227980964721044987E+01
    0.175451852763244432E+03    0.574346255893649627E-01   -0.334361382929537054E+01    0.460920927055791657E-01   -0.227913275471714005E+01
    0.184141896095783949E+03   -0.168635933160409390E+01   -0.348719281218226884E+01    0.326351280292773660E+00   -0.227872116032174610E+01
    0.220152572607677286E+03   -0.138599688464501147E+01   -0.433892182119607028E+01    0.432243542026518823E+00   -0.226779108954033060E+01
    0.158795719221300089E+03   -0.119621015557867727E+01   -0.298432135900042672E+01    0.530004260142771105E-02   -0.226466043886357671E+01
    0.256372170022230307E+03   -0.171532242981865712E+01   -0.468319504517565477E+01    0.214125305531378485E+00   -0.226140134229562673E+01
    0.232670200459310252E+03   -0.136841291235945439E+01   -0.408323907180032553E+01    0.823924110579033059E-01   -0.225604637788477724E+01
    0.161172890330188011E+03   -0.329578312217421399E+00   -0.268224853660274754E+01    0.366056515470600044E-01   -0.225543229839760739E+01
    0.210431050356531500E+03   -0.823938730238209516E+00   -0.340568651979263448E+01    0.132835752189737477E+00   -0.225237981935420040E+01
    0.211903093472976877E+03    0.846558105189476606E-02   -0.396760805458442922E+01    0.123079794418163121E+00   -0.225176994335970360E+01
    0.275661940827037370E+03   -0.160476805867725791E+01   -0.455285135981314681E+01    0.121440509583714593E+00   -0.224734549009332785E+01
    0.227235355491060034E+03    0.145403921447000428E-01   -0.413166056280291816E+01    0.910845432803151084E-01   -0.224113389810005259E+01
    0.199655584862953617E+03   -0.112981552769978455E+00   -0.341503435593372418E+01    0.685653739733071976E-01   -0.223763199320549022E+01
    0.277526631951332092E+03   -0.182043290138244629E+01   -0.462196946144104004E+01    0.157400706338882451E+00   -0.223675924092287737E+01
    0.256670213236788186E+03   -0.453614124848844336E+00   -0.408196834572500045E+01    0.138078897458836891E+00   -0.223577061859098691E+01
    0.243579745205987479E+03   -0.354142201735169193E+00   -0.484799856334669865E+01    0.378172511312518000E+00   -0.223575133927749370E+01
    0.222852128107741635E+03   -0.874722562393369207E+00   -0.400110391839479718E+01    0.263325194840273502E+00   -0.223445804110570290E+01
    0.229113374725357005E+03   -0.109781551386935372E+01   -0.411502004211716255E+01    0.910417871815104585E-01   -0.223394916755909589E+01
    0.198593747125091681E+03   -0.151115103775810811E+01   -0.475022354187045348E+01    0.406943670469814556E+00   -0.223121169903117256E+01
    0.178997106131780129E+03   -0.151825758856678927E+00   -0.470032104852956945E+01    0.504086770995785360E+00   -0.223016957528550908E+01
    0.304161188069876289E+03   -0.144126937797926802E+01   -0.484536666607632682E+01    0.131775829099428227E+00   -0.222975604986204701E+01
    0.180443332179879519E+03   -0.174782935769907266E+01   -0.259416896831667998E+01    0.623210227141452952E-01   -0.221629163849429789E+01
    0.273542331800116926E+03   -0.152656827253550054E+01   -0.497942298184502619E+01    0.254746241348659586E+00   -0.221259409283439945E+01
    0.322964480576134235E+03   -0.110405963898178072E+01   -0.472365481078300942E+01    0.230531374818732787E+00   -0.221236761912662860E+01
    0.236506907371368300E+03   -0.344438879450121860E+00   -0.446622123266572491E+01    0.269902269445767229E+00   -0.220638626979020280E+01
    0.139304792050096580E+03   -0.999177400859709408E+00   -0.316542092219645976E+01    0.340202624520059782E+00   -0.220632248161110311E+01
    0.200418168851683504E+03   -0.103240203306019462E+01   -0.469658150912639094E+01    0.360091767657923723E+00   -0.220517004652213711E+01
    0.337222430033277249E+03   -0.160902531764512036E+01   -0.466342749893385733E+01    0.375700513362011018E-01   -0.220325291548797297E+01
    0.234766685752429709E+03   -0.599397966571744378E+00   -0.418419407639980800E+01    0.229418333349061004E+00   -0.220065073293638402E+01
    0.270445841550827026E+03   -0.112787258625030518E+01   -0.493426620960235596E+01    0.400498691725730938E+00   -0.219197898309070593E+01
    0.227981692466371896E+03   -0.117766412735605597E+01   -0.472691980175839621E+01    0.399482802300208495E+00   -0.210503373452329257E+01
    0.214602288669302197E+03   -0.111453944800601956E+01   -0.453135585394537621E+01    0.319292954481488866E+00   -0.212608826766511427E+01
    0.218061073905959660E+03   -0.124864329555566256E+01   -0.433378554755376033E+01    0.252515816533015358E+00   -0.213577874727417161E+01
    0.266851378697498092E+03   -0.475363154272985700E+00   -0.481228477001623212E+01    0.285648536921799756E+00   -0.217419803345393792E+01
    0.235751659399411551E+03   -0.381759346258206067E+00   -0.481443596364902149E+01    0.283428897454011341E+00   -0.215220042297652814E+01
    0.245167254641659554E+03   -0.406249782218278455E+00   -0.446430946574996756E+01    0.148296619503351351E+00   -0.215984564264219880E+01
    0.191254505515098572E+03   -0.295787155628204346E+00   -0.481784522533416748E+01    0.475945103502273592E+00   -0.216691952570085000E+01
    0.206530570190263745E+03   -0.489215819823987097E+00   -0.446421173410625283E+01    0.243646787464402159E+00   -0.219295033253845784E+01
    0.216700345981165867E+03   -0.228884607251927719E+00   -0.416296702127009510E+01    0.174830561721294381E+00   -0.216088262076827986E+01
    0.176819141310796709E+03   -0.324953350174367550E+00   -0.450487811027387508E+01    0.387984132733521836E+00   -0.215538325316292578E+01
    0.347873625018964617E+03   -0.224318837826804618E+00   -0.490839411074921994E+01    0.622640119679721687E-01   -0.215698834444822118E+01
    0.330532690966359496E+03   -0.755262190073432649E+00   -0.477831979596485645E+01    0.169701352224953111E+00   -0.217097952940213323E+01
    0.306200316166882089E+03   -0.801323607815980221E+00   -0.492898009337643295E+01    0.123642576902090462E+00   -0.218737479915416566E+01
    0.322672576028548974E+03   -0.670684755353123885E+00   -0.471065038098449662E+01    0.155629840651233003E+00   -0.216678050108419562E+01
    0.300037431937918996E+03   -0.555587426316322741E+00   -0.480723671119517615E+01    0.956006995667342818E-01   -0.217984471578395222E+01
    0.265261424669853227E+03   -0.565325673172619503E+00   -0.403127606159767105E+01    0.264722862032413381E-01   -0.212873217467199627E+01
    0.259122260241929553E+03   -0.678713830665732765E+00   -0.417212053698900309E+01    0.181127157965487520E-01   -0.218521345852563220E+01
    0.308859862213569841E+03   -0.695787476018220774E+00   -0.435515322152789253E+01    0.844210215083197740E-01   -0.216865283405870368E+01
    0.248448423216183073E+03   -0.736425462645688533E+00   -0.388516222904915054E+01    0.148743706595272415E-01   -0.212914038728509958E+01
    0.288822791887167114E+03   -0.430091213643241321E+00   -0.446653743462330510E+01    0.619923099237820185E-01   -0.214437781945144756E+01
    0.242777816290872920E+03   -0.513460189234998143E+00   -0.396685853468981442E+01    0.446648897789543031E-01   -0.213640560770858690E+01
    0.333672471153115055E+03   -0.107361897505489390E+01   -0.499340634070398348E+01    0.117185088039212640E+00   -0.216231212035620501E+01
    0.321822974222714606E+03   -0.102623676122366114E+01   -0.473724826521188902E+01    0.107097084639746432E+00   -0.211484280851408712E+01
    0.329690474271774292E+03   -0.157849246263504028E+01   -0.444755613803863525E+01    0.572208053827285776E-01   -0.209986006956690563E+01
    0.283694103360176086E+03   -0.183027017116546631E+01   -0.401413559913635254E+01    0.174258363604545607E+00   -0.219653192731636659E+01
    0.316889263493506633E+03   -0.132838140921550885E+01   -0.412115236625614667E+01    0.490810451785177806E-01   -0.213165287024076155E+01
    0.311564090449260391E+03   -0.174586373709775144E+01   -0.447769769383759098E+01    0.170254033783245273E+00   -0.210376172456421973E+01
    0.315419463069207382E+03   -0.172735736162406028E+01   -0.431950445791768800E+01    0.147320420554524240E+00   -0.213868021159549127E+01
    0.260644006656560464E+03   -0.125900025864863929E+01   -0.408838797058413483E+01    0.168600964317474844E+00   -0.213738982354150941E+01
    0.308250634253964677E+03   -0.161505863767912627E+01   -0.440924333610850905E+01    0.155635992538602691E+00   -0.211049798598858862E+01
    0.346360115376762451E+03   -0.182633470388255792E+01   -0.496758251115557847E+01    0.170073428374334340E+00   -0.212388942169530015E+01
    0.308359876047590888E+03   -0.182427887152002799E+01   -0.409075347746426132E+01    0.404180891107590035E-01   -0.209131797788790674E+01
    0.325583159806244339E+03   -0.176925724538951079E+01   -0.480637213450157752E+01    0.117615861604321539E+00   -0.219416226962804961E+01
    0.323361623336259640E+03   -0.198492617347598888E+01   -0.423447950116215655E+01    0.807971213852978765E-01   -0.209297891520627299E+01
    0.333130697793519118E+03   -0.159764904196493585E+01   -0.498160408415012856E+01    0.152011156553051752E+00   -0.216147837116022856E+01
    0.280663507220418978E+03   -0.176691474456783970E+01   -0.397206606158215791E+01    0.259833543379957548E-02   -0.215033978182837604E+01
    0.266302606463432312E+03   -0.163339066505432129E+01   -0.378051936626434326E+01    0.448971855640411394E-02   -0.210762587027770554E+01
    0.282731342660235327E+03   -0.163052937685348676E+01   -0.408959963245574798E+01    0.405284412916302114E-01   -0.212267481691835247E+01
    0.275598755580613329E+03   -0.388472581098473935E+00   -0.435236553800099735E+01    0.118845068976309198E+00   -0.217461736598917232E+01
    0.276292282837919061E+03   -0.109378549932303959E+01   -0.426876923516494244E+01    0.115744975737727032E+00   -0.210236707505726272E+01
    0.319207950709522493E+03   -0.133882441509227501E+01   -0.452181058294503035E+01    0.392570954727329349E-01   -0.215271960685079744E+01
    0.297466442347826614E+03   -0.138554913343417407E+01   -0.462586776274263389E+01    0.239940985423069297E+00   -0.212968086961704195E+01
    0.300867979228496552E+03   -0.182217615842819214E+01   -0.495919942855834961E+01    0.367266893219947821E+00   -0.213817798690241156E+01
    0.297681775597629894E+03   -0.197933267410103686E+01   -0.477552475844539437E+01    0.348932054366971278E+00   -0.215858147101711229E+01
    0.300008998105588489E+03   -0.163969482704758995E+01   -0.486355753373932398E+01    0.237486845307445016E+00   -0.210308632473303225E+01
    0.262646705299980169E+03   -0.170848236079881288E+01   -0.435448205216253115E+01    0.246637799350806458E+00   -0.210132322700651297E+01
    0.250866999297367499E+03   -0.182005034288933865E+01   -0.457298013540782833E+01    0.309803943894960854E+00   -0.209458913643182898E+01
    0.252909652888774872E+03   -0.138342577219009399E+01   -0.484692573547363281E+01    0.366536160349845874E+00   -0.209669583081363431E+01
    0.251517056415992187E+03   -0.162837155974493175E+01   -0.482194764779739415E+01    0.409194029616194166E+00   -0.210392328938130824E+01
    0.306450438518154158E+03   -0.164630383353987120E+01   -0.483892845691665929E+01    0.283987196305237555E+00   -0.211137985586921406E+01
    0.205510302211518308E+03   -0.142503008783993579E+01   -0.447486047729023273E+01    0.350843542570672129E+00   -0.212891201821896558E+01
    0.228558221637298857E+03   -0.136379867808188227E+01   -0.375251586534473436E+01    0.172323041288354378E+00   -0.213689183372833291E+01
    0.200832547436608934E+03   -0.132638673659221906E+01   -0.389352063531965031E+01    0.151508857471912811E+00   -0.219886735494810548E+01
    0.250159886460357654E+03   -0.181181769490151479E+01   -0.330587947713757613E+01    0.175535400765380080E-01   -0.212728213985596559E+01
    0.198798635716189096E+03   -0.157518811123922653E+01   -0.336604119915298394E+01    0.111259604124145262E+00   -0.209409093623301468E+01
    0.217436355225841993E+03   -0.110138482169368634E+01   -0.358766539292778974E+01    0.163284821571122590E+00   -0.218171027817424434E+01
    0.160464868831781871E+03   -0.175360569899547825E+01   -0.251156191714287980E+01    0.304853685264716949E-01   -0.209388591833576765E+01
    0.160784915247317656E+03   -0.182379108418620617E+01   -0.274064071480636295E+01    0.501646795594283199E-01   -0.211854930524801288E+01
    0.214509787022024511E+03   -0.132639677092753239E+01   -0.301473306287384002E+01    0.283244773941989936E-01   -0.218098468165664983E+01
    0.210720758342195268E+03   -0.129416314041991520E+01   -0.353801080487387187E+01    0.127115302128187918E+00   -0.210464610524134610E+01
    0.202645814373817075E+03   -0.165050340761833358E+01   -0.321347430085089503E+01    0.454147641232677049E-01   -0.209877664414916953E+01
    0.201649205386638641E+03   -0.893678903579711914E+00   -0.368874251842498779E+01    0.109906720376014719E+00   -0.212588511564621152E+01
    0.215969626605510712E+03   -0.876720190048217773E+00   -0.346203446388244629E+01    0.476907086133956937E-01   -0.211677402336382592E+01
    0.180568131494245790E+03   -0.470671472924501400E+00   -0.366639422848806396E+01    0.134639978932473148E+00   -0.214508351612940551E+01
    0.220943417432872707E+03   -0.224047754964577850E+00   -0.387075940466626633E+01    0.649054571016536574E-01   -0.216059270471623277E+01
    0.144580300791684493E+03   -0.101374067667243350E+01   -0.269818382725793215E+01    0.273692086430927725E-01   -0.215051877483143761E+01
    0.144682492702636978E+03   -0.928684104188045145E+00   -0.253732544116526437E+01    0.719542187703932079E-01   -0.213038585093254706E+01
    0.134425201815397344E+03   -0.145180228593890126E+00   -0.263812947048570257E+01    0.214311494987149999E-01   -0.217197386856682195E+01
    0.136264443006934698E+03   -0.197751535164382819E+00   -0.297654607964117002E+01    0.975081609992229092E-01   -0.217669666139422002E+01
    0.141559007414640405E+03   -0.626682896164840741E+00   -0.281998002781149903E+01    0.151366224227399510E+00   -0.215553239435908761E+01
    0.247329550551670309E+03   -0.143398841753420747E+01   -0.350122673949548036E+01    0.722979976426892518E-01   -0.216462743694285642E+01
    0.165002624265236449E+03   -0.132666482277701903E+01   -0.275802206808976891E+01    0.545664087898525135E-02   -0.211707774142997085E+01
    0.192119901987739297E+03   -0.100308676349830250E+01   -0.322386200227564013E+01    0.367077777056104351E-01   -0.210934305175003134E+01
    0.229967009223403437E+03   -0.155676879398610390E+01   -0.355135690100419410E+01    0.105790617516762359E+00   -0.210993181047280220E+01
    0.141939174485107117E+03   -0.691203413825032698E+00   -0.323325107925372590E+01    0.183567024609350926E+00   -0.214553945322495032E+01
    0.144409601192963663E+03   -0.119900792714627680E+01   -0.267076563099868558E+01    0.184464040330574973E-01   -0.217400108889959220E+01
    0.179014639838443969E+03   -0.108988720485284674E+01   -0.284318500675987362E+01    0.643580381409295521E-01   -0.217969573100628189E+01
    0.205261961739550088E+03   -0.198564896602482732E+01   -0.297502821308543730E+01    0.760340798325245537E-01   -0.213569031460204251E+01
    0.192164184019220500E+03   -0.588700282145645071E+00   -0.356359312364222358E+01    0.146652874530112776E+00   -0.214512030269285559E+01
    0.147538559819912422E+03   -0.100268816927336402E+01   -0.308984028970822466E+01    0.132138642993850308E+00   -0.214407404361027876E+01
    0.178549732215818779E+03   -0.578055250042520452E+00   -0.284981984588427917E+01    0.126931733955259422E-01   -0.219014548948176735E+01
    0.196914939640607145E+03   -0.965905760303174876E+00   -0.300092793418771775E+01    0.199871199610411089E-01   -0.214268904007394223E+01
    0.222172942209682390E+03   -0.199955382650821667E+01   -0.340251856540456599E+01    0.170586029423599184E+00   -0.217697425491336150E+01
    0.128426719041316801E+03   -0.155505821143846945E+01   -0.272474389920411486E+01    0.222217112677838668E+00   -0.209500682729138354E+01
    0.135019835478831027E+03   -0.121930902306928424E+01   -0.280607768121597756E+01    0.183638389722666162E+00   -0.210159708210449647E+01
    0.174587945602832178E+03   -0.184577777885147154E+01   -0.333650992647630051E+01    0.210711969504595503E+00   -0.209340457938269209E+01
    0.197109541203764877E+03   -0.161514875114349077E+01   -0.331481727078795707E+01    0.172794588908300878E+00   -0.213610894284650055E+01
    0.210904356477278043E+03   -0.191288288935658590E+01   -0.344537728372320684E+01    0.133907273306554081E+00   -0.209317127022962524E+01
    0.126554030746598272E+03   -0.631208957477841892E+00   -0.274745545735554764E+01    0.140818444615377653E+00   -0.213034657576040765E+01
    0.174111469782141398E+03   -0.755166729695425420E+00   -0.313298992911164209E+01    0.509215876872379306E-01   -0.212153234623754638E+01
    0.188010558387382559E+03   -0.113862140726590511E+01   -0.431184384095158002E+01    0.328690737678034417E+00   -0.214028327629410375E+01
    0.160222340246662043E+03   -0.109720681847016310E+01   -0.416160517159604204E+01    0.372547584305672363E+00   -0.217810470674530166E+01
    0.148140852323486911E+03   -0.107315334214763070E+01   -0.426379218662482806E+01    0.471407829704765802E+00   -0.215149742187086357E+01
    0.151148123813956005E+03   -0.900375206974283859E+00   -0.425939532158609513E+01    0.494872882970450012E+00   -0.211397423392115069E+01
    0.195814883605644468E+03   -0.109686233595820037E+01   -0.417342754956628514E+01    0.395360033945487188E+00   -0.216859545767658846E+01
    0.174229549875272653E+03   -0.112373889843272945E+01   -0.404843774253833821E+01    0.377722930682012070E+00   -0.210569644796626676E+01
    0.196928198266860591E+03   -0.106416790747357837E+01   -0.410163302129355500E+01    0.315365155275695530E+00   -0.211004058437139630E+01
    0.160335900431425614E+03   -0.100596731983626220E+01   -0.407763999062015969E+01    0.385068341723987684E+00   -0.212130476521817890E+01
    0.182648599085509716E+03   -0.161423354963009480E+01   -0.430371207305423198E+01    0.510285792369616908E+00   -0.215682493289923816E+01
    0.191405183319743116E+03   -0.629519232469132328E+00   -0.433700653668431269E+01    0.416158028942967106E+00   -0.219814517264484799E+01
    0.175169905561540418E+03   -0.590217010250697616E+00   -0.424173446278911470E+01    0.383098903328145501E+00   -0.213253971227693340E+01
    0.147536124764823199E+03   -0.814700771977057592E+00   -0.377167267275708618E+01    0.362217620964012776E+00   -0.211804463107277741E+01
    0.126825167439267716E+03   -0.841900791747848487E+00   -0.331980088612679669E+01    0.343119773893272473E+00   -0.211658285860340900E+01
    0.194770971012701580E+03   -0.972160500818891604E+00   -0.448176054527128631E+01    0.413688897004687306E+00   -0.211054202221922704E+01
    0.147543727435312661E+03   -0.888301610717435963E+00   -0.348260840735555721E+01    0.328275954708890316E+00   -0.212963841435071410E+01
    0.217320939882523078E+03   -0.168012466046355513E+01   -0.418137242126744813E+01    0.300406956111961665E+00   -0.209266000973737754E+01
    0.177815831117561601E+03   -0.180773479684203697E+01   -0.414921329899442526E+01    0.389976565917019180E+00   -0.211141244998663069E+01
    0.180843179677803221E+03   -0.175603104785762643E+01   -0.411823249134838854E+01    0.387969548181572810E+00   -0.209540833699613493E+01
    0.189763116090596640E+03   -0.113305577315835215E+01   -0.362615013036679557E+01    0.229068283456183991E+00   -0.212841411908668832E+01
    0.187201275073281948E+03   -0.176441317896556571E+01   -0.380249273048733727E+01    0.251779845152564352E+00   -0.211182482794159609E+01
    0.141039977531756989E+03   -0.118647308536047857E+01   -0.334826389121073786E+01    0.366255125333230402E+00   -0.213822189983235278E+01
    0.208674647747481288E+03   -0.131807007638782636E+01   -0.372087615209887623E+01    0.245549657070156108E+00   -0.217410956017335177E+01
    0.137753020578885753E+03   -0.117839814485458994E+01   -0.347470936803890096E+01    0.296135206171023679E+00   -0.215449114581624901E+01
    0.145914006238275874E+03   -0.164538939109461224E+01   -0.312600364974119715E+01    0.312518882261717867E+00   -0.212460711746237596E+01
    0.186291869955930565E+03   -0.161677010649719310E+01   -0.365878390992137126E+01    0.300986755412955609E+00   -0.213716738568187337E+01
    0.142891533971383126E+03   -0.124531568376722745E+01   -0.361545897648277403E+01    0.383701372266347651E+00   -0.210095038035232706E+01
    0.126319679340823697E+03   -0.134136896315340426E+01   -0.309300274087967075E+01    0.255823730097427204E+00   -0.215599727265523500E+01
    0.172544104881607637E+03   -0.152582604446089287E+01   -0.342295988245112692E+01    0.222752627945911025E+00   -0.209483125581341412E+01
