    0.247706167399883270E+03    0.199441432952880859E+00   -0.256538927555084229E+01    0.508265618276596109E+00   -0.960527849155671198E+01
    0.201440403466890842E+03   -0.354267813288329236E+00    0.214519332077673042E+00    0.536123614781954916E+00   -0.896920843568408088E+01
    0.316072346490116843E+03   -0.125041626175465836E+01   -0.198877271758100482E+01    0.291842772086279012E+00   -0.886279210263208483E+01
    0.141794929093477720E+03   -0.106638075730137860E+01    0.269769045667074625E+01    0.685527855011319742E-01   -0.870203325667066352E+01
    0.296124056632689530E+03    0.522194030467154846E+00    0.605100663485957924E-01    0.192904146150740446E+00   -0.867267639493679532E+01
    0.233873825741645021E+03   -0.195278097221218383E+01   -0.689770088137406034E+00    0.170754500204696902E+00   -0.847262879890017473E+01
    0.270893496564181305E+03   -0.118190049312026835E+01   -0.215316478024842706E+01    0.456639618696162874E+00   -0.846700204649653188E+01
    0.226050508022308350E+03   -0.191951370239257812E+01   -0.448948144912719727E+00    0.124952045488357547E+00   -0.845325437968695503E+01
    0.238892347002316342E+03    0.480505662485033014E+00   -0.871447061623423558E+00    0.825575394493578280E-01   -0.831015934985788185E+01
    0.258921864628791809E+03    0.897809088230133057E+00   -0.919882059097290039E+00    0.283207980179786711E+00   -0.828235436629225852E+01
    0.198014212554267033E+03    0.437979420141152431E+00    0.137996526060850666E+01    0.915482013777379616E-01   -0.816341339615018136E+01
    0.239109473838760096E+03   -0.125753854381679231E+01    0.836749447047939299E+00    0.225059104628986428E+00   -0.789777742925421400E+01
    0.283021033641554709E+03   -0.167898031040872531E+01    0.106810006076013320E+01    0.666032883704226752E-01   -0.789168423557188348E+01
    0.275355061888694763E+03   -0.852156162261962891E+00    0.105935692787170410E+01    0.512381304502487200E-01   -0.788877690070821824E+01
    0.296074295043945312E+03    0.180451214313507080E+00    0.832400918006896973E+00    0.502683348655700701E-02   -0.788786338642877016E+01
    0.180353739857673645E+03    0.224246144294738770E+00    0.127238929271697998E+01    0.192019150471687328E+00   -0.787253951146768927E+01
    0.246005915105342865E+03    0.848750948905944824E+00   -0.135262012481689453E+01    0.318495438265800512E+00   -0.782529577820761091E+01
    0.281348286927360618E+03   -0.231942799452600878E+00   -0.174577787555032860E+01    0.303122058205804568E+00   -0.781647797900287777E+01
    0.332691229016650311E+03   -0.176934270991475784E+01   -0.279319342864610709E+01    0.559669089996907787E+00   -0.778180849001416508E+01
    0.317743687331676483E+03   -0.169203162193298340E+00   -0.177663505077362061E+01    0.231101997828483591E+00   -0.773134799212195034E+01
    0.167769938290593586E+03   -0.998577679563544374E+00    0.958937247210220001E+00    0.408285637458465633E+00   -0.768532628310464183E+01
    0.133461149036884308E+03   -0.953080356121063232E+00   -0.303468704223632812E+00    0.440627007722854624E+00   -0.764469307890338357E+01
    0.151370787543605758E+03   -0.134659709822354823E+01   -0.468213975621920575E+00    0.421173345467649674E+00   -0.763438163894530319E+01
    0.276826642453670502E+03    0.277164340019226074E+00    0.872455835342407227E+00    0.392592358589172359E-02   -0.755520236465494399E+01
    0.204081770108154899E+03    0.145540501722789539E+00    0.119367065363346292E+00    0.442297889034044489E+00   -0.752447881282710540E+01
    0.227988626114960596E+03   -0.139730207282247942E+01   -0.735980622096922055E+00    0.236293935057876436E+00   -0.739634152290342861E+01
    0.256614942286294024E+03   -0.141767768667542970E+01   -0.161412369976435821E+01    0.414222562013061180E+00   -0.734486215225337880E+01
    0.291837991922587037E+03    0.664273626415865515E+00   -0.530003049316079000E-01    0.771123011190032182E-01   -0.732141463432785855E+01
    0.278100450336933136E+03   -0.370758652687072754E+00   -0.227407157421112061E+01    0.495864585399627689E+00   -0.730335223717706405E+01
    0.226761860610027384E+03    0.397149994241373427E+00    0.637696172222228519E+00    0.173545443797068044E+00   -0.729307783931930409E+01
    0.314489220180720793E+03    0.487513126970221755E+00   -0.984578459061843603E+00    0.372440559768606905E+00   -0.723952560015899049E+01
    0.261284357035844039E+03   -0.897258008551983011E+00    0.282526861785762584E+00    0.272759880560998702E+00   -0.723864324208319232E+01
    0.226238979001426458E+03   -0.144549938336806205E+01    0.881725452164001666E-01    0.441277112011705219E+00   -0.720080644406402026E+01
    0.243626908845309202E+03    0.661229741910194235E-01   -0.820638129023507190E+00    0.153049716543881692E+00   -0.718076950082581078E+01
    0.297668759813319184E+03    0.714492163569634187E+00   -0.135923856814540844E+01    0.369909378564429459E+00   -0.717295882411953034E+01
    0.254507552087306976E+03   -0.154448956251144409E+01   -0.569626092910766602E+00    0.140085906028747570E+00   -0.716186836564309992E+01
    0.163554202891715420E+03   -0.113554972573920177E+01    0.802309140137598575E+00    0.193495631030076096E-01   -0.713957785022327851E+01
    0.264495619570671579E+03   -0.129790315484531149E+01    0.199602257958719775E+00    0.294824890356678304E+00   -0.709789879736566665E+01
    0.219282127916812897E+03    0.471400797367095947E+00   -0.161737501621246338E+01    0.434368627667427065E+00   -0.706420455448323636E+01
    0.217938447537955426E+03   -0.237735272616174775E+00   -0.122266751484070735E+01    0.374232239619034068E+00   -0.705856033151809381E+01
    0.197726239495100458E+03    0.245392922474203523E-01    0.141584015155864584E+01    0.699583345206192114E-01   -0.701231625319332075E+01
    0.212427332921644080E+03   -0.100844081608605429E+01    0.121295880150706470E+01    0.136342350662940925E+00   -0.701164063062172538E+01
    0.139821302734876355E+03    0.454099649479610790E+00    0.259525389982480092E+00    0.197484277883875875E+00   -0.700917746997957725E+01
    0.249497850765522173E+03   -0.111978518433750773E+01   -0.146786826799994330E+00    0.420888754097177131E+00   -0.700517176874143388E+01
    0.244003676065035165E+03   -0.265074391572184265E-01   -0.193199882726957206E+00    0.392867029216725006E+00   -0.699854073922153397E+01
    0.340903186923209773E+03   -0.852194255184434590E+00    0.183110767716391010E+00    0.109256987187279248E+00   -0.698821294662250203E+01
    0.220248097775246180E+03   -0.496193347428088405E+00   -0.241295234188703134E+00    0.104550592910180457E+00   -0.696457508839625739E+01
    0.338241569647218853E+03    0.117909276086005654E+00   -0.669239416984986235E+00    0.288430582124616919E+00   -0.695931598275610686E+01
    0.125413064417683742E+03   -0.792734842587010879E+00    0.652040501999522348E-01    0.412139359669392635E+00   -0.695853300102232453E+01
    0.318433998413345194E+03   -0.128795925511863674E+01   -0.258798798868084834E+01    0.562569343010945078E+00   -0.692060362002623286E+01
    0.153472605723441575E+03    0.540220398534985158E-01    0.201738040562975840E+00    0.186660828789975114E+00   -0.690139235693013564E+01
    0.232874183579862233E+03   -0.246186217580129263E+00    0.483027096140854262E+00    0.235636873680140718E+00   -0.688476410747700474E+01
    0.345955644547939301E+03   -0.145308792591094971E+00   -0.942962765693664551E+00    0.373008970141410823E+00   -0.687431009678065053E+01
    0.267690478258605367E+03    0.602665702428206274E+00   -0.295742546803845485E-01    0.115368640229985914E+00   -0.683539686253491041E+01
    0.288586235123003348E+03   -0.187700779834622278E+01   -0.109847311927407043E+01    0.246418458757233921E+00   -0.682826165312912714E+01
    0.229224955486115249E+03   -0.806113175457208841E+00   -0.184476825165304170E+00    0.849069496127346501E-01   -0.681916718926964016E+01
    0.333896363924873071E+03   -0.818011618607084046E-01   -0.137078072164739106E+01    0.138861689834269469E+00   -0.678509883931819235E+01
    0.237555213272571564E+03   -0.125937342643737793E+01    0.153553485870361328E-01    0.291232087612152100E-01   -0.677985019010074907E+01
    0.162585432827472687E+03    0.698036193847656250E+00    0.684873461723327637E+00    0.117642362666130068E+00   -0.674328487807420629E+01
    0.162585432827472687E+03    0.698036193847656250E+00    0.684873461723327637E+00    0.117642362666130068E+00   -0.674328487807420629E+01
    0.147174164654265070E+03    0.643142183147977331E+00   -0.252568435324285190E-02    0.294102847466561623E+00   -0.674321666925759544E+01
    0.163851463795352913E+03   -0.182977316282516744E+01   -0.523136350129565386E+00    0.467145095379064457E+00   -0.671951107188854824E+01
    0.324702276876574217E+03   -0.404483799329224958E-02   -0.160977204281338215E+01    0.222898255339299051E+00   -0.671903451903190962E+01
    0.324299307037998233E+03   -0.130029629086081977E+01   -0.106492724419365281E+01    0.488423062621566928E+00   -0.671017737375114276E+01
    0.288564702982571248E+03    0.641360953257506861E+00   -0.101940746285270611E+01    0.296759093358585635E+00   -0.668603608972185270E+01
    0.260562360968318728E+03   -0.154252566623993648E+01    0.288909887662014420E+00    0.259350886104645184E+00   -0.668002226484145911E+01
    0.229405364603960436E+03   -0.187910857073406712E+00   -0.719127400792167748E-01    0.307571741656970168E-01   -0.667918297481189427E+01
    0.229405364603960436E+03   -0.187910857073406712E+00   -0.719127400792167748E-01    0.307571741656970168E-01   -0.667918297481189427E+01
    0.248215668087486051E+03   -0.740560556618854449E-01   -0.476231324165940606E+00    0.915926755335653153E-01   -0.666146651781666232E+01
    0.157607183444420599E+03   -0.107339536758998966E+01    0.752091135072133099E+00    0.910433695720692104E-01   -0.664549152038051538E+01
    0.308827176254613335E+03   -0.180891632807638092E+01   -0.160498330580376880E+01    0.350011871599931912E+00   -0.664348782588782072E+01
    0.278712980975778521E+03   -0.152813051589593241E+01    0.582543494827777231E+00    0.125942308042452017E+00   -0.663267976014196847E+01
    0.278712980975778521E+03   -0.152813051589593241E+01    0.582543494827777231E+00    0.125942308042452017E+00   -0.663267976014196847E+01
    0.229869301669328763E+03   -0.620401805048271582E+00   -0.738950727514055217E+00    0.250008690957596535E+00   -0.659318020636886359E+01
    0.211074323173624293E+03    0.406799995063881425E+00   -0.582103642169982116E+00    0.205538482432054553E+00   -0.658235227372511744E+01
    0.211074323173624293E+03    0.406799995063881425E+00   -0.582103642169982116E+00    0.205538482432054553E+00   -0.658235227372511744E+01
    0.244644643214979908E+03    0.545150531491807477E+00    0.418229856500160757E+00    0.605673896653684887E-01   -0.657818359919283413E+01
    0.278545693348164434E+03   -0.185834033675941068E+01   -0.796153483175203291E+00    0.199314514876839044E+00   -0.657081237138963825E+01
    0.278545693348164434E+03   -0.185834033675941068E+01   -0.796153483175203291E+00    0.199314514876839044E+00   -0.657081237138963825E+01
    0.182173859860694392E+03    0.355476852096451523E+00    0.701817027655301295E+00    0.244069701440886883E+00   -0.655679391260893318E+01
    0.216718093408676737E+03   -0.659929731882983095E+00   -0.609945035001017821E+00    0.262523851563597976E+00   -0.654509190393690066E+01
    0.335811489820480347E+03   -0.192535877227783203E+00   -0.162279427051544189E+01    0.230437248587608334E+00   -0.654499286990389884E+01
    0.282091468797535981E+03   -0.612345250937032848E+00   -0.426626151200331094E-01    0.251731428276479707E+00   -0.653790369148605155E+01
    0.301666929067877618E+03    0.300395940177144993E+00   -0.208816621375041134E+01    0.401143118840796065E+00   -0.652011934165483886E+01
    0.228651957953878707E+03   -0.965642850325738822E+00   -0.419718767573174389E+00    0.189285225225991421E+00   -0.647527081588378639E+01
    0.285269324481487274E+03    0.583582222461700439E+00   -0.288847684860229492E+00    0.114047994875907902E+00   -0.645836341199554287E+01
    0.174911403614090375E+03   -0.227749687033818704E+00    0.152596859206872892E+01    0.905254845469664893E-01   -0.645363503497086821E+01
    0.341184859769637740E+03    0.260367440036208819E+00   -0.118139541798947612E+01    0.370505612615590674E+00   -0.645312161712981958E+01
    0.341184859769637740E+03    0.260367440036208819E+00   -0.118139541798947612E+01    0.370505612615590674E+00   -0.645312161712981958E+01
    0.206851759001826878E+03   -0.102173744884891260E+01   -0.854800778523570060E-01    0.485272357206785576E+00   -0.645130016739930578E+01
    0.199637608039356337E+03   -0.163213874893482602E+01   -0.240676228918879076E-02    0.200208663459891190E+00   -0.643449480216081771E+01
    0.199637608039356337E+03   -0.163213874893482602E+01   -0.240676228918879076E-02    0.200208663459891190E+00   -0.643449480216081771E+01
    0.222416493074971243E+03    0.332958733495036796E-01   -0.130548357310901419E+01    0.411780739871743739E+00   -0.643158561541310547E+01
    0.162087620677873929E+03   -0.662577891488966841E-01    0.953947342348379301E+00    0.297356900474997299E+00   -0.641678995805972097E+01
    0.146027292036782626E+03    0.631391752217456581E+00    0.542164582727385991E+00    0.224971965861775480E+00   -0.640864704512221817E+01
    0.236772157558514095E+03    0.970752405881785130E-01   -0.120535248426216590E+01    0.339586234968801193E+00   -0.636478300927274532E+01
    0.241400481760501862E+03    0.337888479232788086E+00   -0.489748120307922363E+00    0.110394330525398252E+00   -0.635649553763534936E+01
    0.132290005692700504E+03   -0.962191826983478826E+00    0.119101061254908380E+01    0.103440775450407613E+00   -0.634049796649446940E+01
    0.281250632858636607E+03   -0.786319854806812879E+00   -0.143731187017732198E+01    0.345039844068964041E+00   -0.633578270726122650E+01
    0.133505687117576599E+03   -0.117504870891571045E+01    0.154073476791381836E+01    0.301624372744560276E+00   -0.632037218428091663E+01
    0.133505687117576599E+03   -0.117504870891571045E+01    0.154073476791381836E+01    0.301624372744560276E+00   -0.632037218428091663E+01
    0.215899979216076105E+03    0.540252248173038296E+00    0.532749943529364778E+00    0.798570735585972524E-01   -0.630433374528281298E+01
    0.215899979216076105E+03    0.540252248173038296E+00    0.532749943529364778E+00    0.798570735585972524E-01   -0.630433374528281298E+01
    0.128165702733584141E+03    0.315891867267398485E+00    0.116016598457902465E+01    0.342423338816389478E+00   -0.630372699336605802E+01
    0.274277886748313904E+03   -0.150019913911819458E+01   -0.109274148941040039E+01    0.301105135488510145E+00   -0.629530268520329983E+01
    0.311007480323314667E+03   -0.697330832481384277E+00   -0.520704984664916992E+00    0.299550289607048048E+00   -0.626944992856755867E+01
    0.175336198508739471E+03   -0.288242638111114502E+00    0.556029081344604492E+00    0.356153018760681173E+00   -0.626843391507057035E+01
    0.185573922097682953E+03   -0.788888752460479736E+00    0.137714207172393799E+01    0.978564856767654423E-01   -0.624772181050334829E+01
    0.163225147004387338E+03   -0.478182636152086227E+00   -0.345182499950204225E+00    0.392826289269826268E+00   -0.624560007953386176E+01
    0.199934192381885083E+03    0.152979645828584143E+00    0.172429135062444061E+00    0.703990971099381080E-01   -0.623359260768578149E+01
    0.254592380524094949E+03   -0.170473666820945047E+01   -0.846283657965924974E+00    0.560995631903301817E+00   -0.620108553598227719E+01
    0.221760247647762299E+03   -0.135404145717620850E+01    0.933238267898559570E+00    0.129853189373016376E+00   -0.619961629429187333E+01
    0.221760247647762299E+03   -0.135404145717620850E+01    0.933238267898559570E+00    0.129853189373016376E+00   -0.619961629429187333E+01
    0.296068626112030756E+03    0.536227574241173954E+00   -0.175399542506206041E+01    0.375927832587485133E+00   -0.619314276512236539E+01
    0.296068626112030756E+03    0.536227574241173954E+00   -0.175399542506206041E+01    0.375927832587485133E+00   -0.619314276512236539E+01
    0.184854499204262538E+03   -0.118806796191096575E+00    0.409282704983172430E+00    0.689936779576335590E-01   -0.618506987079045878E+01
    0.313362686659247117E+03   -0.118890921419442752E+01   -0.173306687109666901E+01    0.389998746169909760E+00   -0.616934384458311857E+01
    0.235603186527884134E+03   -0.127700682518774844E+01   -0.215084054868171393E+00    0.409177690578239106E+00   -0.614821576513734946E+01
    0.219334049960895754E+03    0.257031119549056886E+00    0.153309069531227138E+00    0.178255980384039656E-01   -0.613943310939391473E+01
    0.219334049960895754E+03    0.257031119549056886E+00    0.153309069531227138E+00    0.178255980384039656E-01   -0.613943310939391473E+01
    0.181074337336122539E+03   -0.240008309173525225E+00    0.286919720002836165E+00    0.128906502785146204E+00   -0.613183550104227848E+01
    0.312762201242419223E+03   -0.396895630816137324E+00   -0.184488045672901624E+01    0.386561868674943465E+00   -0.612653672785603831E+01
    0.312762201242419223E+03   -0.396895630816137324E+00   -0.184488045672901624E+01    0.386561868674943465E+00   -0.612653672785603831E+01
    0.299718864934525413E+03   -0.976460438297337863E+00    0.350391514673105142E+00    0.773610724061878641E-01   -0.611151368435404940E+01
    0.179796793812340837E+03   -0.312144258165103050E+00   -0.240026199166533338E+00    0.294033366501714577E+00   -0.610364008980298145E+01
    0.282154700933730965E+03    0.535960271807438104E+00   -0.763609017846288651E+00    0.152458305255483484E+00   -0.609892824277402568E+01
    0.266478143632411957E+03   -0.109389257431030273E+01    0.217177271842956543E+00    0.192797886943817137E+00   -0.608830917699863505E+01
    0.173936370291523247E+03   -0.916475775668526671E+00    0.933352166617598122E+00    0.261342338983891476E+00   -0.607631593560393313E+01
    0.276096396841137675E+03    0.517314797441216889E+00   -0.604810157343567134E+00    0.116170969399315843E+00   -0.605939932988558017E+01
    0.227141698484652210E+03    0.116535528400971700E-01   -0.589381743889281218E+00    0.229212926327854116E+00   -0.605930998239555763E+01
    0.227141698484652210E+03    0.116535528400971700E-01   -0.589381743889281218E+00    0.229212926327854116E+00   -0.605930998239555763E+01
    0.262169721307421355E+03    0.533820048011206083E+00    0.917776752198529167E-01    0.134597084687699620E-02   -0.605040560570762409E+01
    0.262169721307421355E+03    0.533820048011206083E+00    0.917776752198529167E-01    0.134597084687699620E-02   -0.605040560570762409E+01
    0.215721750259399414E+03   -0.133694005012512207E+01   -0.268982052803039551E+00    0.477573438906669645E+00   -0.603693145050580249E+01
    0.215721750259399414E+03   -0.133694005012512207E+01   -0.268982052803039551E+00    0.477573438906669645E+00   -0.603693145050580249E+01
    0.280726823905774154E+03   -0.186673684913201687E+01   -0.482720355791691702E+00    0.160549911533133027E+00   -0.602906291576527664E+01
    0.214315655827522278E+03   -0.142280828952789307E+01    0.178599357604980469E-01    0.401768654823303262E+00   -0.602889667629381520E+01
    0.291025234938608946E+03    0.456019851467628357E-01   -0.574763341948142603E+00    0.292197009308602762E+00   -0.601660346632800280E+01
    0.291025234938608946E+03    0.456019851467628357E-01   -0.574763341948142603E+00    0.292197009308602762E+00   -0.601660346632800280E+01
    0.315288402794358035E+03   -0.705261632147810014E+00   -0.651820025099233646E+00    0.301771691348342086E+00   -0.601554806505358464E+01
    0.196992446968010654E+03   -0.143809941565516342E+01    0.474502513834509365E+00    0.106773261630985189E+00   -0.601105684189371470E+01
    0.196992446968010654E+03   -0.143809941565516342E+01    0.474502513834509365E+00    0.106773261630985189E+00   -0.601105684189371470E+01
    0.179906666627621746E+03   -0.606550954643065410E+00   -0.786005814099581812E-01    0.273922515656459087E+00   -0.600844450568433519E+01
    0.317672170452554326E+03    0.182266769805742967E+00   -0.358220043818501921E+00    0.148879243178144161E+00   -0.600441410403349796E+01
    0.317672170452554326E+03    0.182266769805742967E+00   -0.358220043818501921E+00    0.148879243178144161E+00   -0.600441410403349796E+01
    0.206599239580877480E+03   -0.184106674742793075E+01    0.317912919715946707E+00    0.142339186173916193E+00   -0.599691460791481568E+01
    0.308788743615150452E+03   -0.128495150804519653E+01   -0.118309199810028076E+01    0.485956771588325509E+00   -0.599565826229711618E+01
    0.312850862254253002E+03   -0.986555067818486897E+00   -0.831278799311437666E+00    0.366567225585895606E+00   -0.599488487180869267E+01
    0.205230763282216117E+03   -0.741438994928932615E+00    0.107771389869556700E+00    0.151758383579315204E+00   -0.599221706051751468E+01
    0.191862016247541419E+03    0.490631831249503936E+00    0.329326064298762766E+00    0.891992721270229300E-01   -0.599096574163887396E+01
    0.202369004573821144E+03   -0.140431581795380733E+01    0.464972997779552699E+00    0.933445549277635567E-01   -0.598491429921426121E+01
    0.257816561495770543E+03   -0.749306455706275187E+00   -0.807092444436746881E+00    0.261757554501408529E+00   -0.597350231649986974E+01
    0.228547510300784637E+03    0.311423454325711280E+00   -0.607629278344391288E+00    0.419292447666220425E+00   -0.597340395767332044E+01
    0.324408123851004973E+03   -0.145705246957808821E+01   -0.197607727807743583E+01    0.473663059091838923E+00   -0.596150473910091705E+01
    0.302718078209162343E+03   -0.101085555183860043E+01   -0.749176685523452512E+00    0.154119784934241028E+00   -0.594440211408484487E+01
    0.172736386954784393E+03   -0.418756783008575439E+00   -0.416243076324462891E+00    0.405239243602752708E+00   -0.594249273479250117E+01
    0.172736386954784393E+03   -0.418756783008575439E+00   -0.416243076324462891E+00    0.405239243602752708E+00   -0.594249273479250117E+01
    0.257035480439662933E+03    0.167410671710968018E+00   -0.761472582817077637E+00    0.202616073560714732E+00   -0.594125179202615250E+01
    0.196244089575611326E+03    0.431700945862074192E+00   -0.714918280649035509E+00    0.519417117603795275E+00   -0.593921233385583758E+01
    0.196244089575611326E+03    0.431700945862074192E+00   -0.714918280649035509E+00    0.519417117603795275E+00   -0.593921233385583758E+01
    0.313421971805116755E+03    0.401021243418815843E+00   -0.175699570663460403E+01    0.501914103460438410E+00   -0.593110030548768563E+01
    0.242990589141845703E+03   -0.118091773986816406E+01   -0.124794423580169678E+01    0.456375566840171831E+00   -0.592002787402953423E+01
    0.262355610179712357E+03   -0.193923779453558165E+01   -0.148085757056548939E+01    0.508390285195093217E+00   -0.591367485785286817E+01
    0.171450748515494666E+03    0.458070188294543712E-01    0.616032013153596125E+00    0.878946814377123825E-01   -0.590307690636962690E+01
    0.262989836931228638E+03    0.254334986209869385E+00   -0.147442877292633057E+01    0.567428607773780791E+00   -0.589693346822890785E+01
    0.280319868964893999E+03   -0.239270496277482980E+00   -0.193626530371848737E+01    0.508242247934569069E+00   -0.588817113548704363E+01
    0.309873687891684654E+03   -0.102670282136544011E+01   -0.761989193858203961E+00    0.341262235722723017E+00   -0.588746274791341939E+01
    0.309873687891684654E+03   -0.102670282136544011E+01   -0.761989193858203961E+00    0.341262235722723017E+00   -0.588746274791341939E+01
    0.167670804223914018E+03   -0.793318155984259477E-01   -0.233728525952789923E+00    0.363129254896921161E+00   -0.588563058547747353E+01
    0.291898779159579249E+03   -0.131443119811507558E+01   -0.831792022051945246E+00    0.414835873501094687E+00   -0.588172697859001214E+01
    0.224378177523612976E+03    0.403063833713531494E+00   -0.423200726509094238E+00    0.201088828897476202E+00   -0.586954122524551192E+01
    0.296883201633729527E+03   -0.222133892618327167E+00   -0.120495652133208697E+01    0.267513486043036042E+00   -0.586345178435479220E+01
    0.307066081464290619E+03   -0.127036654949188232E+01   -0.433887839317321777E+00    0.259457319545745857E+00   -0.585182662628723627E+01
    0.200881349273355568E+03   -0.450481782863909830E+00   -0.988494681503234496E+00    0.486210438812937518E+00   -0.584645086492325383E+01
    0.241734028250127096E+03    0.318602043576502236E+00   -0.340023678871535395E+00    0.134940831775183318E+00   -0.583137795779146018E+01
    0.292082180334537895E+03   -0.104871468103729737E+01   -0.687800519164507129E+00    0.182732967958407960E+00   -0.582955630295265337E+01
    0.301442053223011840E+03   -0.677242633773254443E+00   -0.847523787178485755E+00    0.362386003814496427E+00   -0.582879735761500051E+01
    0.304175665974617004E+03   -0.197950309514999390E+01   -0.182146191596984863E+01    0.517282721328735318E+00   -0.582698216241571476E+01
    0.331945202882660965E+03   -0.756297902363116670E+00   -0.930916664531679316E+00    0.324232844398593401E+00   -0.582469662855454029E+01
    0.138649151221985846E+03   -0.233689393361793618E+00   -0.365708147561432995E+00    0.549403753223975944E+00   -0.581850035567268442E+01
    0.138649151221985846E+03   -0.233689393361793618E+00   -0.365708147561432995E+00    0.549403753223975944E+00   -0.581850035567268442E+01
    0.287006665804862564E+03   -0.153364979622540232E+01   -0.851649683722448536E+00    0.427763988299361131E+00   -0.581506104251359002E+01
    0.154453360834652983E+03   -0.853771957366212808E+00    0.160812176513586103E+01    0.108488476078738835E+00   -0.581461376280403908E+01
    0.159109716275449927E+03   -0.713735685462450142E+00    0.152287903909138489E+01    0.106765382759803559E+00   -0.581087460393952870E+01
    0.221464467048645020E+03   -0.173339915275573730E+01    0.570587515830993652E+00    0.468594991207122794E-01   -0.580450135818219337E+01
    0.182853085818489092E+03   -0.300684630452563439E-01   -0.498732607103240966E+00    0.379621278224487213E+00   -0.580018975744476073E+01
    0.255557586970036652E+03   -0.163968501279638090E+01   -0.705145320121918218E+00    0.462611024478681243E+00   -0.579575168156374154E+01
    0.255557586970036652E+03   -0.163968501279638090E+01   -0.705145320121918218E+00    0.462611024478681243E+00   -0.579575168156374154E+01
    0.204468580211663095E+03   -0.907713346682287314E+00    0.318986905862010950E+00    0.130879728651300153E+00   -0.579078800177258746E+01
    0.248377184641502822E+03   -0.108198286035757296E+01   -0.748398047604705852E+00    0.474980184635362568E+00   -0.578697805042566848E+01
    0.236181920611700718E+03    0.291416531584317795E+00   -0.347056995292620130E+00    0.160904005001241385E+00   -0.577987869538302146E+01
    0.293072818610583226E+03   -0.121765020415106329E+01   -0.971360851961998506E+00    0.277633623180752853E+00   -0.577672102809882126E+01
    0.145092809357368992E+03    0.229490443359995577E+00    0.632384463851418666E+00    0.352215418569838290E+00   -0.577518906599294812E+01
    0.291713270970756355E+03   -0.164845222085087406E+01   -0.152059284639237813E+01    0.459364257240377827E+00   -0.577327414776046766E+01
    0.272358178083349685E+03   -0.577321232674028462E-01   -0.483645047119475535E+00    0.282664770404554844E+00   -0.576653801513760467E+01
    0.272358178083349685E+03   -0.577321232674028462E-01   -0.483645047119475535E+00    0.282664770404554844E+00   -0.576653801513760467E+01
    0.336329431112375744E+03    0.125186597195269922E+00   -0.128968157883642531E+01    0.201787464725467325E+00   -0.576538570540760986E+01
    0.193678922624301777E+03   -0.866755447843994942E+00    0.329446815569436779E+00    0.321242093862802003E+00   -0.576376154197255453E+01
    0.333107291307347396E+03   -0.160850716137730831E+00   -0.113564090415785657E+01    0.338177380695499852E+00   -0.575316469732278168E+01
    0.333107291307347396E+03   -0.160850716137730831E+00   -0.113564090415785657E+01    0.338177380695499852E+00   -0.575316469732278168E+01
    0.217377742895997727E+03   -0.146051314052332559E+01   -0.114677795633525736E+01    0.548893760621354532E+00   -0.575097338591034468E+01
    0.268642964836964040E+03   -0.860291373445211338E+00   -0.622469993129536547E+00    0.217714516408827913E+00   -0.575065354858910194E+01
    0.243806940493727922E+03   -0.139240370950601822E+01   -0.600508528022273502E+00    0.446930263321655419E+00   -0.575045717402231382E+01
    0.230628741690479274E+03   -0.768596594907519748E+00   -0.738841789786038206E+00    0.499789410284966928E+00   -0.574378345578444094E+01
    0.149449591593934457E+03   -0.469887390628555002E+00    0.572430698638004998E+00    0.406185169172815441E+00   -0.574367246707057255E+01
    0.277390904344955175E+03   -0.491065523112013569E+00    0.499245800239780380E+00    0.131055508536554663E-01   -0.574173868082794048E+01
    0.227461222142272732E+03   -0.170707625456387824E+01   -0.107292002535789521E+00    0.233282321562093692E+00   -0.573985131438573770E+01
    0.148229990810510856E+03   -0.869044567659714939E+00    0.168425262552082344E+00    0.396663531295505578E+00   -0.573948645120907930E+01
    0.321153167085423547E+03   -0.161898679537007362E+01   -0.897535474566120151E+00    0.352843322566270323E+00   -0.573804186109276149E+01
    0.210452704844072400E+03   -0.239636511322987023E+00   -0.996164611384389609E+00    0.463309842414110773E+00   -0.573609049116951031E+01
    0.317267258030357254E+03   -0.154121085054659179E+01   -0.569315945367455889E+00    0.132755110075392618E+00   -0.573274778665277029E+01
    0.261141491474084432E+03   -0.166849220256463182E+01    0.456010204832519861E-01    0.221152380325085246E+00   -0.572499387124509340E+01
    0.320244609627874922E+03   -0.140840337404065874E+01   -0.148411607167663107E+00    0.135263083972438192E+00   -0.572304089426619811E+01
    0.320244609627874922E+03   -0.140840337404065874E+01   -0.148411607167663107E+00    0.135263083972438192E+00   -0.572304089426619811E+01
    0.209660210554248010E+03   -0.508772979941594539E+00    0.524775877101930632E+00    0.191895768259285338E+00   -0.572115338884935554E+01
    0.311627784542700965E+03   -0.423813716812085239E+00   -0.122380200949613638E+01    0.269969407585540999E+00   -0.571978939588074642E+01
    0.177695149045056553E+03   -0.398505705076906747E+00   -0.266363774262456943E+00    0.516807858946154663E+00   -0.571399051775188038E+01
    0.225490411428917866E+03   -0.195884897801239632E+01    0.525230194353751401E+00    0.812175644103547284E-01   -0.571096652123960347E+01
    0.284222018226514592E+03   -0.371248956215668224E+00    0.243042373630821373E+00    0.611574221194347359E-01   -0.571070760744653061E+01
    0.247521702699344786E+03   -0.199325829278479572E+01    0.279462864103756203E+00    0.920050617737521587E-01   -0.570382153689208682E+01
    0.237996158592078473E+03   -0.166257352498057975E+01    0.431110817208239183E+00    0.532922981606176530E-01   -0.570314288529867230E+01
    0.248693800687628880E+03   -0.113665782500916657E+01   -0.104742436661165872E+01    0.418844217802993746E+00   -0.570157309663560596E+01
    0.218394910264837165E+03   -0.144565281148364400E+01   -0.614678811594250973E+00    0.402810113917328072E+00   -0.570151623023433096E+01
    0.315506980485135500E+03    0.150661172618471451E+00   -0.170337773681574722E+01    0.373881546495288042E+00   -0.568804826751348003E+01
    0.151915471255779266E+03   -0.119657182693481445E+01    0.727231502532958984E+00    0.363701661944389354E+00   -0.568798100715687305E+01
    0.349658219516277313E+03    0.561800003051757812E-01   -0.104342639446258545E+01    0.250161986660957347E+00   -0.568646696887866199E+01
    0.272180088385039426E+03    0.392082001232550326E+00   -0.183657585876060336E+01    0.553154434507044046E+00   -0.568620890195765138E+01
    0.215772827715655410E+03   -0.162228087458763337E+01    0.558439791990691603E+00    0.187344117719534881E+00   -0.568560002284017774E+01
    0.222334986989092528E+03    0.113093112963258857E+00    0.337142167703785134E+00    0.149753193067380080E+00   -0.568344656340366328E+01
    0.269753767146891846E+03   -0.691614564117628561E-01   -0.119254836058574121E+01    0.476368304927322295E+00   -0.568314520609275053E+01
    0.274150197323845759E+03   -0.584536048747463122E+00   -0.642584326344652013E+00    0.207635791961076538E+00   -0.568290253518040700E+01
    0.168362572117791302E+03   -0.169180596707599507E+01   -0.113088590334292860E+00    0.457941344429502184E+00   -0.567915577308285435E+01
    0.177990311384201050E+03   -0.538053929805755615E+00   -0.630041956901550293E+00    0.490287842845916755E+00   -0.567892231070546671E+01
    0.225915449304643289E+03   -0.153596911973768480E+01    0.579908672860853791E+00    0.468343309603134403E-01   -0.567878015242930001E+01
    0.236965458437960280E+03   -0.654436960565154546E+00    0.489961826666851508E-01    0.239361072463372487E+00   -0.567748923124769078E+01
    0.281795884886841520E+03   -0.110672098342143044E+01   -0.403387168897797466E-01    0.515419034567701495E-01   -0.567681364074135963E+01
    0.168216833029839592E+03    0.403125309498685525E+00    0.302002851232353819E+00    0.256015976921436295E+00   -0.567643296731556202E+01
    0.243931791226244741E+03   -0.696936560488195411E+00   -0.480587562457867712E+00    0.374664855837214816E+00   -0.567587058186816229E+01
    0.335803331454583031E+03   -0.109215470111458424E+01   -0.160163174269774000E+01    0.491078854265767695E+00   -0.567420435425046854E+01
    0.302396978231773119E+03   -0.161981071182130210E+01   -0.457041888485490766E+00    0.150460844435841151E+00   -0.567355523515860583E+01
    0.250050638855789373E+03    0.284764756678468789E+00    0.126245795009176653E+00    0.939793886975420628E-01   -0.567189584418883630E+01
    0.222692529467727894E+03   -0.144621498322914577E+01   -0.132738211144830309E+00    0.258766629663106484E+00   -0.567010259583098186E+01
    0.276224375967039578E+03   -0.196185808859806965E+00   -0.819296929101209770E-01    0.151368639402482213E+00   -0.566966273356399597E+01
    0.261282955479439579E+03   -0.110146593945212690E+01    0.132760296519354171E+00    0.540843802249179328E-01   -0.566599339895251486E+01
    0.329433485765846115E+03   -0.137562244502448339E+01   -0.127495335838415436E+01    0.418977172728016878E+00   -0.566414614745220124E+01
    0.208215731895170393E+03    0.274435718188970945E+00   -0.545178297391136546E+00    0.412427602321153108E+00   -0.566380302911718747E+01
    0.245429468242520386E+03   -0.107659156849297433E+01   -0.104819868818785533E+01    0.542579504725860473E+00   -0.566241536195339634E+01
    0.163761154399851847E+03   -0.985601408801981105E+00    0.554468648678910547E+00    0.240473573700343779E+00   -0.566225984569823027E+01
    0.251546792904852111E+03    0.361387541058045159E+00   -0.132601371416324776E+01    0.463741630530890014E+00   -0.566154798098191314E+01
    0.283707230325630348E+03   -0.934016599749541099E+00   -0.245583853023175536E+00    0.998463789167333554E-01   -0.566085448893374821E+01
    0.135923348798185430E+03   -0.102694746527279235E+01    0.184377313334326942E+00    0.479107835608553301E+00   -0.566052775752047754E+01
    0.312236836868283149E+03   -0.119582521004244402E+01   -0.460577800120486103E+00    0.175681833864357650E+00   -0.555213253069238988E+01
    0.270186639089141977E+03   -0.996509046748031757E+00   -0.501069496885977017E+00    0.227107413420468834E+00   -0.558603319572332158E+01
    0.291423492349040544E+03   -0.167978115228371339E+01    0.382897359937128812E-02    0.144494189819288715E+00   -0.564901968761614359E+01
    0.260606077313423157E+03   -0.141762071847915649E+01   -0.303713083267211914E+00    0.232644117808341988E+00   -0.557739770592053485E+01
    0.300091944968968050E+03   -0.179488971712441292E+01   -0.428810115013053661E+00    0.237041034006118839E+00   -0.561634496076442158E+01
    0.255196391361899572E+03   -0.151740699272573210E+01   -0.478873176449210902E+00    0.306501505714737443E+00   -0.558118417523373900E+01
    0.286236826190478553E+03   -0.132981451335280343E+01   -0.123047045326410753E+00    0.161160093664601267E+00   -0.558759858907284990E+01
    0.275356331705182981E+03   -0.162309253462078384E+01   -0.300223663666151275E+00    0.201650134296210176E+00   -0.558902829130217427E+01
    0.238578939597375978E+03   -0.165001982149527837E+01    0.344763279822279500E+00    0.136668248449143437E+00   -0.559446222792280246E+01
    0.263567260788350268E+03   -0.112991677066389218E+01   -0.342229017359448662E+00    0.248236770837262005E+00   -0.555182453827353051E+01
    0.283936045132330719E+03   -0.775878335837909106E+00   -0.380123420017918434E+00    0.205337829616868056E+00   -0.554567833914836950E+01
    0.306760872469216338E+03   -0.999499390245800257E+00   -0.779985146975299415E+00    0.227359195751127730E+00   -0.556907919094205717E+01
    0.331695954750883743E+03   -0.151051316053729989E+01   -0.519942095649605918E+00    0.140205065391701078E+00   -0.557073144937805509E+01
    0.271932117407946407E+03   -0.142286374060682363E+01    0.263386142193231976E+00    0.104089860590190944E+00   -0.564158972055524366E+01
    0.309099129649453175E+03   -0.119784433838981030E+01   -0.899985799264863218E+00    0.288215548608946603E+00   -0.554735384910803297E+01
    0.318815614069374419E+03   -0.106394737951786489E+01   -0.905394079460619672E+00    0.279295977207930868E+00   -0.554585052151633207E+01
    0.317711763176685679E+03   -0.136374535909763694E+01   -0.770170535709262083E+00    0.245665516865224365E+00   -0.555650678706817658E+01
    0.269537351186643548E+03   -0.147856788746001255E+01   -0.741229913380546890E+00    0.350418083261943014E+00   -0.556890428656353809E+01
    0.255434439443021944E+03   -0.142261125216210860E+01   -0.585640602697786505E+00    0.343528014969310735E+00   -0.556926639974957283E+01
    0.211939864914186359E+03    0.104584594971647515E+00   -0.175671514290657527E+00    0.243058691103089419E+00   -0.558536766099536397E+01
    0.223556402634663044E+03   -0.901414070127836586E+00    0.364895613297585797E+00    0.176796939367414613E+00   -0.560677886464073438E+01
    0.224252044688639103E+03   -0.560268829264301438E+00   -0.159733047863028332E+00    0.222699537504897044E+00   -0.561300744004090912E+01
    0.228195266200139258E+03   -0.784330256537962178E+00    0.268319962851926164E-02    0.211159547619880594E+00   -0.554486853097018706E+01
    0.266858290555647386E+03   -0.118079789181709760E+01    0.235719972406103651E+00    0.382951053237450129E-01   -0.558790258766714842E+01
    0.240956084770448143E+03   -0.103779276284606237E+01    0.165909042301137788E+00    0.112704432904108073E+00   -0.560285504001242352E+01
    0.255709088712167812E+03   -0.515654346041476641E+00   -0.329785609372065025E+00    0.170292590289444851E+00   -0.565544916747934945E+01
    0.228396091145707004E+03   -0.464513283140620015E+00    0.110388044140208308E-03    0.161785349426342567E+00   -0.559754454394026002E+01
    0.224352932974266821E+03   -0.292097663664812490E+00    0.170197958753686152E+00    0.196035028022642249E+00   -0.556872914210779069E+01
    0.230955342918468688E+03   -0.134882389145802328E+01   -0.154896487591308585E+00    0.266741573342226423E+00   -0.558422070684429706E+01
    0.214050745314001915E+03    0.902204857951689476E-01   -0.274945491237447825E+00    0.259289687522961776E+00   -0.559781690860945247E+01
    0.252378910492466673E+03   -0.405862031046806848E+00    0.230554426381557320E-01    0.133806632442472206E+00   -0.552362608420601298E+01
    0.254019251602440420E+03   -0.733397101617296210E+00   -0.623102863062054979E+00    0.324000836084961774E+00   -0.553333275393308188E+01
    0.272672195732593536E+03   -0.170528709888458252E+00   -0.437142848968505859E+00    0.186206586384773248E+00   -0.552676903404958342E+01
    0.305232940988150972E+03   -0.469453255073903897E+00   -0.195182382251671172E+00    0.431254324141815554E-01   -0.554970266432844195E+01
    0.287243609895679356E+03   -0.508414011352359640E+00   -0.377542317148375162E+00    0.178574291421340958E+00   -0.552999333828873318E+01
    0.294611958649110875E+03   -0.539417575186064591E+00   -0.323422136712025576E+00    0.805540579265103390E-01   -0.564360090056258201E+01
    0.268585581454401563E+03   -0.880509105509981183E-01    0.301533540528615696E+00    0.351380577107710743E-01   -0.559289879089892938E+01
    0.268786043506452643E+03   -0.908057635420600473E-01   -0.392639989286847069E-01    0.138675943922576816E+00   -0.561713314165552013E+01
    0.263167303846183756E+03   -0.433641510996750634E+00    0.453873094801020116E+00    0.280738451053499857E-01   -0.560169914402166391E+01
    0.240332574070728015E+03   -0.176996340417201470E+00    0.374430094750398013E+00    0.234090059125199347E-01   -0.554955885756191059E+01
    0.267973991276448089E+03    0.111501352014689026E-01    0.909646612423875567E-01    0.644283474922489469E-01   -0.555202240792028956E+01
    0.252914315233514628E+03   -0.369393223095490830E+00    0.396889481300116920E+00    0.351825725721223448E-01   -0.552880254669945348E+01
    0.299291929481106763E+03   -0.605064273492375015E+00   -0.183251862291468726E+00    0.816029678888674781E-01   -0.552806508170026234E+01
    0.298793220661866485E+03   -0.900612476888763780E+00   -0.168387340827954368E+00    0.708266280375885460E-01   -0.556601826471753558E+01
    0.326249231088082183E+03   -0.170446126223538386E+00   -0.158626854755666180E+00    0.363946921505307400E-01   -0.556766500019245481E+01
    0.274161050922864717E+03   -0.101852956786764537E+00   -0.226525031382939446E+00    0.140989077871692098E+00   -0.552909576542898584E+01
    0.323661145599868405E+03    0.238067333557919092E+00   -0.663393904981569804E+00    0.146923942382690076E+00   -0.564995337711933132E+01
    0.310646368012618609E+03   -0.137809651347805318E+00   -0.588361787067126940E+00    0.140614577085643011E+00   -0.552862388693194706E+01
    0.330673023786753504E+03   -0.769472124361657794E+00   -0.467613856696981856E+00    0.848182781346059761E-01   -0.555409066796983986E+01
    0.213587721199631176E+03   -0.972978381231348166E+00   -0.166105761255932016E+00    0.273564340889702440E+00   -0.565194136448735396E+01
    0.170496144789784864E+03   -0.176060520094180228E+01    0.393042789693581085E+00    0.368440985857726888E+00   -0.563266900534206982E+01
    0.171746780160556483E+03   -0.147416344945320299E+01    0.377927690763599777E+00    0.374816926341360324E+00   -0.564738180261108269E+01
    0.167790678477945420E+03   -0.143920705242251712E+01    0.281526624625865196E-01    0.452622704905605355E+00   -0.559114483005515162E+01
    0.188975660502910614E+03   -0.137733966112136841E+01    0.782680511474609375E-01    0.370177235269546545E+00   -0.559244528061107093E+01
    0.183165232489347318E+03   -0.106580170409681729E+01    0.215416630253397301E+00    0.276186331444413069E+00   -0.560323191694956435E+01
    0.233963592714637343E+03   -0.191453079566472684E+01    0.274204342377927901E+00    0.168207213356485669E+00   -0.561760589021080392E+01
    0.240241522694618823E+03   -0.176919284228839069E+01   -0.170219795331949975E+00    0.310973903974693211E+00   -0.564079287469391844E+01
    0.215903585701199404E+03   -0.165430833368819741E+01    0.326606178051259910E+00    0.219649062229022113E+00   -0.560808141623410883E+01
    0.226680220745507881E+03   -0.147761763288640768E+01    0.405818407836846973E+00    0.181277726906677983E+00   -0.565397231983660653E+01
    0.200508637986697380E+03   -0.121051397003436012E+01   -0.228503653427970299E+00    0.356219186625134798E+00   -0.562950138924855281E+01
    0.131605599261806731E+03   -0.999228668250048635E+00    0.114859506769568753E+01    0.269892028389467631E+00   -0.555576463056464664E+01
    0.160110415613949158E+03   -0.724671385785675692E+00    0.330410944758288139E+00    0.392016954535557960E+00   -0.556994354055685914E+01
    0.139147303881283648E+03   -0.119704139194621240E+01    0.658405435015083640E+00    0.383723852186775238E+00   -0.557404797387463891E+01
    0.168671583493357502E+03   -0.138504586567309129E+01    0.683867134333367765E+00    0.284928591352714200E+00   -0.561641017439607726E+01
    0.142622477994405557E+03   -0.198985113086099186E+01    0.107511001719181110E+01    0.292344566450381704E+00   -0.565125111662344981E+01
    0.141874360570320505E+03   -0.123158563742523719E+01    0.631610863354310936E+00    0.406964720843080829E+00   -0.560133936556670253E+01
    0.134536540978593393E+03   -0.132172027856553598E+01    0.870757971399002351E+00    0.372339835177997236E+00   -0.559493794986094883E+01
    0.137386763699429110E+03   -0.562184132700501937E+00    0.319907473942507181E+00    0.420010058274592424E+00   -0.560060615537760143E+01
    0.170560699407725821E+03   -0.127910608205405030E+01    0.942318693457493417E+00    0.182110548590138754E+00   -0.558377375788331953E+01
    0.186873900455896603E+03   -0.406900277181308168E+00    0.325640059158286199E+00    0.227501418796172777E+00   -0.553014027113924733E+01
    0.184821135176838283E+03   -0.377154608694170612E+00    0.105876268125079065E+01    0.796925836481857247E-01   -0.560977297595513313E+01
    0.201473267245924774E+03   -0.658519625582771440E+00    0.101334431157144245E+00    0.227528295871400582E+00   -0.561420470829795715E+01
    0.166619478018469692E+03   -0.661388890229673398E+00    0.230836867418553027E+00    0.310384650443490895E+00   -0.563908166925951981E+01
    0.193895153113400511E+03   -0.579832968947857186E+00    0.300952017534149796E+00    0.274981896578479434E+00   -0.558235572644717060E+01
    0.151517522400400026E+03   -0.174474751098067316E+00    0.639607639851879739E+00    0.271589614727687723E+00   -0.552827246848118392E+01
    0.187387428075422918E+03    0.239405946795627766E+00    0.152253381097039231E+00    0.270002030451665598E+00   -0.562983688690688755E+01
    0.184429038488241900E+03   -0.147229413024893319E+01    0.875159164423237712E+00    0.165166536165788302E+00   -0.561428204576290035E+01
    0.133504847555992768E+03   -0.732456618043507035E+00    0.692222618713044469E+00    0.392949969141712763E+00   -0.554347962464758570E+01
    0.329569868711634683E+03   -0.123365029911848079E+01   -0.114770417529625490E+01    0.362429070837272216E+00   -0.560574015891882649E+01
    0.313308098866754676E+03   -0.888262200981742911E+00   -0.147468104782993414E+01    0.465940128087818595E+00   -0.557760141339882320E+01
    0.340612498783560568E+03   -0.912656043562535491E+00   -0.140452331786290463E+01    0.378185000241442193E+00   -0.554688938079620542E+01
    0.270743418484289009E+03   -0.138080496938256192E+01   -0.119514505653401715E+01    0.441262428199015067E+00   -0.560164147064111173E+01
    0.270136599155438489E+03   -0.121187530574494051E+01   -0.121237829202092495E+01    0.493441564992708193E+00   -0.556845123335923109E+01
    0.215918784445651738E+03   -0.715407453665151571E+00   -0.668759648437553977E+00    0.477131225934557479E+00   -0.556034539168160347E+01
    0.251428569048837147E+03   -0.118641664929002255E+01   -0.110069111007864029E+01    0.468558365990577319E+00   -0.557690688305323690E+01
    0.235183137679240019E+03   -0.878329520748922787E+00   -0.890467369374777107E+00    0.441893672445846042E+00   -0.555443139202711134E+01
    0.232356970120758547E+03   -0.832504699714831098E+00   -0.696673796218004071E+00    0.424591056110798726E+00   -0.554872010444578923E+01
    0.242093764110608021E+03   -0.631834439362013445E+00   -0.837430952913692295E+00    0.398446808677543840E+00   -0.554189987034664799E+01
    0.198322991090710758E+03   -0.449461804142162302E+00   -0.496277785750523392E+00    0.506258421988523888E+00   -0.565297292468780643E+01
    0.199215550529626427E+03   -0.200884991023136283E+00   -0.502702328401021248E+00    0.471712040464814741E+00   -0.557660473364468423E+01
    0.199618407331873243E+03   -0.548503714083659277E+00   -0.601570416245621686E+00    0.523629083319771649E+00   -0.560484311831606963E+01
    0.200484806287915319E+03   -0.137771079942941244E+01   -0.469545540977379439E+00    0.482714367284583667E+00   -0.558288616792621184E+01
    0.201142094378208014E+03   -0.288367446318851250E+00   -0.521780762560029032E+00    0.442905122366591020E+00   -0.552519007821801544E+01
    0.248456814499554127E+03   -0.693552579450087636E+00   -0.879606725538843115E+00    0.428113176943862972E+00   -0.553923646334839415E+01
    0.207429119392135789E+03   -0.151786131902635901E-01   -0.988899878230106388E+00    0.477436649597702600E+00   -0.564003443744255772E+01
    0.229461093767916680E+03   -0.269907766353896239E+00   -0.128099607927599513E+01    0.516604178469278641E+00   -0.558994485881940939E+01
    0.201476147105017958E+03    0.315561015933012445E+00   -0.812781355916706083E+00    0.455830511135927041E+00   -0.563827304926154760E+01
    0.239218397438526154E+03    0.221003890037536621E+00   -0.100215017795562744E+01    0.397334718704223655E+00   -0.560142337211023200E+01
    0.242783894304249287E+03   -0.145520659838296318E+00   -0.117223828921192252E+01    0.485598610569887179E+00   -0.552280077423448823E+01
    0.238381989771100081E+03   -0.380465053745191462E-01   -0.115449389746522035E+01    0.442062395071086023E+00   -0.558784610489494682E+01
    0.300647195866108689E+03   -0.396128002612610608E+00   -0.868093715383709608E+00    0.325823897179303490E+00   -0.565492995528142650E+01
    0.330762333888291039E+03   -0.350349434866269682E+00   -0.172658039713964850E+01    0.392763143912085888E+00   -0.561129145958140896E+01
    0.302561160578859131E+03    0.115833698846969924E-01   -0.127794095836219812E+01    0.334669725502854010E+00   -0.554889934167190013E+01
    0.332912355369018712E+03   -0.141226557414475540E+00   -0.138178105610652047E+01    0.335715309812551210E+00   -0.552659892286707866E+01
    0.309846692175164151E+03   -0.459334937960703682E+00   -0.159685353630057758E+01    0.454602869177277380E+00   -0.552350850899744916E+01
    0.343380160586662498E+03   -0.105073198981109339E-01   -0.140339423458651513E+01    0.308378461060885900E+00   -0.553354345459888464E+01
    0.305136031386309583E+03    0.239047007900745179E+00   -0.152470231421468316E+01    0.413134908792392008E+00   -0.562702997323770227E+01
    0.342611936447723167E+03    0.140080134638719045E+00   -0.963631082562165453E+00    0.205681930668995872E+00   -0.561435985427334572E+01
    0.324721190559314152E+03   -0.532315024151627458E+00   -0.194352826821530433E+01    0.543623439471175196E+00   -0.553924941423298378E+01
    0.305723072891045888E+03   -0.535096973027160416E-02   -0.100018257942566002E+01    0.314969710374447209E+00   -0.562587057078047614E+01
    0.329406889801248781E+03   -0.225302253230104110E-01   -0.203408586212496578E+01    0.475281698380729756E+00   -0.557770733670404173E+01
    0.279733742127563687E+03   -0.266138489030220970E+00   -0.104062970401737953E+01    0.351800859769952512E+00   -0.552303272507432652E+01
    0.266375136828687005E+03    0.258997202932385928E+00   -0.115811356228670670E+01    0.369042626406820728E+00   -0.561863484658925749E+01
    0.276581417341229098E+03    0.226428394696425617E+00   -0.171178842825184363E+01    0.549975421628589811E+00   -0.564962090074024648E+01
    0.259689693703824446E+03   -0.137748457653753542E+00   -0.128035454397425053E+01    0.496562124873605459E+00   -0.555055962439493644E+01
    0.246141577141249343E+03   -0.375977575402177244E+00   -0.153042788881647418E+01    0.555529086627233437E+00   -0.556803124693177054E+01
    0.159626676544085427E+03   -0.277922149152334708E+00   -0.215310940038722975E+00    0.541016133095627572E+00   -0.557914298631134731E+01
    0.141737106257043308E+03    0.101301156520303692E-01   -0.857793141998630659E-02    0.494553657250761780E+00   -0.553638717969553262E+01
    0.173872621686432126E+03   -0.754217314163285746E+00   -0.341899685536384723E+00    0.557926442361244890E+00   -0.564800432609942682E+01
    0.160931903152098499E+03   -0.239290648707465525E+00   -0.388683017681232812E+00    0.563691474973834872E+00   -0.553683826090936826E+01
    0.151843594770208028E+03   -0.419866505154482983E+00   -0.255381375933811050E+00    0.519061366123888313E+00   -0.557486782663615354E+01
    0.144139444117729624E+03   -0.466131918338342999E+00    0.141872922119992140E+00    0.496790056436294647E+00   -0.554255787144474255E+01
    0.131624944057480803E+03   -0.422089927437140577E+00    0.113584701708695945E+00    0.558698656416694361E+00   -0.553123166168229119E+01
    0.181684604097487068E+03    0.216849020614821697E+00    0.554355707440867818E-01    0.323351996164829625E+00   -0.563704482584034228E+01
