    0.185338222980499268E+03   -0.676647961139678955E+00   -0.215521812438964844E+01    0.783017219781875634E-01   -0.108583584485955136E+02
    0.304078564887333755E+03   -0.124200665898297258E+01   -0.325278200359593361E+01    0.326562462832323715E-02   -0.850814287176373973E+01
    0.223088037781491749E+03   -0.935957580154125113E+00   -0.415110189562386367E+01    0.453854814949113949E+00   -0.849055130000663638E+01
    0.264605693519115448E+03   -0.182689756155014038E+01   -0.356148183345794678E+01    0.208274289178848271E+00   -0.847367050958849077E+01
    0.263162410259246826E+03    0.279692411422729492E-01   -0.370931267738342285E+01    0.145159241938591005E+00   -0.836866014595764440E+01
    0.306872873036491796E+03    0.519810503373516752E+00   -0.459525347203306112E+01    0.156174453328613988E+00   -0.758384264300615119E+01
    0.260751238465309143E+03   -0.367305040359497070E+00   -0.407623350620269775E+01    0.245730302309989934E+00   -0.752216160800225975E+01
    0.187121217397165935E+03   -0.570769017299421755E-02   -0.353396181732852677E+01    0.272270750670389250E+00   -0.733476225350027100E+01
    0.195900614559650421E+03    0.452427387237548828E+00   -0.462301254272460938E+01    0.481409632945060728E+00   -0.716723201314007241E+01
    0.139952219136605464E+03    0.456050649465618463E+00   -0.361809958229440154E+01    0.410477003145492458E+00   -0.706736261491103157E+01
    0.165996097455879095E+03   -0.122515965122943205E+01   -0.464140055944239904E+01    0.168777633697507062E+00   -0.701357575740405359E+01
    0.218444449501773960E+03   -0.155902577923497154E+01   -0.403214223013513173E+01    0.387958870253990229E+00   -0.701069591318961649E+01
    0.344270161397786637E+03   -0.702316854212585939E+00   -0.481322453633045644E+01    0.259480472743494228E+00   -0.696939172746338720E+01
    0.240930046440203199E+03   -0.124351464129382094E+01   -0.448146530959204092E+01    0.429524496172459302E+00   -0.695313640112454934E+01
    0.187334976651203590E+03   -0.654811342688397913E+00   -0.335442453392402484E+01    0.233934366756961859E+00   -0.681597126033011058E+01
    0.323225636828447023E+03   -0.976825776456622386E+00   -0.382338390369617365E+01    0.203679929104687921E-01   -0.672520041727567275E+01
    0.163520477712154388E+03    0.351837217807769775E+00   -0.426153063774108887E+01    0.496765906763076803E+00   -0.668711885476645307E+01
    0.127392289042472839E+03    0.623948037624359131E+00   -0.267389774322509766E+01    0.757583840131759723E-01   -0.654809956948794269E+01
    0.271384051442146301E+03    0.377805292606353760E+00   -0.431236684322357178E+01    0.149212390422821056E+00   -0.654755954248312388E+01
    0.129094346747371048E+03   -0.187285500003051375E+01   -0.426441922081204083E+01    0.291840484894066110E+00   -0.654731702625905054E+01
    0.271686373822291841E+03   -0.155163821870658269E+01   -0.432756733947948469E+01    0.289992271230361143E+00   -0.652752524596692929E+01
    0.180685318500084293E+03   -0.439590179703581718E+00   -0.452882684998282947E+01    0.563806048691233519E+00   -0.652482845561350366E+01
    0.348737175762653351E+03   -0.111303031444549561E+01   -0.485669851303100586E+01    0.248160267162323006E+00   -0.637867276914832360E+01
    0.283694103360176086E+03   -0.183027017116546631E+01   -0.401413559913635254E+01    0.174258363604545607E+00   -0.633447328529816112E+01
    0.283932031053136825E+03   -0.143835572325744465E+01   -0.349355506546705552E+01    0.173154379659206802E-02   -0.621797199192171135E+01
    0.294525831799315824E+03   -0.487031438135782757E+00   -0.416050737921533287E+01    0.117947746978361107E+00   -0.619409785423747827E+01
    0.205529337403614846E+03   -0.128272528241367123E+01   -0.458151087615734376E+01    0.675101319518052467E-01   -0.617933725312232252E+01
    0.126064062407152633E+03   -0.177055275270244872E+01   -0.435906936058579575E+01    0.357640840925623371E+00   -0.617753682481195376E+01
    0.334943934316871889E+03   -0.128821209536815773E+01   -0.443041591172038629E+01    0.144607203661383965E+00   -0.617115975556489982E+01
    0.165684132426903062E+03   -0.140637245307606973E+01   -0.400420848760677295E+01    0.502178507627748738E+00   -0.612024768681054443E+01
    0.268294011676052662E+03   -0.193817051536053531E+01   -0.379934643906325142E+01    0.134652134475534618E+00   -0.608779030156150736E+01
    0.208978170737074379E+03   -0.109554060469677994E+01   -0.389282872189400120E+01    0.294924155720149794E+00   -0.606080597257165365E+01
    0.329455285728004242E+03   -0.994388243262045224E+00   -0.474653486558254656E+01    0.221688920298357989E+00   -0.605405067658599627E+01
    0.275918017520057106E+03   -0.158287152806447606E+01   -0.492113787191842444E+01    0.412962289757008383E+00   -0.601172954570008233E+01
    0.167172700750206644E+03   -0.137156857851266900E+01   -0.427061206898391355E+01    0.132378809456055735E+00   -0.600434519358438656E+01
    0.148182549872068506E+03    0.102185426228119880E+00   -0.272025741212456085E+01    0.983418533069679440E-01   -0.599434399920522409E+01
    0.319513991023607730E+03   -0.158602433539693988E+01   -0.392683163612968222E+01    0.349049696711759561E-01   -0.599363946512994694E+01
    0.214128409380117290E+03   -0.998273143246526384E+00   -0.423438950578986706E+01    0.366384962262397029E+00   -0.599107346143478026E+01
    0.270144455134868622E+03   -0.745544433593750000E-01   -0.472800970077514648E+01    0.286724320793151854E+00   -0.594150902868213571E+01
    0.170756072378580939E+03   -0.152232633035299747E+01   -0.477443280990631180E+01    0.279936055125272532E+00   -0.590630640778127436E+01
    0.199774614768573201E+03   -0.125630446439383370E+01   -0.413785438956225526E+01    0.390328973233565579E+00   -0.589445075567290999E+01
    0.300867979228496552E+03   -0.182217615842819214E+01   -0.495919942855834961E+01    0.367266893219947821E+00   -0.589394802631199699E+01
    0.270445841550827026E+03   -0.112787258625030518E+01   -0.493426620960235596E+01    0.400498691725730938E+00   -0.589185867010314013E+01
    0.167960320145661825E+03   -0.169406912927695052E+01   -0.313851834942660890E+01    0.234168118506635714E+00   -0.587233812078459216E+01
    0.192023491330829415E+03   -0.871176473446446886E+00   -0.347984693922654165E+01    0.202074375081191249E+00   -0.584700559035009526E+01
    0.176953397988225618E+03   -0.116642286126849015E+01   -0.271697333790395934E+01    0.329211075552694257E-01   -0.571228610876451981E+01
    0.253570892958451680E+03   -0.102911354980410308E+01   -0.417457913365495958E+01    0.211794208604587531E+00   -0.571167635543512553E+01
    0.180802437187154112E+03   -0.118769544643107627E+00   -0.472389453928117753E+01    0.535582620295515177E+00   -0.567048916480077558E+01
    0.180802437187154112E+03   -0.118769544643107627E+00   -0.472389453928117753E+01    0.535582620295515177E+00   -0.567048916480077558E+01
    0.197935070097446442E+03   -0.829560160636901855E-01   -0.466736555099487305E+01    0.462301606392860442E+00   -0.562572778668723128E+01
    0.197935070097446442E+03   -0.829560160636901855E-01   -0.466736555099487305E+01    0.462301606392860442E+00   -0.562572778668723128E+01
    0.137948311569768606E+03    0.293978232522639438E+00   -0.243120581027510685E+01    0.132869826600228954E-02   -0.560483737380258962E+01
    0.137948311569768606E+03    0.293978232522639438E+00   -0.243120581027510685E+01    0.132869826600228954E-02   -0.560483737380258962E+01
    0.165151899374757363E+03   -0.113890067912151904E+01   -0.422719545181415945E+01    0.150873186668887105E+00   -0.558636244023074902E+01
    0.306122702611723696E+03   -0.442187949687621096E+00   -0.477723484548710875E+01    0.209696848262030527E+00   -0.558428209931250041E+01
    0.196473386489399104E+03   -0.851167372220931862E+00   -0.470430703781642023E+01    0.516398976845219293E+00   -0.555791520346314361E+01
    0.167715378883546492E+03   -0.127008504901918085E+01   -0.411018965699915029E+01    0.471227984487233631E+00   -0.555306514666729978E+01
    0.163819849258667034E+03    0.125811038423412125E+00   -0.446137351428831952E+01    0.146415405303887913E+00   -0.551832408070118063E+01
    0.167218200977522912E+03   -0.190868845720690583E+01   -0.401540159270207742E+01    0.129080631628504833E+00   -0.550718535897865191E+01
    0.230880874840831041E+03   -0.126056588521008184E+01   -0.493090848089878531E+01    0.480150718190382408E+00   -0.550035641965854083E+01
    0.129397564598363857E+03   -0.150749872240928484E+01   -0.333256648044442461E+01    0.426944691467235293E+00   -0.549482281670703454E+01
    0.191590099486693930E+03    0.520867037408663691E+00   -0.383140914124952925E+01    0.879526992450541806E-01   -0.545884449998781207E+01
    0.191590099486693930E+03    0.520867037408663691E+00   -0.383140914124952925E+01    0.879526992450541806E-01   -0.545884449998781207E+01
    0.171035429527010820E+03   -0.239288191825087537E+00   -0.299917210561741721E+01    0.702698694395452461E-01   -0.545203011351945399E+01
    0.236061570551599061E+03   -0.699425351197721312E+00   -0.393111134120652927E+01    0.146822015164689262E+00   -0.544990465437569505E+01
    0.236061570551599061E+03   -0.699425351197721312E+00   -0.393111134120652927E+01    0.146822015164689262E+00   -0.544990465437569505E+01
    0.316646207869052887E+03   -0.547633171081542969E-01   -0.489956915378570557E+01    0.183913228797912609E+00   -0.544585061234077816E+01
    0.322619549688710208E+03   -0.195579059514876175E+01   -0.487377133500234372E+01    0.261372540400756692E+00   -0.543546875648276462E+01
    0.287957534602528824E+03   -0.181105193906382533E+01   -0.407205774946507226E+01    0.108265918252758622E+00   -0.543506393410054045E+01
    0.181689345582573083E+03    0.379404779615724497E+00   -0.476454994470371052E+01    0.144959305173691988E+00   -0.542772692177388194E+01
    0.143866014480590820E+03    0.283885240554809570E+00   -0.303616583347320557E+01    0.133118491959571844E+00   -0.542238550935030617E+01
    0.219454226473299741E+03   -0.338611713931956881E+00   -0.476018493736288395E+01    0.846721729741578139E-01   -0.542176665213448672E+01
    0.210538473257392866E+03   -0.111163068575493540E+01   -0.381686183832123627E+01    0.211834665530953092E+00   -0.540694585253014282E+01
    0.180178464921531940E+03   -0.576802413640272071E+00   -0.346312052470935550E+01    0.171105473997396562E+00   -0.536554337122802050E+01
    0.290115283952083416E+03   -0.168497521744367984E+01   -0.432999000291029557E+01    0.162319450985185826E+00   -0.534553717566722941E+01
    0.309133590823549980E+03   -0.100112975085955735E+00   -0.498751322072876579E+01    0.217609271439976659E+00   -0.533900361298718540E+01
    0.309133590823549980E+03   -0.100112975085955735E+00   -0.498751322072876579E+01    0.217609271439976659E+00   -0.533900361298718540E+01
    0.283344181314739558E+03    0.503099722457748033E+00   -0.487331592585603879E+01    0.117577530216094156E+00   -0.533224086153017485E+01
    0.242386488616466522E+03   -0.989528894424438477E+00   -0.484232664108276367E+01    0.883911784172058124E-01   -0.531953190764584427E+01
    0.147501613544320350E+03   -0.705040758918995092E+00   -0.250504924456447453E+01    0.369565626975483369E-01   -0.531265708350377608E+01
    0.191870618204975955E+03   -0.198232680526947624E+01   -0.367179565089995030E+01    0.255337040983243113E+00   -0.531201969328012158E+01
    0.181552598680826037E+03   -0.113089202588872273E+01   -0.384229816165025539E+01    0.297085151542270942E+00   -0.530600589633957220E+01
    0.181552598680826037E+03   -0.113089202588872273E+01   -0.384229816165025539E+01    0.297085151542270942E+00   -0.530600589633957220E+01
    0.158523011502122813E+03   -0.505176418931431837E+00   -0.376038977010070496E+01    0.339235861313822162E+00   -0.528069674287268676E+01
    0.227260571947712123E+03   -0.627856232627782562E+00   -0.479161401866688230E+01    0.100725541385298323E+00   -0.527913236397148555E+01
    0.250890952371526879E+03   -0.336388846262698493E-01   -0.431651396779525065E+01    0.158251355482318057E+00   -0.527713540544627158E+01
    0.250890952371526879E+03   -0.336388846262698493E-01   -0.431651396779525065E+01    0.158251355482318057E+00   -0.527713540544627158E+01
    0.188991889259099793E+03   -0.697222117863897095E+00   -0.383397654437237811E+01    0.248785992658004218E+00   -0.527434833217064192E+01
    0.303038146752264936E+03   -0.826508848190893763E+00   -0.462118007786551921E+01    0.163658728465907150E+00   -0.527073717956771493E+01
    0.303038146752264936E+03   -0.826508848190893763E+00   -0.462118007786551921E+01    0.163658728465907150E+00   -0.527073717956771493E+01
    0.295435276133313664E+03   -0.428204043191167782E+00   -0.445419838398082124E+01    0.115577034112001473E+00   -0.526824372707412891E+01
    0.293157873727588083E+03   -0.452150005878468875E-01   -0.431641322398000860E+01    0.553131914498521254E-01   -0.525667153786415042E+01
    0.293157873727588083E+03   -0.452150005878468875E-01   -0.431641322398000860E+01    0.553131914498521254E-01   -0.525667153786415042E+01
    0.287779953654539554E+03   -0.111298015915294179E+01   -0.430578455493314483E+01    0.124032726404225815E+00   -0.523737719744862318E+01
    0.287779953654539554E+03   -0.111298015915294179E+01   -0.430578455493314483E+01    0.124032726404225815E+00   -0.523737719744862318E+01
    0.125395930874369142E+03   -0.124184322943550818E+01   -0.232202583717613775E+01    0.109858341459497508E+00   -0.522098068572351437E+01
    0.125395930874369142E+03   -0.124184322943550818E+01   -0.232202583717613775E+01    0.109858341459497508E+00   -0.522098068572351437E+01
    0.206260798696461961E+03    0.559406915394659698E+00   -0.460544120181181516E+01    0.180682183383954309E+00   -0.521966922747496298E+01
    0.259196060172824104E+03   -0.139730768238624914E+01   -0.428345728400741965E+01    0.194761987612654258E+00   -0.521585887345157762E+01
    0.142959514969295299E+03   -0.790614262098761289E+00   -0.255872789928786171E+01    0.661865136796849496E-01   -0.521122029752108418E+01
    0.183445706728788821E+03   -0.180753008958637462E+01   -0.341744133185959242E+01    0.184357826320777407E+00   -0.520630665134456816E+01
    0.183445706728788821E+03   -0.180753008958637462E+01   -0.341744133185959242E+01    0.184357826320777407E+00   -0.520630665134456816E+01
    0.249687551218576260E+03   -0.170695603237574667E+01   -0.399070641710010321E+01    0.146386692304190796E+00   -0.518489530215681782E+01
    0.126046524636627041E+03   -0.325957888313325395E+00   -0.349333452618553641E+01    0.115028825204977730E+00   -0.517345557477826468E+01
    0.252909652888774872E+03   -0.138342577219009399E+01   -0.484692573547363281E+01    0.366536160349845874E+00   -0.516989146162145463E+01
    0.252909652888774872E+03   -0.138342577219009399E+01   -0.484692573547363281E+01    0.366536160349845874E+00   -0.516989146162145463E+01
    0.151877047433959888E+03    0.503420412439167020E+00   -0.489063614321198070E+01    0.356112440111583717E+00   -0.516677005547645241E+01
    0.154986998768120799E+03   -0.177112757589943159E+01   -0.360049996200193423E+01    0.885564641994437268E-01   -0.516559821129401531E+01
    0.154986998768120799E+03   -0.177112757589943159E+01   -0.360049996200193423E+01    0.885564641994437268E-01   -0.516559821129401531E+01
    0.136599480679901717E+03    0.497654808979209662E+00   -0.476680040854276044E+01    0.554702941617141398E+00   -0.513254107041703289E+01
    0.136599480679901717E+03    0.497654808979209662E+00   -0.476680040854276044E+01    0.554702941617141398E+00   -0.513254107041703289E+01
    0.158460737902844272E+03   -0.139377858455123405E+01   -0.280675246444485804E+01    0.859346481382644856E-01   -0.512760496518879183E+01
    0.140323888892548212E+03   -0.136751228723116802E+01   -0.340165061143260328E+01    0.817096140326424442E-01   -0.512368185624422523E+01
    0.140323888892548212E+03   -0.136751228723116802E+01   -0.340165061143260328E+01    0.817096140326424442E-01   -0.512368185624422523E+01
    0.132958574790790578E+03   -0.739730483223920210E+00   -0.287698670409875445E+01    0.195338448875521570E+00   -0.511739615829365313E+01
    0.132958574790790578E+03   -0.739730483223920210E+00   -0.287698670409875445E+01    0.195338448875521570E+00   -0.511739615829365313E+01
    0.215969626605510712E+03   -0.876720190048217773E+00   -0.346203446388244629E+01    0.476907086133956937E-01   -0.511437183870625933E+01
    0.215969626605510712E+03   -0.876720190048217773E+00   -0.346203446388244629E+01    0.476907086133956937E-01   -0.511437183870625933E+01
    0.218296304758980312E+03   -0.174075658449796089E+01   -0.446998981057988587E+01    0.365544916615834270E+00   -0.510733253221274630E+01
    0.171951235171769497E+03   -0.928532295459716384E+00   -0.403187590255609507E+01    0.364113614711974454E+00   -0.510010509376302679E+01
    0.304420355925148783E+03   -0.197831194977492042E+01   -0.479467886553863298E+01    0.236893583999164964E+00   -0.508340345627348444E+01
    0.274141419256447705E+03    0.194329387031851653E+00   -0.452912076219936210E+01    0.992208894225768689E-01   -0.507529465594323170E+01
    0.217512579376726734E+03   -0.239621264409066725E-01   -0.420955739440160315E+01    0.199798192563757027E+00   -0.507468730752289865E+01
    0.248972424480667087E+03   -0.166156617162925846E+01   -0.487039706641682635E+01    0.381845460870736675E+00   -0.506573926816706965E+01
    0.294512605667114258E+03   -0.169725441932678223E+01   -0.453371405601501465E+01    0.174372794365882877E+00   -0.505354229874262373E+01
    0.177768794977420924E+03   -0.108067176492629602E+01   -0.374374707284615349E+01    0.251897533877524948E+00   -0.505280590581465550E+01
    0.177768794977420924E+03   -0.108067176492629602E+01   -0.374374707284615349E+01    0.251897533877524948E+00   -0.505280590581465550E+01
    0.218879643670598597E+03    0.516338311681893813E+00   -0.471855282695489109E+01    0.170036580379787305E+00   -0.504396378047799665E+01
    0.218879643670598597E+03    0.516338311681893813E+00   -0.471855282695489109E+01    0.170036580379787305E+00   -0.504396378047799665E+01
    0.173024098262830051E+03    0.396575387126163026E+00   -0.402316126688090314E+01    0.221499982463194793E-01   -0.503826375374637880E+01
    0.173024098262830051E+03    0.396575387126163026E+00   -0.402316126688090314E+01    0.221499982463194793E-01   -0.503826375374637880E+01
    0.191254505515098572E+03   -0.295787155628204346E+00   -0.481784522533416748E+01    0.475945103502273592E+00   -0.503725518589090449E+01
    0.191254505515098572E+03   -0.295787155628204346E+00   -0.481784522533416748E+01    0.475945103502273592E+00   -0.503725518589090449E+01
    0.169974840552629757E+03   -0.197078009607840809E+01   -0.331172225165357936E+01    0.196532609832394484E+00   -0.503145028123337301E+01
    0.233207970895295659E+03   -0.439235303579676328E+00   -0.407130393836485904E+01    0.132344854101788978E+00   -0.502920785765764222E+01
    0.306121196872192286E+03   -0.621386615770993078E+00   -0.464555258181585007E+01    0.122649212900339394E+00   -0.502564332702437966E+01
    0.158003033987004187E+03    0.950339011744754103E-01   -0.469424558921106616E+01    0.531654238841039462E+00   -0.502379013616254255E+01
    0.158003033987004187E+03    0.950339011744754103E-01   -0.469424558921106616E+01    0.531654238841039462E+00   -0.502379013616254255E+01
    0.238975019113483597E+03   -0.187073323781378109E+01   -0.489568210877349586E+01    0.197188049174794044E+00   -0.501577000496650882E+01
    0.235941366669624415E+03   -0.108291480729516021E+01   -0.496798771084286628E+01    0.184348814472009737E+00   -0.500849280205710556E+01
    0.166217995127857080E+03   -0.102837282357448223E+01   -0.397747332854826130E+01    0.364080223448161655E+00   -0.500631562572320465E+01
    0.166217995127857080E+03   -0.102837282357448223E+01   -0.397747332854826130E+01    0.364080223448161655E+00   -0.500631562572320465E+01
    0.173190597115728195E+03    0.662641627346172157E-02   -0.492320179520790724E+01    0.543714230063240933E+00   -0.500024789818049431E+01
    0.144271090061526820E+03   -0.176774537785126484E+01   -0.347149508961589470E+01    0.123205985830041165E+00   -0.500017643631259912E+01
    0.326353015393319254E+03   -0.124905729851005542E+01   -0.476099800163630693E+01    0.141511277531559870E+00   -0.499746184896147039E+01
    0.240451991938748506E+03    0.271070466998713400E+00   -0.458224177058500537E+01    0.180285562156420526E+00   -0.499632976484995694E+01
    0.164485451832671913E+03   -0.591099338414223796E+00   -0.463368113301438900E+01    0.307556992277862318E+00   -0.499571127084510369E+01
    0.196706117379875423E+03   -0.181181409881693889E+01   -0.481381118563691679E+01    0.309460159782068978E+00   -0.499533803505680218E+01
    0.284618834641491333E+03   -0.132606008080271254E+01   -0.452111568338716641E+01    0.167580399849103806E+00   -0.498484072429777303E+01
    0.284618834641491333E+03   -0.132606008080271254E+01   -0.452111568338716641E+01    0.167580399849103806E+00   -0.498484072429777303E+01
    0.172540185115035257E+03   -0.155227837591270501E+01   -0.370158170065745251E+01    0.275482410320085302E+00   -0.498343171608449964E+01
    0.329690474271774292E+03   -0.157849246263504028E+01   -0.444755613803863525E+01    0.572208053827285776E-01   -0.497516926981280694E+01
    0.130989694595336914E+03   -0.185331016778945923E+01   -0.358378112316131592E+01    0.440022851514816293E+00   -0.496890826944699793E+01
    0.266686032835916535E+03   -0.795298509702744516E+00   -0.439862780917278595E+01    0.145695504546420301E+00   -0.496322679647877596E+01
    0.242126580543016303E+03   -0.104519344253859492E+01   -0.451078868163145863E+01    0.426175338896098432E-01   -0.496283025971575498E+01
    0.242126580543016303E+03   -0.104519344253859492E+01   -0.451078868163145863E+01    0.426175338896098432E-01   -0.496283025971575498E+01
    0.207054834473665210E+03    0.733546057335399126E-01   -0.484311873627039891E+01    0.385097615500367307E+00   -0.495274059573702985E+01
    0.207054834473665210E+03    0.733546057335399126E-01   -0.484311873627039891E+01    0.385097615500367307E+00   -0.495274059573702985E+01
    0.240830604558492496E+03    0.899943214862535257E-01   -0.482707498182548278E+01    0.638453576972016629E-01   -0.495054136535252276E+01
    0.240830604558492496E+03    0.899943214862535257E-01   -0.482707498182548278E+01    0.638453576972016629E-01   -0.495054136535252276E+01
    0.131478067311284661E+03   -0.113104608808943441E+01   -0.462654980424361639E+01    0.498905694519363896E+00   -0.494823166480697996E+01
    0.206873917237781200E+03   -0.220769707066869492E+00   -0.404043673168305073E+01    0.183855093351282306E+00   -0.494749572480114708E+01
    0.266302606463432312E+03   -0.163339066505432129E+01   -0.378051936626434326E+01    0.448971855640411394E-02   -0.493932171779358864E+01
    0.266302606463432312E+03   -0.163339066505432129E+01   -0.378051936626434326E+01    0.448971855640411394E-02   -0.493932171779358864E+01
    0.130509909057571434E+03   -0.925642844290595290E+00   -0.394413743902428937E+01    0.504972820317950100E+00   -0.493658707871115077E+01
    0.130509909057571434E+03   -0.925642844290595290E+00   -0.394413743902428937E+01    0.504972820317950100E+00   -0.493658707871115077E+01
    0.146184523625189087E+03   -0.163632627592368785E+01   -0.242449769391188008E+01    0.966880995843157585E-02   -0.493101684381414263E+01
    0.146184523625189087E+03   -0.163632627592368785E+01   -0.242449769391188008E+01    0.966880995843157585E-02   -0.493101684381414263E+01
    0.191719090921410611E+03    0.344417768468297858E+00   -0.473473137134296440E+01    0.181588748946845180E+00   -0.492848361591148887E+01
    0.255389698264307100E+03   -0.250893464770646446E+00   -0.497084144557794172E+01    0.304372121934017137E+00   -0.492768228168858791E+01
    0.288868755281726294E+03   -0.124280750372900406E+01   -0.473456050502597581E+01    0.207015279645647088E+00   -0.492591586835704831E+01
    0.288868755281726294E+03   -0.124280750372900406E+01   -0.473456050502597581E+01    0.207015279645647088E+00   -0.492591586835704831E+01
    0.180468954145908356E+03    0.490760803222656250E-01   -0.388320147991180420E+01    0.187134758377075189E+00   -0.492260082418150802E+01
    0.231507463391490433E+03   -0.106263387602248693E+01   -0.407084261577817408E+01    0.152720010716232146E+00   -0.492191219140776326E+01
    0.207475880035006725E+03   -0.730982772180708507E+00   -0.457125653633160489E+01    0.154268280575196537E+00   -0.492099814425334081E+01
    0.207475880035006725E+03   -0.730982772180708507E+00   -0.457125653633160489E+01    0.154268280575196537E+00   -0.492099814425334081E+01
    0.199129762459226555E+03   -0.988460789548315510E+00   -0.336919770032670129E+01    0.491238806516870810E-01   -0.490052036085045017E+01
    0.177065078838929310E+03   -0.110200777683453266E+01   -0.429097046359478984E+01    0.196855550396185824E+00   -0.489956709461877971E+01
    0.183036740124225616E+03   -0.177219533920288086E+01   -0.432837665081024170E+01    0.221299095940589913E+00   -0.488995018933065673E+01
    0.203892650607057618E+03   -0.651762832700570671E+00   -0.428309747278247865E+01    0.837171227557750447E-01   -0.488806790513996692E+01
    0.169694700217623335E+03   -0.985634712654866796E+00   -0.452986645499307450E+01    0.489674296096705375E+00   -0.488679039708006435E+01
    0.169694700217623335E+03   -0.985634712654866796E+00   -0.452986645499307450E+01    0.489674296096705375E+00   -0.488679039708006435E+01
    0.141477541504522492E+03   -0.157397453108735164E+01   -0.252986243093923369E+01    0.509858142883970536E-01   -0.488346948711738449E+01
    0.299249857211122674E+03   -0.154960284020917305E+01   -0.429931653586229423E+01    0.625720823761995032E-01   -0.487856048928689034E+01
    0.223618550730660303E+03   -0.146336965564485455E+01   -0.482716590750990271E+01    0.226077673386035627E+00   -0.487604399809308742E+01
    0.223618550730660303E+03   -0.146336965564485455E+01   -0.482716590750990271E+01    0.226077673386035627E+00   -0.487604399809308742E+01
    0.253119174543716724E+03   -0.162026545667793975E+01   -0.428699014402612733E+01    0.172721422369279426E+00   -0.487506377064550911E+01
    0.147975191328191073E+03   -0.880821458580220318E+00   -0.258189796822682816E+01    0.607243067091085137E-02   -0.487393647091192594E+01
    0.155363499557976837E+03   -0.117496165881233794E+01   -0.409884410747579686E+01    0.428662404119219131E+00   -0.487334340265202925E+01
    0.209995783537743819E+03   -0.875303234064436886E+00   -0.461040386809751368E+01    0.360967487310534296E+00   -0.487078528123010379E+01
    0.209995783537743819E+03   -0.875303234064436886E+00   -0.461040386809751368E+01    0.360967487310534296E+00   -0.487078528123010379E+01
    0.143508259038436222E+03   -0.692174020824477765E+00   -0.303458425860808401E+01    0.149111160992184577E+00   -0.486939009851829496E+01
    0.236870398695404276E+03   -0.161262040214399338E+01   -0.366036238069024167E+01    0.331798592242343662E-01   -0.486900047878231312E+01
    0.130606281996821309E+03   -0.197605084895631244E+01   -0.243851873299580113E+01    0.905085444497413932E-01   -0.486379657918731834E+01
    0.164806439169568762E+03   -0.145641715237795744E+01   -0.495498336995461486E+01    0.476103465413243720E+00   -0.484672691643626230E+01
    0.314579375008571219E+03   -0.151688291126372699E+01   -0.434110691417921313E+01    0.320855676657665831E-01   -0.484591624204583482E+01
    0.176577981232903767E+03    0.351229632625310373E+00   -0.355985464489161485E+01    0.424325496586905743E-01   -0.484234534036206377E+01
    0.176577981232903767E+03    0.351229632625310373E+00   -0.355985464489161485E+01    0.424325496586905743E-01   -0.484234534036206377E+01
    0.200726631528131179E+03   -0.422922929957048499E+00   -0.369691479724084449E+01    0.991476631199439268E-01   -0.484046731280014786E+01
    0.243400236300885041E+03   -0.115292597583611145E+01   -0.387863304742685600E+01    0.544574867522054501E-01   -0.483203248442914379E+01
    0.243400236300885041E+03   -0.115292597583611145E+01   -0.387863304742685600E+01    0.544574867522054501E-01   -0.483203248442914379E+01
    0.166024764022734985E+03   -0.405235382330938920E+00   -0.382386621462686005E+01    0.259380676464033011E+00   -0.483109188180818183E+01
    0.158478409123111931E+03    0.446843563301999147E+00   -0.491647020415638725E+01    0.440207237838495746E+00   -0.483039412659207823E+01
    0.128788877797168794E+03   -0.268456684251278777E+00   -0.410767559487866407E+01    0.329046196100264809E+00   -0.482630622930815623E+01
    0.165652987185491327E+03   -0.591177702472898803E+00   -0.361105222480637433E+01    0.207597324866055866E+00   -0.482224495360249694E+01
    0.171676789931398702E+03   -0.169898523132553247E+01   -0.484567567587202142E+01    0.435221404781340082E+00   -0.482182667730422487E+01
    0.140052435721147504E+03    0.305092673800528402E+00   -0.436537793612713276E+01    0.311648893750076705E+00   -0.482024935050503078E+01
    0.145095539093017578E+03    0.177076995372772217E+00   -0.307621479034423828E+01    0.687561016559600918E-01   -0.481684813119162225E+01
    0.220657192187287819E+03   -0.189507662892108941E+01   -0.377644481573178714E+01    0.113436966582524640E+00   -0.481294174421205945E+01
    0.224656551694264238E+03   -0.150690498410585283E+01   -0.427241654837250717E+01    0.229211787856776317E+00   -0.481153340945609109E+01
    0.145681710888986430E+03   -0.755417282141930269E+00   -0.325719915631341816E+01    0.196149410162229865E+00   -0.481133766457116430E+01
    0.195759734844840807E+03   -0.112030252014842624E+00   -0.359006495351393928E+01    0.600777185397532720E-01   -0.481014041144153293E+01
    0.196755392765696342E+03   -0.603723965955661024E+00   -0.362714872921759390E+01    0.958404028561377630E-01   -0.480685404154705509E+01
    0.149733228630519960E+03   -0.183252307878894727E+01   -0.308258573557012561E+01    0.247634091406620065E-01   -0.480545941232163543E+01
    0.201649205386638641E+03   -0.893678903579711914E+00   -0.368874251842498779E+01    0.109906720376014719E+00   -0.480097817375096003E+01
    0.133071084091669292E+03   -0.154857964787244162E+01   -0.418683726712739990E+01    0.413872712104165430E+00   -0.480055077607104597E+01
    0.125331199265726411E+03   -0.504261789099833102E+00   -0.351622617731239373E+01    0.195424502219915891E+00   -0.479613309497084650E+01
    0.237519131259857403E+03   -0.942517755868360840E+00   -0.449844553139951575E+01    0.229530110755727823E+00   -0.479607099906196499E+01
    0.174507457527169947E+03   -0.853769558996421596E+00   -0.369812397983258023E+01    0.200174489525817040E+00   -0.479011755986580656E+01
    0.160912050171777082E+03   -0.115653297924880771E+00   -0.330059790780734730E+01    0.100319804866414300E+00   -0.478973903164179582E+01
    0.209084528070960062E+03   -0.363906555849502489E+00   -0.371386661875742652E+01    0.629040047382484480E-01   -0.478698938652659667E+01
    0.127294160425662994E+03   -0.654143154621124268E+00   -0.470398366451263428E+01    0.547476884651184048E+00   -0.477809643472753631E+01
    0.179276540939734559E+03   -0.378262895544605016E+00   -0.348529985246904905E+01    0.870057670585490800E-01   -0.477748239499349303E+01
    0.298920778727285892E+03   -0.197861044323639423E+01   -0.436964687113658545E+01    0.773166309478707375E-01   -0.477696384335881774E+01
    0.210440618032654243E+03   -0.163816619162617716E+01   -0.375798733681763020E+01    0.125342060597983307E+00   -0.477623207673514383E+01
    0.239038515149839043E+03   -0.113906116503798782E+01   -0.475881632555961431E+01    0.303975251416835290E+00   -0.477483384370408892E+01
    0.190078088641166687E+03   -0.185428023338317871E+01   -0.395629405975341797E+01    0.126948340272903443E+00   -0.477030317487782440E+01
    0.126709567069389891E+03   -0.110674029246768280E+00   -0.306536394773352994E+01    0.190861908999115898E+00   -0.476974953278202740E+01
    0.196148485472072650E+03   -0.304031755790786118E+00   -0.485050453667654757E+01    0.274807739195903955E+00   -0.476650163510138025E+01
    0.258503262551712737E+03   -0.792496696657823296E+00   -0.484932315824914006E+01    0.116209507411405233E+00   -0.476633873222756677E+01
    0.142707564910863994E+03    0.139284533942844124E+00   -0.337864253877498699E+01    0.163044163463631847E+00   -0.476511542624031215E+01
    0.130245222247035713E+03   -0.249721709094053335E+00   -0.379584451151576818E+01    0.241061813847891715E+00   -0.476504805805362608E+01
    0.173831084566163440E+03   -0.336258468321743553E+00   -0.382859599168215770E+01    0.586786139096614201E-01   -0.476196238141354122E+01
    0.258425798640965013E+03   -0.366849275634592686E+00   -0.448485512554978349E+01    0.133924005361999110E+00   -0.476135626913978172E+01
    0.170611008790697014E+03    0.348180916390610218E+00   -0.488288010502592318E+01    0.432137549266316701E+00   -0.475925432943065196E+01
    0.289079611602758860E+03   -0.102528378633713890E+01   -0.456171316648567959E+01    0.116461567591503209E+00   -0.475847980492725142E+01
    0.130471115331602789E+03   -0.900318173814876221E+00   -0.442896963072541539E+01    0.469151811366805227E+00   -0.475699209696533387E+01
    0.178191170527327102E+03   -0.168172887901109047E+01   -0.498253210781642686E+01    0.456223861877821879E+00   -0.475627455832370849E+01
    0.296438218011702702E+03   -0.115668753386939360E+01   -0.449669041543508285E+01    0.849466097252709468E-01   -0.475600634956232060E+01
    0.243495550665373884E+03   -0.163826987100008648E+01   -0.470056489371675035E+01    0.168178125093700892E+00   -0.475461996866611258E+01
    0.237619752502556707E+03   -0.844010962386260166E+00   -0.495858012974590157E+01    0.208358584651961415E+00   -0.475424749373038757E+01
    0.163226284897997829E+03   -0.600350306869261718E+00   -0.325964461199325584E+01    0.100002180085814504E+00   -0.475349693591400690E+01
    0.158106400617133772E+03   -0.155791427342032351E+01   -0.460719263045511251E+01    0.429248991119706658E+00   -0.475349069683321801E+01
    0.280721102080316086E+03   -0.602003371253750252E+00   -0.440866974061492556E+01    0.672798054661457312E-01   -0.475031139057630192E+01
    0.169271392285771242E+03   -0.103201757342261868E+01   -0.455061633618059957E+01    0.471056055688611419E+00   -0.474970803150766940E+01
    0.200169947624122642E+03   -0.729799925878581890E+00   -0.480332103704378000E+01    0.417448173791785060E+00   -0.474903642551053284E+01
    0.214222359449709643E+03   -0.190262324169314878E+01   -0.423504478894530756E+01    0.249578253331983829E+00   -0.474442945124709858E+01
    0.172153596580028534E+03   -0.155356955528259277E+01   -0.435067772865295410E+01    0.301451361894607528E+00   -0.473860395598888839E+01
    0.144371867802729071E+03   -0.289688321655682479E+00   -0.479786797531006304E+01    0.472417960168414031E+00   -0.473713435643660663E+01
    0.159352369458171381E+03   -0.176675048722723971E+01   -0.465537099244000974E+01    0.562157407133803133E+00   -0.473577821327388104E+01
    0.131281059143441951E+03   -0.268794426457441560E-02   -0.374327252958210677E+01    0.310971634767017724E+00   -0.464027099459652526E+01
    0.141626571388464413E+03    0.652752857607361570E-01   -0.401420231922880877E+01    0.277035971672564330E+00   -0.462526542540407171E+01
    0.170338862211054902E+03   -0.357665303286353486E+00   -0.399069917159692089E+01    0.157469508872514791E+00   -0.464700082411458038E+01
    0.202226296067237854E+03    0.215430438518524170E+00   -0.421443104743957520E+01    0.113298463153839110E+00   -0.466297576171404593E+01
    0.198163717674894485E+03   -0.360623724586419447E+00   -0.389899275926240252E+01    0.592001094063421274E-01   -0.460164436358398543E+01
    0.163276581231405117E+03   -0.232766786045779384E-04   -0.410986367655987195E+01    0.279872729412320609E+00   -0.466725744172532941E+01
    0.166052255034446716E+03   -0.567778348922729492E-01   -0.351981580257415771E+01    0.938018360137939447E-02   -0.466927196304503944E+01
    0.137478603054565866E+03    0.293763254836358900E+00   -0.314661800863977925E+01    0.240840115354075054E-01   -0.468829077993597831E+01
    0.132292012195084595E+03   -0.136109822718810225E+00   -0.284222825528414758E+01    0.509501735036308884E-01   -0.462514941540515423E+01
    0.131058300119978782E+03   -0.134221574181319458E+01   -0.354597677863051786E+01    0.301716157741701185E+00   -0.463005636695396294E+01
    0.128577215676774671E+03   -0.117419578396263136E+01   -0.268469499671229661E+01    0.293884037875326298E-01   -0.463819292969782104E+01
    0.153204791302070106E+03   -0.134593786100323909E+01   -0.316441012779347997E+01    0.240178480517582067E-01   -0.472685981638050023E+01
    0.126745394348123000E+03   -0.604495968674592987E+00   -0.281923466899018793E+01    0.113171660621300560E+00   -0.465219366608301410E+01
    0.150210985373259746E+03   -0.122245718866657027E+01   -0.311131928310000250E+01    0.642677537487811590E-01   -0.462703466181994116E+01
    0.128150631035681783E+03   -0.124123100898762129E+01   -0.256240190517418576E+01    0.424561932152888663E-01   -0.463758366387537713E+01
    0.146301272064972125E+03   -0.790930441161986408E+00   -0.299392529891804182E+01    0.359430453339535660E-01   -0.460724330658318149E+01
    0.131688261553369500E+03   -0.600015170889485194E+00   -0.294667561152168700E+01    0.446282051787719042E-01   -0.464130373521586570E+01
    0.132299087492777517E+03   -0.150589256961653861E+01   -0.242231638580266262E+01    0.253165462961716971E-01   -0.472118938914951691E+01
    0.172132501006126404E+03   -0.142296546697616577E+01   -0.377731144428253174E+01    0.166311259818077095E+00   -0.464604678694603468E+01
    0.171664913943003711E+03   -0.165286414583668861E+01   -0.367877563893940884E+01    0.170108961946678405E+00   -0.464742876896151369E+01
    0.148028646162325117E+03   -0.158423386859118032E+01   -0.317007056168108248E+01    0.148713720663665672E+00   -0.467038944244642540E+01
    0.136490445557626003E+03   -0.194500053113459637E+01   -0.301483236122422626E+01    0.999412459509151085E-01   -0.472057014008489606E+01
    0.194027252434234583E+03   -0.964378504831726602E+00   -0.372279282873504513E+01    0.115010779384496345E+00   -0.467842554405855715E+01
    0.155492429013979717E+03   -0.493634837905202239E+00   -0.306127204895016103E+01    0.487901389428542220E-01   -0.468224870703096485E+01
    0.146935599736876526E+03   -0.735379995131616448E+00   -0.347157987302876947E+01    0.159792384684044581E+00   -0.460729517646207309E+01
    0.145454070912387124E+03   -0.952340482169019564E+00   -0.341911907796334669E+01    0.226611591762924003E+00   -0.470274840110678038E+01
    0.132791817434435245E+03   -0.592834293069121276E+00   -0.332137473187594567E+01    0.153621566572237661E+00   -0.463067709214618262E+01
    0.160513139133240998E+03   -0.764895505748964366E+00   -0.368697600051437835E+01    0.205924084862139867E+00   -0.463995904097165646E+01
    0.164230047615364185E+03   -0.790782912151274830E+00   -0.330077710944711589E+01    0.728940642127890448E-01   -0.462742418099601238E+01
    0.165526456727340815E+03   -0.107486317095338535E+01   -0.348184566335501344E+01    0.123496048225571739E+00   -0.462479933937792875E+01
    0.171926552658011587E+03   -0.823773547338922718E+00   -0.369144090403118819E+01    0.953362009501581564E-01   -0.464632072637569404E+01
    0.188656633295743148E+03   -0.768571661449452659E+00   -0.417188670218236002E+01    0.173018506871443545E+00   -0.462902138851734613E+01
    0.211733317857094619E+03   -0.186956577816789427E+00   -0.449125894219569766E+01    0.137840136981065259E+00   -0.467192250256077912E+01
    0.229622968985706223E+03   -0.785507622759284097E+00   -0.394035654828215165E+01    0.319230606087635913E-01   -0.462604832296978508E+01
    0.241532912783154472E+03   -0.102651499783952005E+01   -0.428733241398610510E+01    0.290041797895746085E-01   -0.471286662574557980E+01
    0.227615342065763741E+03   -0.475297543123361699E+00   -0.426204742718601537E+01    0.149753385015966772E+00   -0.471486986766195404E+01
    0.236873750734618966E+03   -0.929811347348511008E+00   -0.433860222095979431E+01    0.595210586110411013E-01   -0.467899310010949065E+01
    0.215954430986806017E+03   -0.822604655585972733E+00   -0.431928913574439388E+01    0.100159498085848356E+00   -0.472338288436057141E+01
    0.247777989730006823E+03   -0.879095850084843811E+00   -0.415807385533179374E+01    0.191895034215875393E-01   -0.460933712527110107E+01
    0.218134048527510856E+03   -0.400977912260989999E+00   -0.475871508851771985E+01    0.223413544247519608E+00   -0.463195851047107610E+01
    0.304417256034424213E+03   -0.293833075206979322E+00   -0.494145211841024423E+01    0.115642473437280083E+00   -0.464937081595475021E+01
    0.296852306994191451E+03   -0.173426553078953383E+00   -0.482858260628873825E+01    0.105417522887774548E+00   -0.467322106597326847E+01
    0.290950790984315802E+03    0.100173766598459224E-01   -0.484447811682836882E+01    0.116110324695294795E+00   -0.470882341530434534E+01
    0.284223159977450393E+03   -0.897699024595624007E+00   -0.499385493789127199E+01    0.187452072773204664E+00   -0.461440786161691996E+01
    0.318714844085884693E+03   -0.103171760407182811E+01   -0.494377741885498612E+01    0.135870328871791124E+00   -0.468566371471438625E+01
    0.290137898807010288E+03   -0.751674965544111950E+00   -0.476936067279882359E+01    0.106845504668627869E+00   -0.461220143448025421E+01
    0.293237414057608021E+03   -0.112978629169426559E+01   -0.497341313823511921E+01    0.205501159591435861E+00   -0.468126595732878492E+01
    0.298577212656030497E+03   -0.939306359753196762E+00   -0.476588435001368982E+01    0.743218129493698060E-01   -0.460848741728234046E+01
    0.215450592339038849E+03   -0.187191736698150635E+01   -0.413024246692657471E+01    0.165004893136024483E+00   -0.465677284928476354E+01
    0.225990522346668371E+03   -0.155901286182356724E+01   -0.401848203053666531E+01    0.646758192936957854E-01   -0.464930083525141491E+01
    0.194257177900122315E+03   -0.181249063429884649E+01   -0.375115044793801022E+01    0.140797569031121173E+00   -0.467166040863755150E+01
    0.219354231149278121E+03   -0.164605639284620198E+01   -0.389418901306602017E+01    0.922774718193412197E-01   -0.466209955801611642E+01
    0.226968851260606471E+03   -0.143696662483085946E+01   -0.449641587639780926E+01    0.173277120323527350E+00   -0.467103362224730212E+01
    0.250338219106197357E+03   -0.175440514087677002E+01   -0.410760939121246338E+01    0.433717491388320928E-01   -0.464627366415662202E+01
    0.205132945720991955E+03   -0.170895767809608801E+01   -0.418199863304725206E+01    0.230800915059677203E+00   -0.467398498373563775E+01
    0.233233046158071772E+03   -0.156052194025350865E+01   -0.388121830411402513E+01    0.157577214626816492E-02   -0.464695984693475772E+01
    0.241546792110548324E+03   -0.193019414599398953E+01   -0.392533497323293901E+01    0.201405527725707946E-01   -0.465670888855544707E+01
    0.221464825559777580E+03   -0.112658285831867255E+01   -0.405128874628742164E+01    0.270430450600703462E-01   -0.471673280025236075E+01
    0.228970240119949949E+03   -0.130898854125113084E+01   -0.417131152466725474E+01    0.117169182956951223E+00   -0.463608296216652693E+01
    0.231313438982989055E+03   -0.177434289850724713E+01   -0.450460912425568694E+01    0.250181419112448344E+00   -0.469704549871332766E+01
    0.236144925781680229E+03   -0.130350727263556965E+01   -0.485587082315826457E+01    0.291441102472979496E+00   -0.463336384908994159E+01
    0.294001904943629938E+03   -0.137423275529204991E+01   -0.460244311547354101E+01    0.620185116935681024E-02   -0.473514038745830845E+01
    0.277526631951332092E+03   -0.182043290138244629E+01   -0.462196946144104004E+01    0.157400706338882451E+00   -0.467814106699874266E+01
    0.257860554754734039E+03   -0.152097427845001221E+01   -0.450319945812225342E+01    0.130083688545227061E+00   -0.463291607325471766E+01
    0.308388352544782549E+03   -0.177253427550767495E+01   -0.472661276214922577E+01    0.292528112252884338E-01   -0.472688594696146858E+01
    0.281758163206550762E+03   -0.177259838016982108E+01   -0.460350900716962652E+01    0.128942824420137631E+00   -0.465601452732136956E+01
    0.313320203627763817E+03   -0.174458234954197478E+01   -0.468285525034463035E+01    0.116120665027858241E-01   -0.470737872730410345E+01
    0.259182256774184111E+03   -0.180115825882090075E+01   -0.441037346794611995E+01    0.998057415816359372E-01   -0.464968564166727827E+01
    0.278358271031880633E+03   -0.199893292723586979E+01   -0.412226864550490735E+01    0.160638404984229759E-01   -0.467581499935154277E+01
    0.185649490294469786E+03   -0.211900095801655919E+00   -0.421998582058349569E+01    0.253176189624356951E+00   -0.471696760858279163E+01
    0.186636635869558773E+03    0.108881620671820833E+00   -0.442986902190720322E+01    0.243456856080684847E+00   -0.464609435915611790E+01
    0.167380725072586188E+03   -0.101376318857062353E+01   -0.428608072103854010E+01    0.292615018433968588E+00   -0.466656712865803236E+01
    0.159982984525217830E+03   -0.191605460840354391E+01   -0.433958754033470573E+01    0.403398857083767937E+00   -0.467050593205455300E+01
    0.135673615969068635E+03   -0.113757918771145938E+01   -0.426906449606302552E+01    0.468758791480641923E+00   -0.462430419715825014E+01
    0.156272795908475757E+03   -0.178841641764224746E+01   -0.441548447168485758E+01    0.481085576102230073E+00   -0.467529101021208859E+01
    0.136272885948023003E+03   -0.178691395543696752E+01   -0.382043312227735532E+01    0.370841297919275892E+00   -0.465535120901284749E+01
    0.150780520506171143E+03   -0.182271260859313466E+01   -0.411197584436212615E+01    0.440157715486918177E+00   -0.472260509772196269E+01
    0.192439323833111700E+03   -0.149916753842142070E+01   -0.452311817436279018E+01    0.378741695130466960E+00   -0.470669511468753221E+01
    0.187281716008899195E+03   -0.171216442173344952E+01   -0.483773402723701995E+01    0.390289042088093840E+00   -0.473425829713610824E+01
    0.172630825035773086E+03   -0.144592249345244817E+01   -0.449392653440247525E+01    0.418224431254152929E+00   -0.465517512928735222E+01
    0.189876320781519667E+03   -0.173423762339432930E+01   -0.496721865500868809E+01    0.481422664635519693E+00   -0.464977865665289247E+01
    0.180199520331780775E+03   -0.199124630782427570E+01   -0.452144989730593849E+01    0.419551285571718613E+00   -0.468942811262620651E+01
    0.167171820776301502E+03   -0.109325857366949175E+01   -0.484954237351455753E+01    0.461328241167125064E+00   -0.467121488226949300E+01
    0.155649596370621168E+03   -0.163024437570028935E+01   -0.493004008523807435E+01    0.561209371060751083E+00   -0.468847605926648114E+01
    0.161371973663123896E+03   -0.119171776334278956E+01   -0.499359387211770045E+01    0.550899262873617790E+00   -0.463729303115255664E+01
    0.195364964008331299E+03   -0.124327659606933594E+01   -0.407501041889190674E+01    0.240440319013595583E+00   -0.473371658511590709E+01
    0.185536776381325041E+03   -0.138264098072054886E+01   -0.434911368963186717E+01    0.233496831219071027E+00   -0.473054782857626588E+01
    0.191918968667623517E+03   -0.128325316695519609E+01   -0.416136569180759164E+01    0.255932089281751207E+00   -0.467210805932831796E+01
    0.145852215110876841E+03   -0.108902200510640235E+01   -0.452823136014413841E+01    0.481015402801484027E+00   -0.463192450520572674E+01
    0.125086899591351354E+03   -0.117364020960396331E+01   -0.406402312503670693E+01    0.425422094000218076E+00   -0.470148042809594280E+01
    0.162590407957927084E+03   -0.124241585189732007E+01   -0.459479191145368127E+01    0.454489038427747682E+00   -0.462669870346590084E+01
    0.168960747992864441E+03   -0.160780620870289881E+01   -0.485001734016873609E+01    0.555287339778147704E+00   -0.468129638652382063E+01
    0.156612407999602681E+03   -0.198708575454862957E+01   -0.407954880871438075E+01    0.381018271719469115E+00   -0.467378351158204719E+01
    0.162680445923903619E+03   -0.181600354036543843E+01   -0.389427819036911149E+01    0.227534337194939013E+00   -0.472590809835184444E+01
    0.200937598932369383E+03   -0.971351442985193936E+00   -0.488014639228489866E+01    0.346010488769699420E+00   -0.464893949604920476E+01
    0.203251822571344263E+03   -0.886437848339597378E+00   -0.451203043272254245E+01    0.312841898286371156E+00   -0.468763347137186237E+01
    0.183209149818264393E+03   -0.827943029907908468E+00   -0.446662509300930477E+01    0.346741161243171003E+00   -0.466111198765705659E+01
    0.192323425979200010E+03   -0.786450338990961395E+00   -0.493020528711657668E+01    0.388572505419707448E+00   -0.462378579306207449E+01
    0.203025278502607051E+03   -0.536696609188469731E+00   -0.483271279359822081E+01    0.394987714613138696E+00   -0.470425678087765409E+01
    0.175366174635734978E+03   -0.574327339605740672E+00   -0.465852441483565016E+01    0.338819396542407392E+00   -0.465318908008525156E+01
    0.198345193105635985E+03   -0.143072538228897539E+00   -0.483037946388090145E+01    0.385348933646615432E+00   -0.469676412347491201E+01
    0.168288454634049401E+03   -0.328936533529833319E-01   -0.493678187765931753E+01    0.392553431849845480E+00   -0.473232466472016267E+01
    0.148616819565423469E+03   -0.493969843254441932E+00   -0.485927498333722685E+01    0.571919291501128746E+00   -0.460987052187623458E+01
    0.179766126951706326E+03   -0.159137175417090049E-01   -0.487885864382511958E+01    0.368761252559282882E+00   -0.461049330607128471E+01
    0.177819452317343774E+03    0.147939369724145564E+00   -0.432268530597458600E+01    0.264816054198729445E+00   -0.471260274917494471E+01
    0.161977667802441715E+03   -0.311548394115339633E-01   -0.442006302569468446E+01    0.323484413826325756E+00   -0.460385991820707297E+01
    0.208099107700971217E+03   -0.718860934370618043E+00   -0.457068131219696738E+01    0.278847465040549414E+00   -0.462229183530718224E+01
    0.209207054593836659E+03   -0.338995172828009839E+00   -0.467938253453271180E+01    0.247568635686509747E+00   -0.460033672565474383E+01
    0.179277120851253898E+03   -0.146795337351780741E+00   -0.451334021492607107E+01    0.324571253281793926E+00   -0.462566424736235504E+01
    0.205123047981292501E+03   -0.245945890811662071E+00   -0.449314674030565708E+01    0.224654224939204200E+00   -0.459951600086599122E+01
    0.229875622356784731E+03   -0.130587690532643319E+01   -0.493963120439751346E+01    0.365802685827338991E+00   -0.469598642539725653E+01
    0.140779221542766294E+03   -0.609510439507934487E+00   -0.420699062305419247E+01    0.357751389406955889E+00   -0.466913076106214930E+01
    0.143814155506037139E+03   -0.436792676165914884E+00   -0.448456875996834547E+01    0.503749974147778223E+00   -0.464921278784676861E+01
