    0.182083469629287720E+03    0.357845187187194824E+00   -0.315821349620819092E+01    0.456177445363998402E+00   -0.120400300520927068E+02
    0.185338222980499268E+03   -0.676647961139678955E+00   -0.215521812438964844E+01    0.783017219781875634E-01   -0.767861246887788784E+01
    0.178659011843085040E+03   -0.152943164720388403E+01   -0.307838579020434233E+01    0.398799055372333844E+00   -0.725603427290614000E+01
    0.200910773329762947E+03   -0.156754918221334361E+00   -0.278606709370388739E+01    0.153596420295944613E+00   -0.714696364253113536E+01
    0.136777392029762268E+03   -0.205115795135498047E+00   -0.474276661872863770E+01    0.224444747757911678E+00   -0.702102054004086362E+01
    0.329428006708621979E+03   -0.135392898321151733E+01   -0.328661561012268066E+01    0.195786802053451552E-01   -0.685586339285778568E+01
    0.193550288677215576E+03    0.986185014247894287E+00   -0.441762864589691162E+01    0.123734111881256104E+00   -0.680843597327486094E+01
    0.188436120748519897E+03   -0.130969166755676270E+01   -0.273754894733428955E+01    0.228670156502723709E+00   -0.677622356412956517E+01
    0.233237759112917530E+03   -0.265658489760812966E+00   -0.318130184101837576E+01    0.136488519398516306E+00   -0.656819837602242984E+01
    0.149791309237480164E+03    0.726521253585815430E+00   -0.495513737201690674E+01    0.184153792691230778E+00   -0.614405529277834717E+01
    0.128886601328849792E+03    0.861599445343017578E+00   -0.399823367595672607E+01    0.342099802207946779E+00   -0.609010936143456849E+01
    0.168759570330546836E+03    0.886741825010835427E+00   -0.376205338486184360E+01    0.470917529912721344E-01   -0.604538372755585485E+01
    0.318705512706522882E+03   -0.401499371826247842E+00   -0.384042124301901522E+01    0.830948528173543338E-01   -0.592175719889360952E+01
    0.264605693519115448E+03   -0.182689756155014038E+01   -0.356148183345794678E+01    0.208274289178848271E+00   -0.589301877439653055E+01
    0.303187798012190115E+03    0.274810183633157123E+00   -0.397494744991483984E+01    0.745537811411384199E-01   -0.587662517744320834E+01
    0.191904842015011980E+03   -0.301831918561403123E+00   -0.309401480515652239E+01    0.198301626500903161E+00   -0.580262215182808827E+01
    0.212370612618307462E+03   -0.194801664625287452E+01   -0.302027469737176668E+01    0.202643704902588789E+00   -0.572988105515566826E+01
    0.224775903966483185E+03    0.912437727706616464E-01   -0.405199971164258699E+01    0.319010164769411186E+00   -0.569320072892017404E+01
    0.194858073431225222E+03    0.720103430983114912E+00   -0.394077651951145302E+01    0.138774978246018227E+00   -0.567740031713235993E+01
    0.242506329715251923E+03   -0.593948662281036377E+00   -0.385120213031768799E+01    0.264885445404052733E+00   -0.563180929510988459E+01
    0.136835514305246562E+03   -0.177820662258869855E+01   -0.463402042926026780E+01    0.385163675500432678E+00   -0.560697432551248021E+01
    0.277058627426923294E+03    0.208222109010554490E+00   -0.400412692948891902E+01    0.133125551628224537E+00   -0.558410264803026379E+01
    0.260966975462323035E+03   -0.169238512182000367E+01   -0.361227897937945297E+01    0.202292112873161012E+00   -0.555307828920222235E+01
    0.189339573069240885E+03    0.701960651891262444E-01   -0.271092120141411419E+01    0.361125452411249423E-01   -0.554626004197465416E+01
    0.186489748954772949E+03   -0.139641284942626953E+00   -0.283049464225769043E+01    0.103895795989036560E+00   -0.554571801245571017E+01
    0.302381240528272201E+03   -0.179502609343928032E+00   -0.437731666537980413E+01    0.225708658551738328E+00   -0.553131034220646089E+01
    0.126760298767074559E+03   -0.482087549228003454E+00   -0.311640795788403935E+01    0.480681265291057258E+00   -0.550051214116796849E+01
    0.197904264926910400E+03   -0.100372135639190674E+00   -0.338347852230072021E+01    0.224641948056221008E+00   -0.546198902156030819E+01
    0.260751238465309143E+03   -0.367305040359497070E+00   -0.407623350620269775E+01    0.245730302309989934E+00   -0.540229279245422855E+01
    0.195900614559650421E+03    0.452427387237548828E+00   -0.462301254272460938E+01    0.481409632945060728E+00   -0.538562314307857548E+01
    0.336881518470642163E+03   -0.564983290246602321E+00   -0.481687680662297169E+01    0.283677002557479574E+00   -0.526848882562134690E+01
    0.226421672786040062E+03   -0.121895643693172873E+01   -0.281127647335304554E+01    0.228491391573532876E-01   -0.524843128023532124E+01
    0.158739576686117402E+03   -0.229506857015371324E+00   -0.405965709608353365E+01    0.558170152783717843E+00   -0.522079831178960596E+01
    0.340069149455397678E+03   -0.107103536971852265E+01   -0.398528110437840333E+01    0.726028867330791722E-01   -0.520575665586164060E+01
    0.177240504135962738E+03   -0.314960313315093332E+00   -0.485586985479534761E+01    0.206489936167991717E+00   -0.518001687841433167E+01
    0.127392289042472839E+03    0.623948037624359131E+00   -0.267389774322509766E+01    0.757583840131759723E-01   -0.515463000145252437E+01
    0.169001016895873732E+03    0.633024261347635786E+00   -0.346543766419669463E+01    0.873790091642362571E-01   -0.498740609224790887E+01
    0.163520477712154388E+03    0.351837217807769775E+00   -0.426153063774108887E+01    0.496765906763076803E+00   -0.496944460070409821E+01
    0.212943024467883276E+03   -0.130401741871156274E+01   -0.371937898936611955E+01    0.307034328699643755E+00   -0.496152535230022806E+01
    0.271384051442146301E+03    0.377805292606353760E+00   -0.431236684322357178E+01    0.149212390422821056E+00   -0.489948630559902476E+01
    0.135189908726231664E+03   -0.187673200424893949E+01   -0.315284066645093874E+01    0.470491433259826564E+00   -0.483932802081638691E+01
    0.162216222094758137E+03   -0.194268264388225398E+01   -0.298827664478785460E+01    0.299624412022268360E+00   -0.483427528365022585E+01
    0.242568258307296105E+03   -0.103028332973241166E+01   -0.334757113124928463E+01    0.807892566581135813E-01   -0.482016209895466297E+01
    0.220794741211072335E+03   -0.297655252263500536E+00   -0.424485811120107570E+01    0.357509119101737938E+00   -0.482005377515367162E+01
    0.260220118183527461E+03   -0.960967051460538846E+00   -0.337480666173987798E+01    0.358760095443817414E-01   -0.481579753186152804E+01
    0.168050067305733762E+03    0.567395716731140531E-01   -0.444769398296933094E+01    0.563575609254127641E+00   -0.478457419671081752E+01
    0.184273113700522799E+03   -0.763227415394863495E+00   -0.442282609138817051E+01    0.119773975531627649E+00   -0.477340772790744694E+01
    0.287419435848786918E+03   -0.101892129959524835E+01   -0.403328643121462083E+01    0.158963257204044806E+00   -0.477055714644919338E+01
    0.176820755668032859E+03    0.268910341108922868E+00   -0.448118107489897000E+01    0.802519429637698206E-01   -0.476169127017034644E+01
    0.337761052956792696E+03   -0.313594634461514588E+00   -0.421494693970501100E+01    0.525228807182920171E-01   -0.474533259508033467E+01
    0.177579687039831811E+03   -0.184668879872795011E+01   -0.312670927958953992E+01    0.252962728544030457E+00   -0.470326713167882371E+01
    0.279672696951043349E+03   -0.148386133267366049E+01   -0.461642044608053403E+01    0.355282603287871368E+00   -0.469083962624699158E+01
    0.279672696951043349E+03   -0.148386133267366049E+01   -0.461642044608053403E+01    0.355282603287871368E+00   -0.469083962624699158E+01
    0.242386488616466522E+03   -0.989528894424438477E+00   -0.484232664108276367E+01    0.883911784172058124E-01   -0.469067241097737675E+01
    0.242386488616466522E+03   -0.989528894424438477E+00   -0.484232664108276367E+01    0.883911784172058124E-01   -0.469067241097737675E+01
    0.194507103970411606E+03   -0.127066879578200531E+01   -0.464235025826604275E+01    0.200320017340949896E+00   -0.467940468458730052E+01
    0.194507103970411606E+03   -0.127066879578200531E+01   -0.464235025826604275E+01    0.200320017340949896E+00   -0.467940468458730052E+01
    0.178215472278927763E+03   -0.155075907772888577E+01   -0.435855049886284629E+01    0.184272367833417855E+00   -0.467613806797610643E+01
    0.270107041728522745E+03   -0.115315115517840727E+01   -0.489424593747390890E+01    0.457163653379148577E-01   -0.461354302786153880E+01
    0.348737175762653351E+03   -0.111303031444549561E+01   -0.485669851303100586E+01    0.248160267162323006E+00   -0.457415792487883799E+01
    0.202882206869443507E+03   -0.128621599134148035E+01   -0.410938319098791904E+01    0.314493822578190002E-01   -0.456809038433778802E+01
    0.202882206869443507E+03   -0.128621599134148035E+01   -0.410938319098791904E+01    0.314493822578190002E-01   -0.456809038433778802E+01
    0.310502591515628637E+03   -0.840182100075570482E+00   -0.484947588066039881E+01    0.297255522780435211E+00   -0.455913433314588534E+01
    0.140107167416306424E+03    0.203635675431373731E+00   -0.280571917057256526E+01    0.158431482678460051E+00   -0.454565277958114500E+01
    0.129670062788162113E+03   -0.155579599324939810E+01   -0.259709971445607835E+01    0.285689124826068841E+00   -0.451400711302404734E+01
    0.188931597880942348E+03    0.486693861691710250E+00   -0.468093333661994926E+01    0.107511257280555897E+00   -0.450312572963437763E+01
    0.221426277297172561E+03   -0.103802818497786919E+01   -0.413947924532917355E+01    0.339353454750380368E+00   -0.449679418468528969E+01
    0.283694103360176086E+03   -0.183027017116546631E+01   -0.401413559913635254E+01    0.174258363604545607E+00   -0.449676726706717744E+01
    0.257269785572124420E+03   -0.157258257252011080E+01   -0.480892814686603209E+01    0.452277626231154084E+00   -0.449108846966795383E+01
    0.152963045172606002E+03   -0.695364018678436002E+00   -0.324953452211607896E+01    0.304562885522459914E+00   -0.444805501886142185E+01
    0.285495828455153116E+03   -0.805656952327511888E+00   -0.495577696439449600E+01    0.285353894455985697E-01   -0.443871955856193789E+01
    0.247342910098205181E+03    0.182795516442561645E+00   -0.442616470433999520E+01    0.232320329233045686E+00   -0.442882925163154173E+01
    0.149207759265684331E+03   -0.137225393270746121E+00   -0.258829034122451507E+01    0.847521979222817107E-01   -0.440658538625465734E+01
    0.149207759265684331E+03   -0.137225393270746121E+00   -0.258829034122451507E+01    0.847521979222817107E-01   -0.440658538625465734E+01
    0.179632436029268376E+03   -0.765954864703863647E+00   -0.366226965840465812E+01    0.305114201083611924E+00   -0.440374701073249852E+01
    0.269217283257294298E+03   -0.877712982449176060E+00   -0.398215890438012377E+01    0.133573883735512461E+00   -0.438899369182589627E+01
    0.270144455134868622E+03   -0.745544433593750000E-01   -0.472800970077514648E+01    0.286724320793151854E+00   -0.437670042757700717E+01
    0.151615401912191004E+03    0.421086638338358910E+00   -0.429221484284044053E+01    0.467970037344940193E+00   -0.436366316770595386E+01
    0.259889251969494126E+03   -0.974239900712646545E+00   -0.374841832859532120E+01    0.935595382043242635E-01   -0.434698242048805028E+01
    0.259889251969494126E+03   -0.974239900712646545E+00   -0.374841832859532120E+01    0.935595382043242635E-01   -0.434698242048805028E+01
    0.341026376668347325E+03   -0.159021765869253917E+01   -0.494212612343060353E+01    0.279930629067435488E+00   -0.432746582366806187E+01
    0.314329322666755161E+03   -0.157976632129443240E+01   -0.477458051993205679E+01    0.277245156354832989E+00   -0.428817797491251351E+01
    0.158859365557567571E+03    0.454072420132112242E-01   -0.381175357742284326E+01    0.358595492335420263E+00   -0.428191920762890099E+01
    0.158859365557567571E+03    0.454072420132112242E-01   -0.381175357742284326E+01    0.358595492335420263E+00   -0.428191920762890099E+01
    0.270445841550827026E+03   -0.112787258625030518E+01   -0.493426620960235596E+01    0.400498691725730938E+00   -0.427367115057947089E+01
    0.134259001638429964E+03   -0.254776958458021952E+00   -0.373796180265206557E+01    0.484049367689760701E+00   -0.426057486126384077E+01
    0.187734888706758284E+03   -0.156768296024877318E+01   -0.402224540259998076E+01    0.409518586766112691E+00   -0.425424744205215255E+01
    0.187734888706758284E+03   -0.156768296024877318E+01   -0.402224540259998076E+01    0.409518586766112691E+00   -0.425424744205215255E+01
    0.300867979228496552E+03   -0.182217615842819214E+01   -0.495919942855834961E+01    0.367266893219947821E+00   -0.424894894719346006E+01
    0.300867979228496552E+03   -0.182217615842819214E+01   -0.495919942855834961E+01    0.367266893219947821E+00   -0.424894894719346006E+01
    0.183036740124225616E+03   -0.177219533920288086E+01   -0.432837665081024170E+01    0.221299095940589913E+00   -0.423031517320332728E+01
    0.183036740124225616E+03   -0.177219533920288086E+01   -0.432837665081024170E+01    0.221299095940589913E+00   -0.423031517320332728E+01
    0.206812510764857052E+03   -0.251295276779768262E+00   -0.328962124105783005E+01    0.575183349294180885E-01   -0.422993402683012931E+01
    0.135797348589717075E+03    0.249331095954651971E+00   -0.435345550371349965E+01    0.295314425564387806E+00   -0.422720892123890657E+01
    0.194345486290367091E+03   -0.128479916104818059E+01   -0.355687516523321090E+01    0.239183976678147753E+00   -0.422184419382753529E+01
    0.148255198469879929E+03   -0.107858004200739721E+01   -0.400686269246592719E+01    0.241686342985903330E+00   -0.421313281807664364E+01
    0.148255198469879929E+03   -0.107858004200739721E+01   -0.400686269246592719E+01    0.241686342985903330E+00   -0.421313281807664364E+01
    0.146786636263028356E+03    0.277072235542524137E+00   -0.322515094711494665E+01    0.190388503799913233E+00   -0.419705802007529272E+01
    0.279883702595814839E+03   -0.382578763640576192E+00   -0.451351067180078402E+01    0.203549931540886381E+00   -0.419601109580801790E+01
    0.279883702595814839E+03   -0.382578763640576192E+00   -0.451351067180078402E+01    0.203549931540886381E+00   -0.419601109580801790E+01
    0.346463679419971982E+03   -0.161817723166336958E+01   -0.460604542781569481E+01    0.163006450241884843E+00   -0.419596598046521407E+01
    0.346463679419971982E+03   -0.161817723166336958E+01   -0.460604542781569481E+01    0.163006450241884843E+00   -0.419596598046521407E+01
    0.229746666165268550E+03   -0.142801847753559263E+01   -0.477777883159152061E+01    0.192087559510579209E+00   -0.418972504942662116E+01
    0.227143561854385780E+03    0.323134778857066873E+00   -0.429484298544914278E+01    0.193126018459075510E+00   -0.417882768033330176E+01
    0.227143561854385780E+03    0.323134778857066873E+00   -0.429484298544914278E+01    0.193126018459075510E+00   -0.417882768033330176E+01
    0.165114686227408669E+03   -0.207969633009053689E+00   -0.486572482744161938E+01    0.365133197806959631E+00   -0.417499733436806242E+01
    0.150920048989901204E+03   -0.889129190290556926E+00   -0.288315570223466100E+01    0.182546247966895475E+00   -0.417135921749929839E+01
    0.150920048989901204E+03   -0.889129190290556926E+00   -0.288315570223466100E+01    0.182546247966895475E+00   -0.417135921749929839E+01
    0.217039756078595389E+03    0.534464846134940608E+00   -0.449748394796477147E+01    0.148796318251877419E+00   -0.416448947483756005E+01
    0.197935070097446442E+03   -0.829560160636901855E-01   -0.466736555099487305E+01    0.462301606392860442E+00   -0.416251562095138361E+01
    0.193766698498203652E+03   -0.173371580640480971E+00   -0.462682393841644313E+01    0.186796314027326771E+00   -0.416206159814487542E+01
    0.193766698498203652E+03   -0.173371580640480971E+00   -0.462682393841644313E+01    0.186796314027326771E+00   -0.416206159814487542E+01
    0.168528105672742981E+03    0.908470605967819367E-01   -0.395928991961259902E+01    0.339873527693542898E+00   -0.416176642911608763E+01
    0.256812623379826618E+03   -0.134649417850279485E+01   -0.473573306607430933E+01    0.376662519850367972E+00   -0.414761840848887609E+01
    0.206767900374839030E+03   -0.468460689704100819E+00   -0.341507103591977623E+01    0.950419096775856204E-01   -0.413275237933046036E+01
    0.206767900374839030E+03   -0.468460689704100819E+00   -0.341507103591977623E+01    0.950419096775856204E-01   -0.413275237933046036E+01
    0.132139698909316422E+03    0.160773819970603693E+00   -0.403589636238343630E+01    0.245447037618056696E+00   -0.412044770512489578E+01
    0.132139698909316422E+03    0.160773819970603693E+00   -0.403589636238343630E+01    0.245447037618056696E+00   -0.412044770512489578E+01
    0.201361389110865588E+03   -0.932711387840662987E+00   -0.390424712317553446E+01    0.130909886490236382E-01   -0.411585513224789423E+01
    0.143866014480590820E+03    0.283885240554809570E+00   -0.303616583347320557E+01    0.133118491959571844E+00   -0.410846280250591267E+01
    0.143866014480590820E+03    0.283885240554809570E+00   -0.303616583347320557E+01    0.133118491959571844E+00   -0.410846280250591267E+01
    0.265238043195118280E+03   -0.127415060323797569E+01   -0.410603267800906480E+01    0.163528125652337319E+00   -0.410738115516100777E+01
    0.255386685198299830E+03   -0.159539029706907765E+01   -0.459683648374080089E+01    0.928183987809072242E-01   -0.410355214067840457E+01
    0.191954359880366667E+03   -0.149651949731132028E+01   -0.389901596664977390E+01    0.786517932448982660E-01   -0.410220098757650309E+01
    0.236949186996879178E+03   -0.147391958346454843E+01   -0.446656524621344353E+01    0.353092753132748571E+00   -0.410045819126417932E+01
    0.144977147031549407E+03   -0.147205960423944071E+01   -0.300680502305979269E+01    0.266400622147466293E+00   -0.408805864332044600E+01
    0.316646207869052887E+03   -0.547633171081542969E-01   -0.489956915378570557E+01    0.183913228797912609E+00   -0.407175149342952736E+01
    0.190078088641166687E+03   -0.185428023338317871E+01   -0.395629405975341797E+01    0.126948340272903443E+00   -0.406395588838376209E+01
    0.190078088641166687E+03   -0.185428023338317871E+01   -0.395629405975341797E+01    0.126948340272903443E+00   -0.406395588838376209E+01
    0.180706557860050395E+03   -0.103307757013300594E+01   -0.356317929910075692E+01    0.239813099928132739E+00   -0.406319551127828760E+01
    0.180706557860050395E+03   -0.103307757013300594E+01   -0.356317929910075692E+01    0.239813099928132739E+00   -0.406319551127828760E+01
    0.127294160425662994E+03   -0.654143154621124268E+00   -0.470398366451263428E+01    0.547476884651184048E+00   -0.406058471528810649E+01
    0.237465404283379655E+03   -0.157889297986346966E+01   -0.327685853594915777E+01    0.101022478923336011E-01   -0.405933374818746007E+01
    0.246637417914271651E+03   -0.771969860931727148E+00   -0.392640321600249997E+01    0.127732164360173400E+00   -0.405170486560952625E+01
    0.246637417914271651E+03   -0.771969860931727148E+00   -0.392640321600249997E+01    0.127732164360173400E+00   -0.405170486560952625E+01
    0.125983104119043531E+03   -0.518471488595187768E+00   -0.320415580252581123E+01    0.359643904143694015E+00   -0.405028023743155430E+01
    0.125983104119043531E+03   -0.518471488595187768E+00   -0.320415580252581123E+01    0.359643904143694015E+00   -0.405028023743155430E+01
    0.206350390861828089E+03    0.214139167933983909E+00   -0.433713112309673399E+01    0.268714579347520688E+00   -0.403321551557640134E+01
    0.205146771157530054E+03   -0.178650884019149547E+01   -0.385859075483623659E+01    0.543457942527972721E-01   -0.402970992313945331E+01
    0.196980495695223851E+03   -0.181277118003163018E+01   -0.344613554450960979E+01    0.195253655635682866E+00   -0.402919521755466903E+01
    0.309969567566345404E+03   -0.166880946671380448E+01   -0.448192687035626047E+01    0.167951554445072121E+00   -0.402260084953148045E+01
    0.138839108689724497E+03    0.409775657889330791E+00   -0.427187364775593714E+01    0.471048424094640039E+00   -0.402204452606437002E+01
    0.254436201532009250E+03   -0.975261057962253153E+00   -0.390794132460274790E+01    0.107050208185019258E+00   -0.401866416303827290E+01
    0.172153596580028534E+03   -0.155356955528259277E+01   -0.435067772865295410E+01    0.301451361894607528E+00   -0.401718090689213359E+01
    0.227058124437952245E+03   -0.131231932619967817E+01   -0.443821108055227320E+01    0.124721839397978512E+00   -0.401610130062594983E+01
    0.194305864991595058E+03   -0.496495729246763773E+00   -0.301781764046523993E+01    0.433096640747663436E-02   -0.401574134641169600E+01
    0.172710709222315330E+03   -0.451478172055158389E+00   -0.480823539198098171E+01    0.360098563396327731E+00   -0.400850494690250869E+01
    0.172710709222315330E+03   -0.451478172055158389E+00   -0.480823539198098171E+01    0.360098563396327731E+00   -0.400850494690250869E+01
    0.239596026577821590E+03   -0.183594319818779095E+01   -0.498347094238494659E+01    0.278139354445828046E+00   -0.399221259477659540E+01
    0.279843785924171243E+03   -0.143154729388319502E+01   -0.460790986519810719E+01    0.429815672455510014E-01   -0.398769630672245823E+01
    0.132515829560817167E+03   -0.124226131744042889E+01   -0.260764435816142814E+01    0.180540768125391465E+00   -0.398618985199589737E+01
    0.132515829560817167E+03   -0.124226131744042889E+01   -0.260764435816142814E+01    0.180540768125391465E+00   -0.398618985199589737E+01
    0.218261864445599201E+03   -0.199520412418295057E+01   -0.400530341475764828E+01    0.285826586846413544E+00   -0.398045558440125236E+01
    0.218367577501407027E+03   -0.153836897344500723E+01   -0.433425314935627704E+01    0.358362179056523178E+00   -0.397999383834673059E+01
    0.171268952469771534E+03   -0.728677942742410156E+00   -0.469881451276139028E+01    0.360583770400673798E+00   -0.397839109661203860E+01
    0.228614992020358727E+03   -0.149020381781007605E+01   -0.408215437687930205E+01    0.248564465182095934E+00   -0.397654035441793630E+01
    0.228614992020358727E+03   -0.149020381781007605E+01   -0.408215437687930205E+01    0.248564465182095934E+00   -0.397654035441793630E+01
    0.180591767505508869E+03   -0.197281992960856778E+01   -0.375235981507458716E+01    0.118167210601214809E+00   -0.397153577120299239E+01
    0.180591767505508869E+03   -0.197281992960856778E+01   -0.375235981507458716E+01    0.118167210601214809E+00   -0.397153577120299239E+01
    0.170615089710393562E+03    0.188402232275167947E+00   -0.471472311689619339E+01    0.500026499085487797E+00   -0.397099295956643061E+01
    0.152334467625793621E+03   -0.334511414700422893E+00   -0.438664693312629161E+01    0.545022793818462303E+00   -0.396844950467393476E+01
    0.153781984999234112E+03   -0.129948691050562948E+00   -0.327155770070758756E+01    0.196635042993453552E+00   -0.396243626183755993E+01
    0.162711058523031056E+03    0.102415098621185141E+00   -0.294812708775544152E+01    0.307581180747647405E-01   -0.396143318535364930E+01
    0.217521136247802218E+03    0.109617376004639500E+00   -0.436322558983416364E+01    0.245964260038522647E+00   -0.396137577836607591E+01
    0.217521136247802218E+03    0.109617376004639500E+00   -0.436322558983416364E+01    0.245964260038522647E+00   -0.396137577836607591E+01
    0.246302310247020841E+03   -0.122723947797118571E+01   -0.397384039129190736E+01    0.148498287578353677E+00   -0.394604355762894876E+01
    0.246302310247020841E+03   -0.122723947797118571E+01   -0.397384039129190736E+01    0.148498287578353677E+00   -0.394604355762894876E+01
    0.195556584801352301E+03   -0.117888366829729918E+01   -0.458759876669283617E+01    0.276492826941772407E+00   -0.394304585772699445E+01
    0.195556584801352301E+03   -0.117888366829729918E+01   -0.458759876669283617E+01    0.276492826941772407E+00   -0.394304585772699445E+01
    0.137432618303156460E+03   -0.663078856519185411E+00   -0.330548203563224785E+01    0.318009793761998005E+00   -0.394295191108776244E+01
    0.131095088718920834E+03    0.461093191202020414E+00   -0.353147989303758258E+01    0.215407040629738866E+00   -0.394120904577284659E+01
    0.144148331243997092E+03   -0.885845635798070408E+00   -0.306188396731433610E+01    0.225766214883316246E+00   -0.393491810397547948E+01
    0.170230857568662458E+03   -0.161374125234919275E+01   -0.344005945269946745E+01    0.671788708801184381E-01   -0.392851928497214686E+01
    0.142345749823105223E+03   -0.579302416808908038E+00   -0.382565911136533821E+01    0.231910631729073557E+00   -0.392417265519625991E+01
    0.236418440017410092E+03   -0.842945387699887139E+00   -0.487242776100098585E+01    0.404335942163828232E+00   -0.392233368731210019E+01
    0.332805978422784392E+03   -0.151274047273455325E+01   -0.482041546042071190E+01    0.674822750760110078E-02   -0.391613208109409827E+01
    0.159217474874072423E+03   -0.443611327043059722E+00   -0.482971349156150431E+01    0.439436230455198640E+00   -0.391392482706204747E+01
    0.169688879045215003E+03   -0.510621619397964688E+00   -0.420109028091147696E+01    0.420217190155512565E+00   -0.391291313953257580E+01
    0.169688879045215003E+03   -0.510621619397964688E+00   -0.420109028091147696E+01    0.420217190155512565E+00   -0.391291313953257580E+01
    0.132054785628919888E+03   -0.758340797327563321E+00   -0.448980064734390716E+01    0.494567666127423367E+00   -0.390600043134058339E+01
    0.282166019446252960E+03   -0.118624796987467485E+01   -0.442622399641203756E+01    0.173480770315429078E+00   -0.390498731392340304E+01
    0.282166019446252960E+03   -0.118624796987467485E+01   -0.442622399641203756E+01    0.173480770315429078E+00   -0.390498731392340304E+01
    0.153746979857319417E+03   -0.715904487289490854E+00   -0.265151226123720152E+01    0.442546814821253506E-01   -0.390407181374544221E+01
    0.309506078772628143E+03   -0.544202325081584393E+00   -0.493156724254326218E+01    0.212335873187833923E+00   -0.390406896476411402E+01
    0.226666771103347543E+03   -0.155062690982728579E+01   -0.400104418258089645E+01    0.384718053980495564E-01   -0.390189889591014261E+01
    0.174500421876811998E+03    0.266335809158086523E+00   -0.409897628199357378E+01    0.109554491527783585E+00   -0.389603269750118164E+01
    0.210508510251799464E+03   -0.125158512108277353E+01   -0.313109218141009737E+01    0.380812764174050114E-02   -0.389115514399388029E+01
    0.173386705504040435E+03   -0.143308858794005012E+00   -0.368570390804575476E+01    0.221721774031031077E+00   -0.389091352472592256E+01
    0.166052255034446716E+03   -0.567778348922729492E-01   -0.351981580257415771E+01    0.938018360137939447E-02   -0.388008462579925029E+01
    0.251752818554884925E+03   -0.115699639757913708E+01   -0.470912365612346040E+01    0.324917915700801696E+00   -0.387805256521989250E+01
    0.172849360964804447E+03   -0.222671199280657373E+00   -0.487770187082019380E+01    0.389472926844885436E+00   -0.387714712527380989E+01
    0.153077798055555917E+03    0.440348311140897231E+00   -0.384801265473795517E+01    0.173004344948988198E+00   -0.387289376013867948E+01
    0.240754501754734491E+03   -0.101564958825111340E+01   -0.413219315024438139E+01    0.687913159688588721E-02   -0.387169522322121118E+01
    0.144065261349537479E+03    0.437588193462462804E+00   -0.321404974347826666E+01    0.451750307171758861E-01   -0.387080291311744462E+01
    0.242487585329184810E+03   -0.120939879853520349E+01   -0.381977466665322840E+01    0.961648413341425617E-01   -0.386857679127144394E+01
    0.241329439055716790E+03   -0.123214979580879613E+01   -0.444539066287509588E+01    0.277897673780686194E+00   -0.386466863633165669E+01
    0.136044477950673809E+03   -0.173674038643109263E+00   -0.369120493774269454E+01    0.385859321234838626E+00   -0.386126091613481970E+01
    0.202479465570303148E+03   -0.197417262232050894E+01   -0.461068768711673815E+01    0.327898811959895620E+00   -0.385941369980333349E+01
    0.222412519106935349E+03   -0.199766795588952428E+01   -0.385360574333076977E+01    0.200668563551351237E+00   -0.385611526838668883E+01
    0.252909652888774872E+03   -0.138342577219009399E+01   -0.484692573547363281E+01    0.366536160349845874E+00   -0.385526028480672700E+01
    0.200959255679967498E+03   -0.147292610278469249E+01   -0.468199133480228635E+01    0.484179882935223072E+00   -0.385219236992936986E+01
    0.202427311859980932E+03   -0.400464084614009064E+00   -0.335140684982242609E+01    0.337556991835808243E-01   -0.385084213480900717E+01
    0.274712782643666060E+03   -0.104229667287692207E+01   -0.468336918473050012E+01    0.802896391820645539E-01   -0.384902479138870302E+01
    0.159334669424163820E+03   -0.181225346414178445E+01   -0.347588566078514116E+01    0.304407655332846194E+00   -0.384711065387771001E+01
    0.173019408090903482E+03    0.100792324320153170E+00   -0.399926685438545437E+01    0.112032021146654420E+00   -0.384446480408469693E+01
    0.134120450228022463E+03   -0.183574976494706554E+01   -0.358107988145597655E+01    0.455107865132766576E+00   -0.384426794601501154E+01
    0.194908865643366028E+03   -0.111134427785371859E+01   -0.369333352698703266E+01    0.197793452626608635E+00   -0.384055446137117418E+01
    0.201380040035015298E+03    0.274536467105415127E-01   -0.344427610353080205E+01    0.200147100940131807E-01   -0.384006029527204173E+01
    0.216994914168278058E+03   -0.147161622264846437E+01   -0.355769394508596148E+01    0.103713355781310662E+00   -0.383661614230033443E+01
    0.172132501006126404E+03   -0.142296546697616577E+01   -0.377731144428253174E+01    0.166311259818077095E+00   -0.383659671926260248E+01
    0.215969626605510712E+03   -0.876720190048217773E+00   -0.346203446388244629E+01    0.476907086133956937E-01   -0.383370757302167542E+01
    0.162418711860440908E+03   -0.843522837768270195E+00   -0.478645895777315022E+01    0.461458905964761523E+00   -0.383326557088648867E+01
    0.276702407550700286E+03   -0.734062544610272427E+00   -0.460858556150171506E+01    0.193502443814548064E+00   -0.383190035273144769E+01
    0.199261922844423140E+03    0.227299437197634457E+00   -0.406018059289724143E+01    0.354525759316582784E-01   -0.383173138263074087E+01
    0.279923960608745347E+03   -0.941583893597150778E+00   -0.459068258214060254E+01    0.410771662652628516E-01   -0.383088542351569217E+01
    0.205874980092805856E+03   -0.198753842419595861E+01   -0.378864109247317860E+01    0.226489283822648185E+00   -0.382890618825862017E+01
    0.216700166854451254E+03   -0.192789421610336542E+01   -0.470958226909033240E+01    0.318890836108161879E+00   -0.381905104304485121E+01
    0.148313186985679835E+03    0.107120429177065990E+00   -0.314526181142164463E+01    0.114764735556822178E+00   -0.381856505499581633E+01
    0.174452782513073316E+03   -0.125507915369983181E+00   -0.368322319936684650E+01    0.426552799912816305E-01   -0.381543025354167442E+01
    0.191254505515098572E+03   -0.295787155628204346E+00   -0.481784522533416748E+01    0.475945103502273592E+00   -0.381512798070926795E+01
    0.156099202037759824E+03   -0.399783417288500420E+00   -0.479599376565404700E+01    0.464068513906262303E+00   -0.381336473678608634E+01
    0.170237127372206487E+03   -0.169496741578213239E+01   -0.383577081502490325E+01    0.350737212739055282E+00   -0.381163579240229922E+01
    0.285627767917303402E+03   -0.425872716621528813E+00   -0.473594806124854362E+01    0.188134629643039009E+00   -0.381039829111708839E+01
    0.287194656600104054E+03   -0.190329494696627877E+01   -0.443168888351041890E+01    0.174079385945818482E+00   -0.380821665910903784E+01
    0.199829291036388895E+03   -0.105257823342993273E+00   -0.456088658146311854E+01    0.359358275138383421E+00   -0.380789443481187506E+01
    0.288649131016745173E+03   -0.140120224608754884E+01   -0.447041314260234124E+01    0.285276393178032946E-01   -0.380558306882929553E+01
    0.173429707233910506E+03   -0.144887834856512621E+01   -0.383627589787940781E+01    0.187834758422698173E+00   -0.380506408621031600E+01
    0.295405308572990862E+03   -0.989404141283055427E+00   -0.451762375564357210E+01    0.134950318236219224E+00   -0.380496640889436710E+01
    0.125826986143019113E+03    0.979221894537514181E-01   -0.329608262493194459E+01    0.136862883587515860E+00   -0.380416585000016960E+01
    0.294512605667114258E+03   -0.169725441932678223E+01   -0.453371405601501465E+01    0.174372794365882877E+00   -0.380117458608887571E+01
    0.238194147515079180E+03   -0.106998915386870719E+01   -0.444987082121725752E+01    0.126539103993343255E+00   -0.380103317128596085E+01
    0.217787688307585313E+03   -0.368890946403761522E+00   -0.477818846353642890E+01    0.236452741862474253E+00   -0.380099148759262828E+01
    0.137362794311302594E+03   -0.142116672132978783E+01   -0.400603504967851975E+01    0.398288716675850307E+00   -0.379901451920624300E+01
    0.202371909123885814E+03    0.116327596933187838E+00   -0.420037345202129497E+01    0.811122725281420570E-01   -0.379881003736081135E+01
    0.254452225784521147E+03   -0.155922361605133997E+01   -0.392508181142368251E+01    0.915125691208546893E-01   -0.379807155259807727E+01
    0.300382459814791446E+03   -0.164928393810244112E+01   -0.443041669383218206E+01    0.125183926682668784E+00   -0.379781990466248276E+01
    0.250338219106197357E+03   -0.175440514087677002E+01   -0.410760939121246338E+01    0.433717491388320928E-01   -0.379705630028536101E+01
    0.175981080595933634E+03   -0.137871418658341782E+01   -0.459477026756317031E+01    0.393672400277910894E+00   -0.379317260837791270E+01
    0.197994298682031626E+03   -0.532871346253313893E+00   -0.346980633146960304E+01    0.760653447878718442E-01   -0.379203253334761481E+01
    0.180899054220518650E+03   -0.457918280543001543E+00   -0.337853057141489010E+01    0.720250527807422686E-01   -0.373635138999342331E+01
    0.187486712026042653E+03   -0.738793694910709009E+00   -0.357806120774622194E+01    0.853528169812234061E-01   -0.368223426643643093E+01
    0.132681504013675180E+03   -0.673797022882982155E+00   -0.323321782706544081E+01    0.230734120761046435E+00   -0.368576893130902583E+01
    0.207278631282229583E+03   -0.984530525469909046E+00   -0.357799406619352878E+01    0.225825250520931241E-02   -0.371499618902175266E+01
    0.139969950280495112E+03   -0.676418820766931717E+00   -0.329806705024815061E+01    0.134514440896889020E+00   -0.377387323041684564E+01
    0.188028994683160391E+03   -0.440504761407971124E+00   -0.337029652152445935E+01    0.350348485316241964E-01   -0.370942860611010872E+01
    0.176140960549862172E+03   -0.568122418800166784E+00   -0.366200263249680713E+01    0.118680792681426506E+00   -0.368548280558182473E+01
    0.134085380384944159E+03   -0.144863329833870846E-01   -0.393072943644378237E+01    0.404555889247702416E+00   -0.372981190810246455E+01
    0.144667460200685696E+03   -0.267910119235941435E+00   -0.405784063323296795E+01    0.423732871600105088E+00   -0.374678930431066259E+01
    0.202226296067237854E+03    0.215430438518524170E+00   -0.421443104743957520E+01    0.113298463153839110E+00   -0.374239831345791085E+01
    0.180468954145908356E+03    0.490760803222656250E-01   -0.388320147991180420E+01    0.187134758377075189E+00   -0.378441960907241448E+01
    0.191272235607425444E+03   -0.198105342662592276E+00   -0.412929763854077336E+01    0.131718587609437970E+00   -0.376827577788684032E+01
    0.145095539093017578E+03    0.177076995372772217E+00   -0.307621479034423828E+01    0.687561016559600918E-01   -0.375514717674517273E+01
    0.142198099743558316E+03    0.916624391250087101E-01   -0.309185255736804354E+01    0.353654813037892948E-02   -0.377412588603826427E+01
    0.161199165629678532E+03    0.175466970732727212E-01   -0.335594044192550989E+01    0.125702142154134694E+00   -0.378410881912937080E+01
    0.139988957565792845E+03   -0.247289487915909323E-01   -0.371877587864008463E+01    0.295038520256400039E+00   -0.369756333118648861E+01
    0.125706531018493493E+03   -0.338993093427841785E-02   -0.345857607761797814E+01    0.269871975859416191E+00   -0.368562379773985427E+01
    0.139250129096938593E+03    0.693042168621031962E-01   -0.291927251793545040E+01    0.139671718534690806E-01   -0.369961571145787493E+01
    0.163890828128989199E+03    0.137019600159467458E+00   -0.375350932417436711E+01    0.139000528634430659E+00   -0.371369434902727269E+01
    0.140782915029965551E+03   -0.360544684234102908E+00   -0.332777672021207049E+01    0.211925794582701221E+00   -0.369972494212966829E+01
    0.174400557093771198E+03   -0.100134773274767053E+00   -0.362716559775745750E+01    0.580312839459195262E-01   -0.372142978439281213E+01
    0.170043678617810826E+03   -0.862206202742403782E-01   -0.422030285459539023E+01    0.306906225060369742E+00   -0.368241062362096239E+01
    0.185228560839841236E+03    0.260512938718761689E+00   -0.411700163885314918E+01    0.161338777123649746E+00   -0.374968944513113822E+01
    0.143654074412019668E+03   -0.257816987562697442E+00   -0.402666738340507813E+01    0.396658472879643009E+00   -0.370157972182285988E+01
    0.193229352407236149E+03    0.353474892458137013E+00   -0.405946189527191237E+01    0.113419666968300151E+00   -0.378508652408649837E+01
    0.130751586001020257E+03    0.101971728849058252E+00   -0.396671021377529520E+01    0.393864743445709986E+00   -0.371284382543365510E+01
    0.156835860806463330E+03   -0.228812726894535245E+00   -0.306839914473593112E+01    0.301857901802644393E-01   -0.367870246245211119E+01
    0.195986990260335290E+03   -0.132060112199513968E+00   -0.344931741025074556E+01    0.336724844970591811E-01   -0.374781543872586509E+01
    0.203661968744663767E+03   -0.578868956478268970E-01   -0.356283118160713252E+01    0.507116055613989879E-02   -0.369648982814040528E+01
    0.130989694595336914E+03   -0.185331016778945923E+01   -0.358378112316131592E+01    0.440022851514816293E+00   -0.375269305653521013E+01
    0.130631748820971183E+03   -0.168601175975923567E+01   -0.349707942430567575E+01    0.408525873983173471E+00   -0.374991808992204634E+01
    0.131602154121085903E+03   -0.173874738158245457E+01   -0.356570012876529407E+01    0.349431904014723127E+00   -0.373261520990067819E+01
    0.138606585041755011E+03   -0.174837107727421781E+01   -0.352873966207165513E+01    0.354898517267657143E+00   -0.371541661925978195E+01
    0.138564737318445168E+03   -0.189052871471537776E+01   -0.352344771714846239E+01    0.360943661727477993E+00   -0.371933452484828120E+01
    0.132746566657702061E+03   -0.105435373207187433E+01   -0.354639281075093837E+01    0.288770512034182414E+00   -0.373025035782057746E+01
    0.197483948826134224E+03   -0.189153859312847739E+01   -0.358444606179429304E+01    0.149979053773150572E+00   -0.373051881858760037E+01
    0.170667588344720514E+03   -0.116896708310598729E+01   -0.315206067166063875E+01    0.149575356693112393E-01   -0.372641506466637562E+01
    0.128582630609418317E+03   -0.159760305993973528E+01   -0.328904662538598425E+01    0.273109772995676292E+00   -0.373526579470455777E+01
    0.126675520070341364E+03   -0.166684256631158845E+01   -0.308578286325746465E+01    0.268163690918547581E+00   -0.370540174350759699E+01
    0.143891892577925034E+03   -0.102852823340548083E+01   -0.291121550408557539E+01    0.998855278730715196E-01   -0.369085002514580296E+01
    0.128325898633959412E+03   -0.123798924520582787E+01   -0.335980984863436083E+01    0.306449654576195218E+00   -0.369354321894808724E+01
    0.195462680018228411E+03   -0.155973910953972927E+01   -0.324051292136503477E+01    0.188421882185063755E-01   -0.370389135939470648E+01
    0.152522532830814725E+03   -0.105335007936002412E+01   -0.344713999593593279E+01    0.208108175196918821E+00   -0.368855932307791257E+01
    0.158450208551605783E+03   -0.993481164800031014E+00   -0.354795400367189462E+01    0.226890392226187343E+00   -0.369760702316413870E+01
    0.142702135554459886E+03   -0.170052590250460778E+01   -0.315107423806062137E+01    0.232187140245440488E+00   -0.372563682503690741E+01
    0.185291911592672164E+03   -0.114960033616300139E+01   -0.352898557322200190E+01    0.106018947571802052E+00   -0.369335458993214871E+01
    0.257860554754734039E+03   -0.152097427845001221E+01   -0.450319945812225342E+01    0.130083688545227061E+00   -0.376862888209776692E+01
    0.221921379683828889E+03   -0.174936582524709427E+01   -0.456149328008915855E+01    0.258239558637949951E+00   -0.379030610468610352E+01
    0.266302606463432312E+03   -0.163339066505432129E+01   -0.378051936626434326E+01    0.448971855640411394E-02   -0.375632968896511210E+01
    0.215450592339038849E+03   -0.187191736698150635E+01   -0.413024246692657471E+01    0.165004893136024483E+00   -0.378335663191128369E+01
    0.232774385050884064E+03   -0.184984231089734008E+01   -0.398510248439670089E+01    0.130780429908274376E+00   -0.371407954144383634E+01
    0.216482729616636959E+03   -0.185194055445450045E+01   -0.411698806719402821E+01    0.191937459696326362E+00   -0.372019999585644534E+01
    0.192341227386877790E+03   -0.153571331271468248E+01   -0.392250098554310878E+01    0.170873906832163025E+00   -0.375123127746139540E+01
    0.279657257862961501E+03   -0.188711345761976235E+01   -0.408130489266244290E+01    0.370246659008895626E-01   -0.371564187164296511E+01
    0.265722260679465251E+03   -0.185650825690931653E+01   -0.432704765463235042E+01    0.987058458114399156E-01   -0.373192654791153666E+01
    0.246470780246011202E+03   -0.922551317354526779E+00   -0.418262851440816874E+01    0.564466116371237434E-01   -0.371007029815320077E+01
    0.238291457599718512E+03   -0.727967505232647749E+00   -0.412681940822416138E+01    0.721155954096429075E-01   -0.368313412525219253E+01
    0.253068642304148455E+03   -0.165639932852388805E+01   -0.398122586609467932E+01    0.569885259280589109E-02   -0.376481929255138903E+01
    0.235271951449368771E+03   -0.179813230846484728E+01   -0.436798668944740687E+01    0.166777654702869454E+00   -0.377636195189533375E+01
    0.275548173335586512E+03   -0.787488263830701252E+00   -0.450393924051455574E+01    0.431774632580685172E-01   -0.374235724198613573E+01
    0.268522292035750013E+03   -0.283385652893700879E+00   -0.437094986729843082E+01    0.431819132176674697E-01   -0.367713221858419548E+01
    0.329690474271774292E+03   -0.157849246263504028E+01   -0.444755613803863525E+01    0.572208053827285776E-01   -0.377539548289679505E+01
    0.333175315919607669E+03   -0.110606744610881869E+01   -0.491385801127113719E+01    0.957600316199006402E-01   -0.369183708709626446E+01
    0.305103039043930153E+03   -0.127875621287865782E+01   -0.476287520927891528E+01    0.740841607189757362E-01   -0.376145717001837054E+01
    0.349053128256420791E+03   -0.134862567301643432E+01   -0.481008104591456753E+01    0.219389665779391660E-01   -0.373956795422728927E+01
    0.321025259167635795E+03   -0.174691462353948967E+01   -0.468067156310860000E+01    0.104903920742517309E+00   -0.371048267105628238E+01
    0.348786709164647959E+03   -0.188882160305963920E+01   -0.452986619323656381E+01    0.250565772642594546E-01   -0.371676819264313396E+01
    0.277526631951332092E+03   -0.182043290138244629E+01   -0.462196946144104004E+01    0.157400706338882451E+00   -0.372299156169536527E+01
    0.250567968771839503E+03   -0.162040946829337051E+01   -0.461545200276744438E+01    0.273209374954484718E+00   -0.373115174962647922E+01
    0.267063572148206333E+03   -0.184434894673156546E+01   -0.454060524404671373E+01    0.239633725131347397E+00   -0.378874910310112645E+01
    0.306820138109322670E+03   -0.140495924484622692E+01   -0.469460061508946147E+01    0.165759784100930202E+00   -0.378073330777061400E+01
    0.265516538941301178E+03   -0.175613468683505891E+01   -0.474604795813281211E+01    0.192477702696867398E+00   -0.376896468046257827E+01
    0.167493093168668253E+03   -0.129998782138104718E+01   -0.461289971003532173E+01    0.456853141762336656E+00   -0.373728605726012564E+01
    0.159260648802044898E+03   -0.131230971883280279E+01   -0.480425243908690192E+01    0.560480258489553296E+00   -0.371248642867657530E+01
    0.190217455493304158E+03   -0.141661878557584409E+01   -0.475262732883091044E+01    0.479009607634572010E+00   -0.371231931305808427E+01
    0.188033824863103490E+03   -0.117229801486911289E+01   -0.445491404505033728E+01    0.329549973770247695E+00   -0.371307377105789982E+01
    0.135280692974604250E+03   -0.165864331309917956E+00   -0.474861912254232088E+01    0.546179318617144860E+00   -0.377247488102202633E+01
    0.165483967569332322E+03   -0.898627189493385270E+00   -0.478221279958843759E+01    0.484386697329250493E+00   -0.373797523885804006E+01
    0.148831614028312657E+03   -0.598366710792802126E+00   -0.425033470762665821E+01    0.458880378276257661E+00   -0.369997031706842039E+01
    0.175323721406568950E+03   -0.458880841867355560E+00   -0.483903815180278407E+01    0.489797737824594903E+00   -0.368334914034069261E+01
    0.165155089904095888E+03   -0.554897616311155861E+00   -0.461346499090666917E+01    0.464953172882115850E+00   -0.367877141770125871E+01
    0.176450401769869558E+03   -0.107049821479224461E+01   -0.464114596876893692E+01    0.394899697877931666E+00   -0.376197273916916552E+01
    0.140412072261852444E+03   -0.297826441655685059E+00   -0.455609373658556560E+01    0.473573679558939586E+00   -0.377207636763309662E+01
    0.174405717606783270E+03   -0.659004777075606452E+00   -0.481574330970404940E+01    0.467031839940288296E+00   -0.368866738924948745E+01
    0.196058480188035929E+03   -0.627540156911292613E+00   -0.493347473266757763E+01    0.458346535478796391E+00   -0.368549087897330230E+01
    0.189468068810927321E+03   -0.192621131649254318E+00   -0.484959499561270935E+01    0.444907564324209914E+00   -0.371330583543876713E+01
    0.145714609870389836E+03   -0.455012379566291703E+00   -0.451493863842811383E+01    0.470339970174491750E+00   -0.371598535136838404E+01
    0.175032403792279865E+03   -0.166046402171126495E+01   -0.480868539922544436E+01    0.514701962458532836E+00   -0.372122326869620146E+01
    0.205435802487985740E+03   -0.128580862330862122E+01   -0.476438304098591381E+01    0.405663520773847763E+00   -0.369500545775691380E+01
    0.178768210661712374E+03    0.189887812429303526E+00   -0.468376212685928284E+01    0.339846565528839017E+00   -0.372463835496872564E+01
    0.211851995061170044E+03   -0.935342249113701119E+00   -0.450869172024651554E+01    0.297843397531729170E+00   -0.368879282805806552E+01
    0.229033952634566219E+03   -0.547846747157521019E-01   -0.490307160480565063E+01    0.338018309384530924E+00   -0.375791263254090024E+01
    0.198929105866861846E+03   -0.235503699383691201E+00   -0.454096073691793656E+01    0.328432790446734735E+00   -0.370792716981534198E+01
    0.260079509623515037E+03   -0.295035001508057171E+00   -0.472777992770398736E+01    0.216688506364772326E+00   -0.374584514194055096E+01
    0.203272029301250711E+03   -0.725284501971937168E+00   -0.443175374408233047E+01    0.272550650615029699E+00   -0.368248535405837174E+01
    0.171379466134421108E+03    0.123457396269162967E+00   -0.493210449375434301E+01    0.417651710610217941E+00   -0.376200356124991941E+01
    0.266948348131661874E+03   -0.884195045866619012E+00   -0.498340647216695398E+01    0.284177784259274091E+00   -0.370478586517624864E+01
    0.247692718377873405E+03   -0.112011314703500142E+01   -0.484769520625595529E+01    0.316991258282969424E+00   -0.371348326009609941E+01
    0.252228522137763150E+03   -0.267288795126142453E+00   -0.488259297715584140E+01    0.281139659917204798E+00   -0.374474969222259801E+01
    0.218024821773221447E+03   -0.471304128702373815E+00   -0.447288969086306754E+01    0.231819748047287194E+00   -0.367819878823594282E+01
    0.170882672385572448E+03   -0.110067515938904470E+01   -0.412479470754358513E+01    0.307321841068893931E+00   -0.370343070465555080E+01
    0.169803496646888277E+03   -0.165076450998872293E+01   -0.434647469994457847E+01    0.439643314122206141E+00   -0.370641917892823525E+01
    0.195364964008331299E+03   -0.124327659606933594E+01   -0.407501041889190674E+01    0.240440319013595583E+00   -0.369423067213960099E+01
    0.162281789901596056E+03   -0.128115417000080511E+01   -0.409193557384507045E+01    0.322755568176671670E+00   -0.373877684367918839E+01
    0.187466762528480331E+03   -0.159852876659709753E+01   -0.441080112057189666E+01    0.341281233954172647E+00   -0.372685212497980123E+01
    0.159852117445568012E+03   -0.188759065507268287E+01   -0.407577339886170709E+01    0.449068672355333320E+00   -0.375796440067852044E+01
    0.172118800453468225E+03   -0.154425231697903964E+01   -0.410330934819494431E+01    0.300830249029779728E+00   -0.374721658456190854E+01
    0.162731696883494294E+03   -0.138239454708408038E+01   -0.395794903463969616E+01    0.269959363466398816E+00   -0.378574647937113529E+01
    0.169765084132830907E+03   -0.154944214061102370E+01   -0.384652980619816276E+01    0.321937896752853225E+00   -0.374136194696110147E+01
    0.152090649301106225E+03   -0.153033863964755468E+01   -0.417961561043584595E+01    0.467729015779714374E+00   -0.370868536328651288E+01
    0.203589118886300298E+03    0.138335110490445778E+00   -0.439804674717318811E+01    0.247907788393299217E+00   -0.378132162711022346E+01
    0.227935955269579267E+03   -0.754654978183444403E-01   -0.439465134813115821E+01    0.164382041625320663E+00   -0.369036853585755509E+01
    0.164872615135222276E+03    0.145669654518199909E+00   -0.453213857860886460E+01    0.381532567980586435E+00   -0.371357019822317058E+01
    0.185557170442343477E+03    0.104938383071674579E+00   -0.494116122726228824E+01    0.415361209190978853E+00   -0.370431247594111479E+01
