    0.272373732924461365E+03   -0.105665349960327148E+01   -0.406279981136322021E+01    0.367819156408309922E+00   -0.820838255700988739E+01
    0.274357215917335338E+03   -0.229054032205931790E+00   -0.452818458869987683E+01    0.392514762656544780E+00   -0.743225676744408936E+01
    0.297053810954093933E+03   -0.976055979728698730E+00   -0.398179113864898682E+01    0.239467282247543350E+00   -0.734481628974385536E+01
    0.289457012162790420E+03   -0.143769349952260783E+01   -0.358377822611789254E+01    0.148866443981296254E+00   -0.682504799122069006E+01
    0.176959746688119822E+03   -0.639705213742159273E+00   -0.379467698620652882E+01    0.473125780234616322E+00   -0.669728050237615680E+01
    0.348752705752849579E+03   -0.944387853145599365E+00   -0.414302945137023926E+01    0.134828846311569217E+00   -0.654352386885162574E+01
    0.242506329715251923E+03   -0.593948662281036377E+00   -0.385120213031768799E+01    0.264885445404052733E+00   -0.650933853238595184E+01
    0.186489748954772949E+03   -0.139641284942626953E+00   -0.283049464225769043E+01    0.103895795989036560E+00   -0.649684111732920755E+01
    0.133125086874828440E+03    0.577963519019272898E+00   -0.271578708894968912E+01    0.110328130256560103E+00   -0.646194847471218381E+01
    0.308122388902889327E+03   -0.105692642892876920E+01   -0.488876694906518505E+01    0.415318814233568867E+00   -0.638049304277806062E+01
    0.260751238465309143E+03   -0.367305040359497070E+00   -0.407623350620269775E+01    0.245730302309989934E+00   -0.627387183112642344E+01
    0.302646444056404334E+03   -0.639308777727325417E+00   -0.371613587494456876E+01    0.619738426148404783E-01   -0.624787480538271822E+01
    0.181979333646115634E+03   -0.151479380829374488E+01   -0.304910399405477062E+01    0.264790815192968154E+00   -0.621860413394818146E+01
    0.329943028517399000E+03   -0.986609501229743113E+00   -0.474001273154125702E+01    0.289121006227649691E+00   -0.580780533718534997E+01
    0.199515182948691830E+03   -0.199272300058622864E+01   -0.413063708628915371E+01    0.500346505259773200E+00   -0.537799703212872160E+01
    0.282461078058655517E+03    0.101868334493544044E+00   -0.394445716048592399E+01    0.336856094689722205E-01   -0.528373874450198233E+01
    0.197726734143536703E+03   -0.313347148703045253E+00   -0.442020953037045317E+01    0.457333358841315818E+00   -0.515412442647497837E+01
    0.294246627720081278E+03   -0.109713810024681990E+01   -0.372822352840898663E+01    0.473436076015851873E-01   -0.515095773778690535E+01
    0.348737175762653351E+03   -0.111303031444549561E+01   -0.485669851303100586E+01    0.248160267162323006E+00   -0.506704544908790222E+01
    0.175824737795794050E+03   -0.113680635139415265E+01   -0.387785082824949878E+01    0.428338869292787749E+00   -0.505833614669920806E+01
    0.238206924626206074E+03   -0.669777376523994494E+00   -0.372625976448279239E+01    0.126942802334348487E+00   -0.480064684490702387E+01
    0.337715627618120720E+03    0.303325189346695723E+00   -0.475665561414696292E+01    0.639179999955069300E-01   -0.473673679393433744E+01
    0.254637579879843400E+03   -0.198282508069126218E+01   -0.317041759402002121E+01    0.536863879295506555E-02   -0.473472431392671034E+01
    0.156440660482012873E+03    0.384805481897221746E+00   -0.371840823254519659E+01    0.267233295304234342E+00   -0.470300952878417888E+01
    0.270445841550827026E+03   -0.112787258625030518E+01   -0.493426620960235596E+01    0.400498691725730938E+00   -0.462695645211235895E+01
    0.197935070097446442E+03   -0.829560160636901855E-01   -0.466736555099487305E+01    0.462301606392860442E+00   -0.459905870409448525E+01
    0.143866014480590820E+03    0.283885240554809570E+00   -0.303616583347320557E+01    0.133118491959571844E+00   -0.455860535811283096E+01
    0.189452434277914989E+03    0.221654806250401126E+00   -0.410224351493986017E+01    0.263688039148148645E+00   -0.454079295114266657E+01
    0.183288646894263763E+03   -0.121310838862329295E+01   -0.371688820564346667E+01    0.307699972533215627E+00   -0.452041964852531208E+01
    0.290199288471391128E+03   -0.895037336983265153E+00   -0.447465238123764308E+01    0.202493720942727856E+00   -0.450744762499845031E+01
    0.300867979228496552E+03   -0.182217615842819214E+01   -0.495919942855834961E+01    0.367266893219947821E+00   -0.449682038645273963E+01
    0.236100222841175423E+03   -0.179897937397688867E+01   -0.412701775230101564E+01    0.294170252082630368E+00   -0.447632442025918831E+01
    0.305397100995324422E+03   -0.138847469830852233E+01   -0.396125639735617963E+01    0.445393128737522764E-01   -0.445907896186486141E+01
    0.156008723015676253E+03    0.516542135162622262E+00   -0.326873269307870373E+01    0.407859554973476618E-01   -0.444938448324105895E+01
    0.316646207869052887E+03   -0.547633171081542969E-01   -0.489956915378570557E+01    0.183913228797912609E+00   -0.444647371351632970E+01
    0.175728950349138245E+03   -0.165567519776482319E+01   -0.289073858878780232E+01    0.121957707483356298E+00   -0.442122064849398200E+01
    0.166430100396340151E+03   -0.130331487450028050E+01   -0.377314070116276001E+01    0.394891209945717525E+00   -0.437578316460808381E+01
    0.227943515747050640E+03   -0.123462168363538849E+01   -0.385674555411718245E+01    0.198310759743294263E+00   -0.437318835675105078E+01
    0.342523168099695908E+03   -0.118760431993237692E+01   -0.443620574095956854E+01    0.876457651214487959E-01   -0.436355078406445429E+01
    0.213863573360689287E+03   -0.816491429397989243E+00   -0.478427864103018230E+01    0.478217138871866454E+00   -0.433395609912590807E+01
    0.204896853277434786E+03    0.619143317093884704E+00   -0.440762694202129257E+01    0.102441205635464466E+00   -0.432594316320552608E+01
    0.279556143176289311E+03   -0.117922592991652264E+01   -0.444835416430063280E+01    0.216902660144056680E+00   -0.431026002196336400E+01
    0.246833668431012654E+03   -0.164477744095881873E+01   -0.437010783131616165E+01    0.311248734878533995E+00   -0.430535535584042783E+01
    0.311560545873695219E+03   -0.139636975223623505E+01   -0.411587536202450455E+01    0.597550614925627041E-01   -0.429406766999964251E+01
    0.203099752175045808E+03   -0.885442008124582181E+00   -0.452726411823884867E+01    0.439498610132825041E+00   -0.427862712629309438E+01
    0.307949783204566529E+03   -0.171274830727803140E+00   -0.499807858970323071E+01    0.225145632265390527E+00   -0.426590516709436152E+01
    0.172400890579957917E+03   -0.168620152520162070E+01   -0.336840607921812385E+01    0.263596074359374655E+00   -0.424776910816693665E+01
    0.132914974155075726E+03   -0.654220015233532681E+00   -0.249488411971519453E+01    0.106988111513186532E+00   -0.417106393384355467E+01
    0.218503945075824078E+03   -0.526562968900345707E+00   -0.401171041651391747E+01    0.201864131004286296E+00   -0.414694277233431219E+01
    0.217685920181155979E+03   -0.348514056154900498E+00   -0.497693526330730585E+01    0.463398357749945311E+00   -0.410845437934921343E+01
    0.157882557951435331E+03   -0.178401236139276476E+01   -0.344430735679478017E+01    0.336354307346375558E+00   -0.410557767086523029E+01
    0.156461494114850723E+03   -0.143612147997598472E+01   -0.387581472839389862E+01    0.429896222216427426E+00   -0.394908881871771023E+01
    0.183204265296828140E+03   -0.517982737500201296E+00   -0.451558688865874558E+01    0.431130743401339056E+00   -0.393191198528279440E+01
    0.174162380042081850E+03   -0.676148355401499979E+00   -0.335626239680504890E+01    0.149534500607755638E+00   -0.393130031865536900E+01
    0.263109514349012557E+03   -0.173358429748909071E+01   -0.386572054430124412E+01    0.876700770087222164E-01   -0.391886577284181925E+01
    0.229633311789274956E+03   -0.113975107838075163E+01   -0.386004940445111977E+01    0.141577738436301059E+00   -0.391572614811341424E+01
    0.129467025154950619E+03   -0.166046161473519938E+01   -0.445224756931447008E+01    0.230980892239921076E+00   -0.390940651878666134E+01
    0.129467025154950619E+03   -0.166046161473519938E+01   -0.445224756931447008E+01    0.230980892239921076E+00   -0.390940651878666134E+01
    0.191254505515098572E+03   -0.295787155628204346E+00   -0.481784522533416748E+01    0.475945103502273592E+00   -0.389044121633769313E+01
    0.163816983016279323E+03   -0.989156803250801353E+00   -0.458995416800952416E+01    0.674566938207858124E-01   -0.388358195759154246E+01
    0.215969626605510712E+03   -0.876720190048217773E+00   -0.346203446388244629E+01    0.476907086133956937E-01   -0.386281446294630770E+01
    0.344193486316124563E+03   -0.148669454290473912E+01   -0.437204393933271085E+01    0.363584522980718583E-01   -0.385797248295924078E+01
    0.258609203277180825E+03   -0.133240347741617704E+01   -0.391030687399471200E+01    0.812423681994857844E-01   -0.385485988039075789E+01
    0.252909652888774872E+03   -0.138342577219009399E+01   -0.484692573547363281E+01    0.366536160349845874E+00   -0.384515576028503236E+01
    0.252909652888774872E+03   -0.138342577219009399E+01   -0.484692573547363281E+01    0.366536160349845874E+00   -0.384515576028503236E+01
    0.180468954145908356E+03    0.490760803222656250E-01   -0.388320147991180420E+01    0.187134758377075189E+00   -0.383987169437742226E+01
    0.223416226338884883E+03   -0.173155382103663857E+01   -0.364016861018404514E+01    0.125713631046663554E+00   -0.381450782234969088E+01
    0.149791309237480164E+03    0.726521253585815430E+00   -0.495513737201690674E+01    0.184153792691230778E+00   -0.376329284232544126E+01
    0.325535269772458946E+03   -0.604709261234863904E+00   -0.440455855704211086E+01    0.840210090756135855E-02   -0.376033117923485793E+01
    0.161844977288553423E+03   -0.179668891381481677E+01   -0.332677962856132181E+01    0.247260827619103091E+00   -0.374977388951137147E+01
    0.241183444478626456E+03   -0.587619444628847853E+00   -0.459077947458074309E+01    0.258569446267284619E+00   -0.374358786479323769E+01
    0.158179751505192826E+03   -0.496682159489163499E+00   -0.290100323172855123E+01    0.458872843720547416E-01   -0.373084282843749637E+01
    0.318768099107388991E+03   -0.108606783639541304E+01   -0.474278653805307382E+01    0.143848769152247702E+00   -0.371511536144725918E+01
    0.140026645905030080E+03   -0.178377083539939862E+01   -0.455043622025956473E+01    0.236817429358918807E+00   -0.371259795723898467E+01
    0.282360365661549849E+03   -0.427084242753416721E+00   -0.422043909555273533E+01    0.292595403183014413E-01   -0.369621144552695569E+01
    0.145095539093017578E+03    0.177076995372772217E+00   -0.307621479034423828E+01    0.687561016559600918E-01   -0.369618425011034812E+01
    0.318213348269157621E+03   -0.886634108991987357E+00   -0.463612312084208789E+01    0.981109784315589428E-01   -0.368985393317813504E+01
    0.294512605667114258E+03   -0.169725441932678223E+01   -0.453371405601501465E+01    0.174372794365882877E+00   -0.367056936321958993E+01
    0.181786884863828504E+03   -0.603503564119070912E+00   -0.446886638203277542E+01    0.397475038683162751E+00   -0.365688551853602117E+01
    0.232329663159116762E+03   -0.194346027404409183E+01   -0.414890557122625125E+01    0.234616770079923209E+00   -0.365476911528163129E+01
    0.148350886781138058E+03   -0.131287759675094540E+01   -0.407058569842434270E+01    0.481591494712396373E+00   -0.365320888885883566E+01
    0.141916411818182695E+03   -0.180760322175745203E+01   -0.459203456201428395E+01    0.251209261399757078E+00   -0.363474508003049745E+01
    0.189472562922639668E+03   -0.169433869531514825E+01   -0.405839375106110545E+01    0.328386226994813624E+00   -0.362893277287991323E+01
    0.329690474271774292E+03   -0.157849246263504028E+01   -0.444755613803863525E+01    0.572208053827285776E-01   -0.361273361526787706E+01
    0.175009411954201539E+03   -0.207274176293251511E+00   -0.324379167113408684E+01    0.340460532362514834E-01   -0.359305508252625927E+01
    0.175009411954201539E+03   -0.207274176293251511E+00   -0.324379167113408684E+01    0.340460532362514834E-01   -0.359305508252625927E+01
    0.220213904270188806E+03   -0.493838386630071957E+00   -0.447064306416610258E+01    0.263185475481400977E+00   -0.359063929526893011E+01
    0.220213904270188806E+03   -0.493838386630071957E+00   -0.447064306416610258E+01    0.263185475481400977E+00   -0.359063929526893011E+01
    0.287714316659816177E+03   -0.139792411054592325E+01   -0.436140529407778743E+01    0.111847262590110366E+00   -0.357371164480285408E+01
    0.247419100875623542E+03   -0.281929298247189486E+00   -0.476761962165923148E+01    0.246270949493892333E+00   -0.356273528446897192E+01
    0.185049875135386770E+03   -0.191634499318416118E+01   -0.368340202610152545E+01    0.232405574614721722E+00   -0.354718814444451702E+01
    0.266302606463432312E+03   -0.163339066505432129E+01   -0.378051936626434326E+01    0.448971855640411394E-02   -0.354665142938672018E+01
    0.266302606463432312E+03   -0.163339066505432129E+01   -0.378051936626434326E+01    0.448971855640411394E-02   -0.354665142938672018E+01
    0.186279930338034177E+03   -0.186849113476108553E+00   -0.483445695283829302E+01    0.440530216805683994E+00   -0.354003117226936315E+01
    0.208938932414805748E+03   -0.191607707624671986E+01   -0.321075993161388906E+01    0.174716657760780880E-01   -0.348834281943795999E+01
    0.191955004632472992E+03   -0.723237395286560059E+00   -0.477451205253601074E+01    0.439664206266403221E-01   -0.348248168337267661E+01
    0.296755885129369460E+03   -0.725619984374100468E+00   -0.449849411043129166E+01    0.684911296699392963E-01   -0.346414101515824058E+01
    0.201649205386638641E+03   -0.893678903579711914E+00   -0.368874251842498779E+01    0.109906720376014719E+00   -0.346010654701282405E+01
    0.201649205386638641E+03   -0.893678903579711914E+00   -0.368874251842498779E+01    0.109906720376014719E+00   -0.346010654701282405E+01
    0.136777392029762268E+03   -0.205115795135498047E+00   -0.474276661872863770E+01    0.224444747757911678E+00   -0.345733594486780937E+01
    0.186089611399529673E+03   -0.780615672076722333E+00   -0.489698286966944707E+01    0.493891133916886715E+00   -0.345032198126600465E+01
    0.186089611399529673E+03   -0.780615672076722333E+00   -0.489698286966944707E+01    0.493891133916886715E+00   -0.345032198126600465E+01
    0.221237029059409451E+03   -0.182096794119015182E+01   -0.409507155209152351E+01    0.221268780072473525E+00   -0.344338590937010292E+01
    0.221237029059409451E+03   -0.182096794119015182E+01   -0.409507155209152351E+01    0.221268780072473525E+00   -0.344338590937010292E+01
    0.204159524398071682E+03   -0.112957185638595359E+00   -0.463834781644363581E+01    0.310746351451196279E+00   -0.343683755364308219E+01
    0.204159524398071682E+03   -0.112957185638595359E+00   -0.463834781644363581E+01    0.310746351451196279E+00   -0.343683755364308219E+01
    0.194976732682986380E+03   -0.150494214210620214E+01   -0.380086810946786313E+01    0.201435845232303179E+00   -0.343386367089687106E+01
    0.269809860446692824E+03   -0.168330960136794539E+01   -0.465520707807468614E+01    0.229145602812503735E+00   -0.342256608791862682E+01
    0.197979439480582869E+03   -0.124232635601631247E+01   -0.441291138039006903E+01    0.345775517710663449E+00   -0.339363794294301213E+01
    0.197979439480582869E+03   -0.124232635601631247E+01   -0.441291138039006903E+01    0.345775517710663449E+00   -0.339363794294301213E+01
    0.183722737560738523E+03   -0.109417253146854065E+01   -0.335444768758234257E+01    0.672442964981795760E-01   -0.339228441545078852E+01
    0.183722737560738523E+03   -0.109417253146854065E+01   -0.335444768758234257E+01    0.672442964981795760E-01   -0.339228441545078852E+01
    0.135839248286418439E+03    0.476066609263985807E+00   -0.461579885202350937E+01    0.123042494548552164E+00   -0.334719649248987672E+01
    0.135839248286418439E+03    0.476066609263985807E+00   -0.461579885202350937E+01    0.123042494548552164E+00   -0.334719649248987672E+01
    0.301722261555945920E+03   -0.188727891364431311E+01   -0.470489343741356247E+01    0.168029027351716348E+00   -0.334103845593236581E+01
    0.127696777703614046E+03   -0.164970140438519253E+01   -0.436926125065178628E+01    0.292933506703059288E+00   -0.332783469004430721E+01
    0.127696777703614046E+03   -0.164970140438519253E+01   -0.436926125065178628E+01    0.292933506703059288E+00   -0.332783469004430721E+01
    0.269716936740224526E+03   -0.132942367715384568E+01   -0.456042425053411904E+01    0.166437906412281539E+00   -0.332697905238300340E+01
    0.245416184131051011E+03   -0.125746863225354377E+01   -0.415473464955315830E+01    0.112373031479379451E+00   -0.331566859643454270E+01
    0.184212842474999263E+03   -0.160277204148603847E+01   -0.355804638035626208E+01    0.144430639645952680E+00   -0.330746671959351568E+01
    0.207928213609874035E+03   -0.174948900383782169E+01   -0.498406987925617706E+01    0.151990595131134693E+00   -0.330527063777113916E+01
    0.207928213609874035E+03   -0.174948900383782169E+01   -0.498406987925617706E+01    0.151990595131134693E+00   -0.330527063777113916E+01
    0.136641336977481842E+03   -0.141770511865615845E+01   -0.449564039707183838E+01    0.270639770579338079E+00   -0.330258661863232872E+01
    0.130142144484485499E+03    0.598239623114669161E+00   -0.409407439281887520E+01    0.112486703317936559E+00   -0.330187482037136570E+01
    0.190117648387497127E+03   -0.186453556981708513E+00   -0.452629307822576443E+01    0.306949976002172720E+00   -0.329532218310008362E+01
    0.202226296067237854E+03    0.215430438518524170E+00   -0.421443104743957520E+01    0.113298463153839110E+00   -0.329386405208309085E+01
    0.202226296067237854E+03    0.215430438518524170E+00   -0.421443104743957520E+01    0.113298463153839110E+00   -0.329386405208309085E+01
    0.145506187107638794E+03   -0.139363938839119794E+01   -0.470056893099629036E+01    0.288205919028145574E+00   -0.328870910673255601E+01
    0.293782148803374469E+03   -0.161523477107066826E+01   -0.456899540747704780E+01    0.126080390557135075E+00   -0.327248141121953129E+01
    0.293782148803374469E+03   -0.161523477107066826E+01   -0.456899540747704780E+01    0.126080390557135075E+00   -0.327248141121953129E+01
    0.153058670630521078E+03    0.252083407893668010E+00   -0.328685863520320165E+01    0.161484769541753760E-01   -0.327237824145131473E+01
    0.153058670630521078E+03    0.252083407893668010E+00   -0.328685863520320165E+01    0.161484769541753760E-01   -0.327237824145131473E+01
    0.203311602137187435E+03   -0.137790559605397456E+01   -0.444000020148074093E+01    0.323705938365403567E+00   -0.326622485795196571E+01
    0.311008482075966526E+03   -0.956828236085148109E+00   -0.490311064532649166E+01    0.129600945599256251E+00   -0.325049575289808512E+01
    0.311008482075966526E+03   -0.956828236085148109E+00   -0.490311064532649166E+01    0.129600945599256251E+00   -0.325049575289808512E+01
    0.169929555847532555E+03   -0.110370512466139492E+01   -0.497121896011337139E+01    0.250838364183745333E+00   -0.324098517563836452E+01
    0.141141700553571582E+03   -0.121752866499012802E+01   -0.383897202220661216E+01    0.381547467004752949E+00   -0.323930342748542355E+01
    0.142551040883971666E+03   -0.141510243232356925E+01   -0.421046958070566379E+01    0.495301575018773976E+00   -0.323347854987832051E+01
    0.143776127719139538E+03   -0.187626995049652501E+01   -0.456786776654682836E+01    0.303435394944076231E+00   -0.321152417922635181E+01
    0.143776127719139538E+03   -0.187626995049652501E+01   -0.456786776654682836E+01    0.303435394944076231E+00   -0.321152417922635181E+01
    0.156057634716058004E+03   -0.194875471566325653E+01   -0.450457689404871342E+01    0.232390466237297699E+00   -0.321100922835813751E+01
    0.176165031190946422E+03   -0.891933726295808915E+00   -0.427225613622527778E+01    0.322147236236694279E+00   -0.320672412693085640E+01
    0.168266848306735227E+03   -0.179209760109104277E+01   -0.492179484410972279E+01    0.300464259464967631E+00   -0.318529889761807805E+01
    0.226746047159850605E+03   -0.573576441568996342E+00   -0.449526285572857986E+01    0.193878389385883254E+00   -0.318360159313618984E+01
    0.147214578190576333E+03   -0.148127943700695486E+01   -0.468049509005751307E+01    0.301999698178773757E+00   -0.316662246968486105E+01
    0.215052825464096713E+03   -0.205810735082423868E+00   -0.411563890210226457E+01    0.843471200916927066E-01   -0.313834589898137173E+01
    0.215052825464096713E+03   -0.205810735082423868E+00   -0.411563890210226457E+01    0.843471200916927066E-01   -0.313834589898137173E+01
    0.302559234011944227E+03   -0.111694311195310458E+01   -0.492193796235454251E+01    0.145220068241228628E+00   -0.313267136427104065E+01
    0.189027754826687897E+03   -0.154596716058807493E+01   -0.461571158614763188E+01    0.404151827509626416E+00   -0.313041485851384138E+01
    0.165374120196509978E+03   -0.583179234168453409E+00   -0.459162355454871651E+01    0.427568338205564169E+00   -0.312614466855976136E+01
    0.165374120196509978E+03   -0.583179234168453409E+00   -0.459162355454871651E+01    0.427568338205564169E+00   -0.312614466855976136E+01
    0.321654223261303457E+03   -0.664616650482389826E+00   -0.475173537300411120E+01    0.255497419671875288E-01   -0.311768725000031388E+01
    0.321654223261303457E+03   -0.664616650482389826E+00   -0.475173537300411120E+01    0.255497419671875288E-01   -0.311768725000031388E+01
    0.277526631951332092E+03   -0.182043290138244629E+01   -0.462196946144104004E+01    0.157400706338882451E+00   -0.311337427565485658E+01
    0.298400974274970622E+03   -0.888628035734449151E+00   -0.468772953323562280E+01    0.699658394341027695E-01   -0.310356917567555879E+01
    0.163521080197659785E+03   -0.156629493329791036E+01   -0.382481524941067752E+01    0.272139251837439422E+00   -0.309616729860273754E+01
    0.163521080197659785E+03   -0.156629493329791036E+01   -0.382481524941067752E+01    0.272139251837439422E+00   -0.309616729860273754E+01
    0.243292490074462478E+03   -0.162507597634685119E+01   -0.406653745905250563E+01    0.745762644531536706E-01   -0.308817953805962553E+01
    0.243292490074462478E+03   -0.162507597634685119E+01   -0.406653745905250563E+01    0.745762644531536706E-01   -0.308817953805962553E+01
    0.178416207893490650E+03   -0.821913911615957504E+00   -0.433557981987147123E+01    0.300886169355377042E+00   -0.308733307548821667E+01
    0.216089613801326266E+03   -0.152903150724692050E+01   -0.450186265616060233E+01    0.130910955301489218E-01   -0.308691356333548672E+01
    0.216089613801326266E+03   -0.152903150724692050E+01   -0.450186265616060233E+01    0.130910955301489218E-01   -0.308691356333548672E+01
    0.158608503014650040E+03   -0.483072089101516111E+00   -0.445534036228140984E+01    0.128185683351163232E+00   -0.307120443385020447E+01
    0.158608503014650040E+03   -0.483072089101516111E+00   -0.445534036228140984E+01    0.128185683351163232E+00   -0.307120443385020447E+01
    0.173117589719015200E+03   -0.136230116416402924E+01   -0.466865734608506067E+01    0.198460482688365830E+00   -0.306998601307073482E+01
    0.164225752252673971E+03   -0.162073853325580108E+01   -0.383190494688546801E+01    0.269169144194375154E+00   -0.306894650879707331E+01
    0.301230237716010549E+03   -0.157207761605552032E+01   -0.439650946474008819E+01    0.155272754771149987E-01   -0.306620324216777984E+01
    0.180686366768705085E+03   -0.199040976038041695E+01   -0.384019300922347639E+01    0.215971457351468804E+00   -0.306496309645160725E+01
    0.180686366768705085E+03   -0.199040976038041695E+01   -0.384019300922347639E+01    0.215971457351468804E+00   -0.306496309645160725E+01
    0.242630167409061329E+03   -0.115683508751236097E+01   -0.421117115661159946E+01    0.831239372851913932E-01   -0.306294306957770868E+01
    0.160340274003017043E+03   -0.860194108599013463E+00   -0.460749186092651630E+01    0.456101794744114608E+00   -0.305214851695228617E+01
    0.160340274003017043E+03   -0.860194108599013463E+00   -0.460749186092651630E+01    0.456101794744114608E+00   -0.305214851695228617E+01
    0.169775922330855963E+03   -0.121886970384330873E+01   -0.413488526841469195E+01    0.305582159963591282E+00   -0.304840152863837188E+01
    0.196536458376210078E+03   -0.785883704817529116E+00   -0.460883599551154788E+01    0.619075031722681746E-01   -0.304724288350507333E+01
    0.155884062838271689E+03   -0.199066708612792476E+01   -0.387739263135118861E+01    0.332375643283693234E+00   -0.304528903887714719E+01
    0.155884062838271689E+03   -0.199066708612792476E+01   -0.387739263135118861E+01    0.332375643283693234E+00   -0.304528903887714719E+01
    0.260165983109735862E+03   -0.129047305343035035E+01   -0.432224855200606850E+01    0.710571155849297476E-01   -0.304398103961440469E+01
    0.208115967523800094E+03   -0.170146166315028280E+01   -0.416406638050382050E+01    0.203670759576484450E+00   -0.303668566667279771E+01
    0.150322350168754184E+03   -0.803737763432659014E+00   -0.384026882281912751E+01    0.265505771422774206E+00   -0.302078717419532072E+01
    0.176738017062323649E+03   -0.136420232330855318E+01   -0.477115055778730746E+01    0.220821167340738422E+00   -0.301840924819254042E+01
    0.176738017062323649E+03   -0.136420232330855318E+01   -0.477115055778730746E+01    0.220821167340738422E+00   -0.301840924819254042E+01
    0.169711561010552657E+03   -0.377825114123321981E+00   -0.438509650872090262E+01    0.710853665804354190E-01   -0.300472128763106427E+01
    0.208063213174425016E+03   -0.196483748083674392E+01   -0.397710106762945870E+01    0.156882579071679712E+00   -0.300227199466776185E+01
    0.208063213174425016E+03   -0.196483748083674392E+01   -0.397710106762945870E+01    0.156882579071679712E+00   -0.300227199466776185E+01
    0.263766532331159624E+03   -0.136745740386645931E+01   -0.446988870165092056E+01    0.977110859760640382E-01   -0.300108556670582072E+01
    0.263766532331159624E+03   -0.136745740386645931E+01   -0.446988870165092056E+01    0.977110859760640382E-01   -0.300108556670582072E+01
    0.151262400261379923E+03   -0.154393934712550362E+01   -0.391803306668052631E+01    0.102378470913117955E+00   -0.299282153772227577E+01
    0.215613496985686766E+03   -0.190211336228308725E+01   -0.473206446401552316E+01    0.126834377814064647E+00   -0.299212943281517330E+01
    0.257860554754734039E+03   -0.152097427845001221E+01   -0.450319945812225342E+01    0.130083688545227061E+00   -0.298788210418158684E+01
    0.184516114256047160E+03   -0.925459843955678929E+00   -0.481137072115731890E+01    0.399543998501783737E+00   -0.298766608942635337E+01
    0.184516114256047160E+03   -0.925459843955678929E+00   -0.481137072115731890E+01    0.399543998501783737E+00   -0.298766608942635337E+01
    0.182164664656176001E+03   -0.488481797841731513E+00   -0.497964774817058675E+01    0.423386340890360202E+00   -0.298643787977904207E+01
    0.181369258623569323E+03   -0.162776289565383259E+00   -0.425375334623837986E+01    0.188966680841751694E+00   -0.298620078998778027E+01
    0.304791502876815798E+03   -0.143905634419736561E+01   -0.487488945110541660E+01    0.112233558210978968E+00   -0.297810177613722260E+01
    0.254667866071023326E+03   -0.479649277097975668E+00   -0.442235446052531067E+01    0.439278166701810649E-01   -0.297801805458312563E+01
    0.215450592339038849E+03   -0.187191736698150635E+01   -0.413024246692657471E+01    0.165004893136024483E+00   -0.297369728283504919E+01
    0.170194060749274257E+03   -0.186840104276286123E+01   -0.388894902725379543E+01    0.253467965441721899E+00   -0.297290974137209663E+01
    0.190951101522467724E+03   -0.170458918950786664E+01   -0.461659043579546857E+01    0.372100376695188417E+00   -0.296631063237582371E+01
    0.190951101522467724E+03   -0.170458918950786664E+01   -0.461659043579546857E+01    0.372100376695188417E+00   -0.296631063237582371E+01
    0.281196869586018579E+03   -0.187892574107363419E+01   -0.451489757767482036E+01    0.896348265544245348E-01   -0.296537640831570348E+01
    0.329225564325564221E+03   -0.182723032365407967E+01   -0.460250069541872087E+01    0.508023457500755317E-02   -0.296115324253534551E+01
    0.341877619384129900E+03   -0.190700914439011493E+01   -0.495279268163330766E+01    0.845182569411109252E-01   -0.295462646431647125E+01
    0.250338219106197357E+03   -0.175440514087677002E+01   -0.410760939121246338E+01    0.433717491388320928E-01   -0.295353704879003232E+01
    0.260637994701867171E+03   -0.222951260745408275E+00   -0.443252029759914379E+01    0.268599587658922747E-02   -0.295225931018949161E+01
    0.223053431422186918E+03   -0.109527573219305729E+00   -0.430328448868446056E+01    0.636136403976725190E-01   -0.295138955862553276E+01
    0.167917918459226229E+03   -0.157591331924975986E+00   -0.469347559013593152E+01    0.165209616384786234E+00   -0.294440903757441319E+01
    0.138535581448379020E+03    0.204976043799983909E+00   -0.384963328436401175E+01    0.407756631458058242E-02   -0.294172533099222910E+01
    0.198073035422424311E+03   -0.864258035061018504E-01   -0.474572652953380381E+01    0.648650669468123359E-01   -0.293903718107330025E+01
    0.170689047459506412E+03   -0.167208574323175529E+01   -0.424706863221895237E+01    0.142714542943762346E+00   -0.293675872103706137E+01
    0.166540185376069047E+03   -0.761690404716599323E+00   -0.491967560202641341E+01    0.486330936594975449E+00   -0.293182523409193863E+01
    0.183731988835619063E+03   -0.160603245702274844E+01   -0.370098950264469018E+01    0.108608181864944531E+00   -0.293181529505907879E+01
    0.158262619910327828E+03   -0.846880024484937266E-01   -0.448590529757134338E+01    0.336099256512853661E+00   -0.293139629976767857E+01
    0.164265910972003098E+03   -0.114788056808545469E+01   -0.473594383412233100E+01    0.467377095836528533E+00   -0.292914377266426751E+01
    0.190617625622440130E+03   -0.193586929104503436E+01   -0.479715062725184538E+01    0.245198497260885745E+00   -0.292631534294179740E+01
    0.216397093818191138E+03   -0.959117559301258193E+00   -0.414136523952085422E+01    0.957837528702363133E-01   -0.292543635888077524E+01
    0.207498492389002422E+03   -0.162375449860613297E+01   -0.457071808553801340E+01    0.106645803753540588E+00   -0.292438385625767561E+01
    0.159447840468998123E+03   -0.144170156310195852E+01   -0.402195738448309115E+01    0.108404861124225052E+00   -0.292416841881374756E+01
    0.159447840468998123E+03   -0.144170156310195852E+01   -0.402195738448309115E+01    0.108404861124225052E+00   -0.292416841881374756E+01
    0.204126751175524134E+03   -0.181158379079467347E+01   -0.445719952858733581E+01    0.278045821376800839E+00   -0.292402104145128128E+01
    0.301709763058216822E+03   -0.106797119264486451E+01   -0.469706857453028626E+01    0.320683868396672497E-01   -0.292025824536988088E+01
    0.167455328007405342E+03   -0.135430944636478667E+01   -0.421073558644102963E+01    0.310964865810413604E+00   -0.291487593788443089E+01
    0.252883597278801744E+03   -0.840250982045791073E+00   -0.495395791862887869E+01    0.285562366914773741E-01   -0.291213167034267828E+01
    0.155102952165343481E+03   -0.128832243943586211E+01   -0.399761087012708316E+01    0.113210009028862135E+00   -0.290981428554417443E+01
    0.181607039873464259E+03   -0.184260042153772430E+01   -0.424460700027386206E+01    0.279824320384013503E+00   -0.290894895727555047E+01
    0.292671530461060684E+03   -0.124821988345362622E+01   -0.496372869272736672E+01    0.140333446826773983E+00   -0.290832507121310213E+01
    0.172132501006126404E+03   -0.142296546697616577E+01   -0.377731144428253174E+01    0.166311259818077095E+00   -0.290758924372365124E+01
    0.142715079696290104E+03    0.272183381547106862E+00   -0.467415836122756634E+01    0.377060623588837351E+00   -0.290739151291763154E+01
    0.142715079696290104E+03    0.272183381547106862E+00   -0.467415836122756634E+01    0.377060623588837351E+00   -0.290739151291763154E+01
    0.171077414150594763E+03   -0.920351806398738148E-01   -0.489422310514917491E+01    0.215828081820220952E+00   -0.290383557397074288E+01
    0.152251501683198001E+03    0.365365739817158364E+00   -0.377393278808960764E+01    0.376310023088037224E-01   -0.290188392775635995E+01
    0.152251501683198001E+03    0.365365739817158364E+00   -0.377393278808960764E+01    0.376310023088037224E-01   -0.290188392775635995E+01
    0.303261989724286082E+03   -0.139232533357492505E+01   -0.459882566524648251E+01    0.141551680601297511E-01   -0.290144869956806239E+01
    0.220561408696196651E+03   -0.803529065176454171E+00   -0.476952370455865360E+01    0.703192155986900186E-01   -0.290024218753415619E+01
    0.281336591409297171E+03   -0.131497373075095525E+01   -0.466646777373686206E+01    0.797196035459270813E-01   -0.289720874392862804E+01
    0.166052255034446716E+03   -0.567778348922729492E-01   -0.351981580257415771E+01    0.938018360137939447E-02   -0.289690857972689741E+01
    0.162823619787287754E+03   -0.104643966393468668E+01   -0.366443296320490663E+01    0.143449358657326442E+00   -0.289579244268628422E+01
    0.218565405870690540E+03   -0.783549512778936030E+00   -0.424414262888084259E+01    0.971742873489277736E-01   -0.289482892603067077E+01
    0.160067958847824059E+03    0.252594485919524381E+00   -0.407166163795384595E+01    0.121331261308289043E+00   -0.289309429217927550E+01
    0.131813076431188080E+03   -0.181444953196846703E+01   -0.397042953663244536E+01    0.422602800165787773E+00   -0.288967144621733496E+01
    0.228718047251666746E+03   -0.494533599113765376E+00   -0.410930521397358639E+01    0.106298710494949142E-02   -0.288586045112995926E+01
    0.213888691316235509E+03   -0.618669626128871109E+00   -0.459016957285647997E+01    0.306647648960587903E-01   -0.288356431612757369E+01
    0.164500851941350135E+03   -0.164426592132184934E+01   -0.350547309745577884E+01    0.123462342575322029E+00   -0.288206259461366621E+01
    0.228927710544287265E+03   -0.687224625472172779E+00   -0.432124968995253056E+01    0.740060886239783389E-01   -0.288135346384994850E+01
    0.210350909504729941E+03   -0.112155742266920733E+01   -0.464688631764508742E+01    0.256912916120846324E+00   -0.288092839001370393E+01
    0.253334473720148452E+03   -0.870265693199396395E+00   -0.448279319635402640E+01    0.647094260461878595E-01   -0.287932815106571605E+01
    0.171773098801787683E+03   -0.192284312451595474E+01   -0.356184603085063456E+01    0.124249424911351852E+00   -0.287769888730676549E+01
    0.209636979112638187E+03   -0.159232562267491451E+01   -0.495302299494906073E+01    0.374715986364784204E+00   -0.287759181926501695E+01
    0.305452436149211962E+03   -0.135080864976966519E+01   -0.471079173812637642E+01    0.291303011884511860E-01   -0.287625737176118079E+01
    0.220399183273813122E+03   -0.893955471767211796E+00   -0.399747114398453451E+01    0.214373114347564085E-01   -0.287482760019991179E+01
    0.316738995415410727E+03   -0.145449230310011890E+01   -0.477997089100836181E+01    0.309875846672897810E-01   -0.287304103553718404E+01
    0.152162724675258886E+03   -0.138429298402710144E+01   -0.412308115023365662E+01    0.182970208432157028E+00   -0.287244971689817685E+01
    0.190210104084979889E+03   -0.758144076975256542E+00   -0.422671482382537356E+01    0.140101222375083410E-01   -0.287228474120033539E+01
    0.300073667066838311E+03   -0.155170664307516271E+01   -0.483916272630669297E+01    0.894233632219773034E-01   -0.287050693532939194E+01
    0.183797065745277507E+03   -0.179791586431133332E+01   -0.400459084393128073E+01    0.185877633590735086E+00   -0.286835153708325752E+01
    0.247770013383190843E+03   -0.197342917020129760E+01   -0.421592743068473563E+01    0.373271296213768741E-01   -0.281042464084210364E+01
    0.223231384459968666E+03   -0.199529144331775798E+01   -0.404200536876845717E+01    0.520962397734593963E-01   -0.279988298997563900E+01
    0.201007773101638634E+03   -0.187649598609504187E+01   -0.390766862800428738E+01    0.230280101559860971E-01   -0.278553229261851021E+01
    0.181979775405070257E+03   -0.144829682230236445E+01   -0.401415833302301905E+01    0.928194594189797884E-01   -0.277230088653682127E+01
    0.182426251145975442E+03   -0.162538842888301382E+01   -0.391329016854364919E+01    0.150557944031879137E+00   -0.285930739014943569E+01
    0.190078088641166687E+03   -0.185428023338317871E+01   -0.395629405975341797E+01    0.126948340272903443E+00   -0.280325863071184145E+01
    0.179102784323562247E+03   -0.170567588064991194E+01   -0.405510383135589869E+01    0.124085441909874611E+00   -0.278060241057667668E+01
    0.186173665672282169E+03   -0.196382305263625878E+01   -0.403150526605874759E+01    0.196486723818729447E+00   -0.286796186807586961E+01
    0.187082796588494659E+03   -0.156649606063497981E+01   -0.425604196154566239E+01    0.159108637912878131E+00   -0.277375886898256008E+01
    0.194955721321310307E+03   -0.194843145490216685E+01   -0.439223998427478790E+01    0.143670548345765203E+00   -0.285332549251603673E+01
    0.226293821967404625E+03   -0.159998794511814091E+01   -0.405422283950300510E+01    0.125771918839402749E-01   -0.278505689852437310E+01
    0.183036740124225616E+03   -0.177219533920288086E+01   -0.432837665081024170E+01    0.221299095940589913E+00   -0.277897931249468577E+01
    0.177050909615271024E+03   -0.180430170466222628E+01   -0.440082402879786372E+01    0.232699091799245167E+00   -0.278820841530625962E+01
    0.210515711687483588E+03   -0.882394814163274699E+00   -0.461780159767429588E+01    0.178209961474179890E+00   -0.277603141642360285E+01
    0.202282909855411162E+03   -0.121923048022585290E+01   -0.438951562727794631E+01    0.839440388552752381E-01   -0.281709368050207587E+01
    0.212858679572203442E+03   -0.929539953924044315E+00   -0.430873318412138140E+01    0.253411133762866149E-01   -0.278308636820485988E+01
    0.204388224136476992E+03   -0.105170967700447404E+01   -0.439500760894758358E+01    0.124458203421860703E+00   -0.276584128217756797E+01
    0.210005740342334889E+03   -0.100437957830096547E+01   -0.424767122870517877E+01    0.122852790729324493E+00   -0.284764149224026619E+01
    0.200483062790044215E+03   -0.681716029806471724E+00   -0.445873694998891157E+01    0.535468809996655845E-01   -0.284913186745815095E+01
    0.209271472956287425E+03   -0.793101852526165496E+00   -0.411868776054862629E+01    0.600824451072066376E-01   -0.281677446352390914E+01
    0.222685027171793564E+03   -0.137166689001244801E+01   -0.405137222647573569E+01    0.239922019299692582E-02   -0.277621508237578540E+01
    0.256971992550164828E+03   -0.136296427074429372E+01   -0.423412393306980839E+01    0.614161588185420902E-02   -0.285624191167928743E+01
    0.234085739843999988E+03   -0.130154477760433718E+01   -0.429660804042759370E+01    0.656226971447734647E-01   -0.282134027330807458E+01
    0.239680064357738047E+03   -0.115681851953498205E+01   -0.419195404027645324E+01    0.143674659992953282E-01   -0.282568089786414500E+01
    0.229540422036637551E+03   -0.145377452876240243E+01   -0.447892140748158951E+01    0.447784467373265119E-01   -0.280734419243609201E+01
    0.191737678558668904E+03   -0.121057760557821581E+01   -0.383901653629017314E+01    0.704479997368736149E-01   -0.283375016580440597E+01
    0.241368089781835380E+03   -0.112816969943293621E+01   -0.433768381813632953E+01    0.229967511722456164E-01   -0.278264450466827773E+01
    0.247737057457053538E+03   -0.600222485592835753E+00   -0.467210169652024643E+01    0.477896080444722149E-01   -0.276265813419321038E+01
    0.240379694917467191E+03   -0.411642423872189411E+00   -0.491820434169502629E+01    0.102649201208245264E+00   -0.275854866887237282E+01
    0.230819689984172044E+03   -0.811701140959339984E+00   -0.460123929309808322E+01    0.110733284213572328E+00   -0.278451387029737374E+01
    0.220575998495257750E+03   -0.900111071446097366E+00   -0.499625844276801967E+01    0.226707647892437858E+00   -0.276319764950208668E+01
    0.239653739663000835E+03   -0.129953739550066261E+01   -0.446815648738186599E+01    0.470581097017164843E-01   -0.276914494180696513E+01
    0.282435435158274231E+03   -0.199032540756724075E+01   -0.474108726780272072E+01    0.236081065600867238E-01   -0.280224385730663261E+01
    0.262110292123012186E+03   -0.159097236963327493E+01   -0.473114341956105822E+01    0.125151589997336082E+00   -0.281247034556506748E+01
    0.275664460881938169E+03   -0.133745396563238739E+01   -0.445260185717058121E+01    0.134273387745143229E-01   -0.284726293122349139E+01
    0.263088470887693347E+03   -0.131675428711435605E+01   -0.478413308114602565E+01    0.253187870048165314E-01   -0.281369279119749161E+01
    0.266899111695395959E+03   -0.174363843002916230E+01   -0.474922752110818003E+01    0.664126369814502793E-01   -0.278001795909285576E+01
    0.294468674577595777E+03   -0.143045611546790230E+01   -0.467894826128519359E+01    0.492843813092339392E-01   -0.285988377113769099E+01
    0.238478752605469509E+03   -0.131318155208162035E+01   -0.480770820293597456E+01    0.180302568105382921E+00   -0.278952654288219470E+01
    0.262313078686888502E+03   -0.129484016143850322E+01   -0.482213997411402850E+01    0.451847558723844633E-01   -0.279956069999067747E+01
    0.269263661360170545E+03   -0.190677452172261264E+01   -0.482747979912591774E+01    0.131657544157615686E+00   -0.279041421619664209E+01
    0.291800347656673353E+03   -0.179484724603711965E+01   -0.469480471237059138E+01    0.378270214715315037E-01   -0.278692647771843305E+01
    0.262201419865721334E+03   -0.162753549125771979E+01   -0.445269014179933098E+01    0.340640041602344526E-01   -0.279301788429772913E+01
    0.242386488616466522E+03   -0.989528894424438477E+00   -0.484232664108276367E+01    0.883911784172058124E-01   -0.278954480108554037E+01
    0.255537902750933966E+03   -0.110095062332966220E+01   -0.497506396032231812E+01    0.987089856288192180E-01   -0.279186042984724248E+01
    0.252520326037667303E+03   -0.798532765527264266E+00   -0.498740853722723365E+01    0.100861788526776880E+00   -0.277360853529534879E+01
    0.271716059488968881E+03   -0.898792766471457671E+00   -0.476100714345697007E+01    0.683905848383337678E-01   -0.281463531475298723E+01
    0.258721132342503495E+03   -0.636442211862511709E+00   -0.494728140424424279E+01    0.822832528080422732E-01   -0.276018997262858212E+01
    0.323778863680184713E+03   -0.873539246069386932E+00   -0.489623047692636515E+01    0.316869359711132023E-02   -0.283912390028753725E+01
    0.231815175052971540E+03   -0.136229219888100950E+01   -0.477286709191100922E+01    0.151990106587099133E+00   -0.277114074047339987E+01
    0.259917169271805960E+03   -0.171848631733707347E+01   -0.444625775203292317E+01    0.511856705731141351E-01   -0.280340564187575536E+01
    0.244572200333866078E+03   -0.192916711460440227E+01   -0.460587663910157730E+01    0.151475664742868527E+00   -0.280580249132769399E+01
    0.230649160841277990E+03   -0.110154106689366893E+01   -0.456839009434296983E+01    0.739612211878791642E-01   -0.276978473608911058E+01
    0.204415652536288576E+03   -0.641109728965351344E+00   -0.445278014058128235E+01    0.120888501840424031E+00   -0.276406585776007008E+01
    0.185630663841951161E+03   -0.335303577763618410E+00   -0.456778792386730625E+01    0.216376802233664012E+00   -0.279949620531479892E+01
    0.189147377622837041E+03   -0.186886284989644436E+00   -0.482965043556104323E+01    0.155735758201013791E+00   -0.284008826772842493E+01
    0.199638483861503119E+03   -0.853795589983477043E-01   -0.439492943166540773E+01    0.695919954085287146E-01   -0.276070326562081814E+01
    0.170356772319634615E+03    0.765140614855712720E-01   -0.427599529630817443E+01    0.883634833344886378E-01   -0.277696967996956623E+01
    0.176847263206012741E+03    0.145758603223326233E+00   -0.442162015175266454E+01    0.714265014950735966E-01   -0.280016909504082223E+01
    0.200768322213478086E+03   -0.681313646514909443E-01   -0.452050585011331929E+01    0.359136212443236721E-01   -0.280781986806126094E+01
    0.184746153840831596E+03    0.188973405772564718E+00   -0.498689656962432171E+01    0.168459396612584633E+00   -0.285074563399981784E+01
    0.155214888958844170E+03   -0.156435841970469003E+00   -0.437967131477986538E+01    0.147976679717602949E+00   -0.286666921717250256E+01
    0.165177277922372753E+03    0.284678555439499270E-01   -0.427375564211521297E+01    0.196815766730808556E+00   -0.284622731538529994E+01
    0.206361999859074814E+03   -0.541969478030894791E+00   -0.486969468445293963E+01    0.244536261107307501E+00   -0.277854814677162798E+01
    0.196257130136786571E+03   -0.596636314283764513E+00   -0.473846744085208638E+01    0.187736890212984203E+00   -0.277040640674406458E+01
    0.168994396176481018E+03    0.114939597341931155E+00   -0.485142730485375129E+01    0.241237905766288424E+00   -0.279357050795554684E+01
    0.163937304998069010E+03    0.251970598036363125E+00   -0.496959920228134422E+01    0.267089214896113647E+00   -0.283016041601644552E+01
    0.180948503021014716E+03   -0.117138559240759665E+00   -0.485241029710689542E+01    0.254195626576116718E+00   -0.275878929555102381E+01
    0.143043204158566226E+03   -0.317086808524590147E+00   -0.454380221223054281E+01    0.355541712229790474E+00   -0.275941644947791431E+01
    0.143032766601169357E+03    0.265026750728685201E-01   -0.477081585571130784E+01    0.430612675397311850E+00   -0.282636218430699593E+01
    0.137481001281839298E+03    0.145948204296431072E-02   -0.486676371868077418E+01    0.404467100339955643E+00   -0.277753238689540716E+01
    0.219000087198568110E+03   -0.352178688248800054E+00   -0.474851446428778701E+01    0.490311467037898435E-01   -0.285238084337354181E+01
    0.174677296177196695E+03    0.876905997109433955E-02   -0.487219416113132997E+01    0.301755814333607986E+00   -0.278907142080129411E+01
    0.181141936532061720E+03   -0.594650482781007295E+00   -0.412904805827125454E+01    0.107962010011172865E+00   -0.277716270708949331E+01
    0.187650417577397747E+03   -0.545201372215925684E+00   -0.411645311337974285E+01    0.967528971136696198E-02   -0.278814129233623476E+01
    0.169352361491237446E+03   -0.333751814608123532E+00   -0.408459587796102586E+01    0.326979810546789776E-01   -0.283687505912101434E+01
    0.126108766671294660E+03    0.785989526306880570E-01   -0.320786409393175198E+01    0.383980579449596585E-01   -0.281114683790167152E+01
    0.153172572629707417E+03   -0.525273116297139797E+00   -0.381943025289363591E+01    0.887389942182712360E-01   -0.276234281496105449E+01
    0.159954275865509487E+03   -0.738426571586064950E+00   -0.397997408205088110E+01    0.122758855452458682E+00   -0.276459714331502493E+01
    0.152114335940259110E+03   -0.237766751084090400E+00   -0.401265876394406362E+01    0.142910153117103339E+00   -0.275766270813977954E+01
    0.156876628356846652E+03   -0.377567478806989154E+00   -0.364542465576552566E+01    0.535004950909592769E-01   -0.277343035519012115E+01
    0.162508938363921686E+03   -0.772116580005450137E+00   -0.388950080081665606E+01    0.659530477146226118E-01   -0.278649350132743434E+01
    0.146451754844651845E+03   -0.370412730330488937E+00   -0.417487723996032223E+01    0.181010921085642845E+00   -0.279222134062471827E+01
    0.159029844044898738E+03   -0.330967549569845865E+00   -0.366600505798225429E+01    0.322850035300832061E-01   -0.276184567841535333E+01
    0.132279935879529461E+03   -0.125914844365841105E+01   -0.316795327641439517E+01    0.121511148707495520E+00   -0.281920500791362771E+01
    0.129435766421461039E+03   -0.114660844428093323E+01   -0.355745011918917564E+01    0.192602884519719741E+00   -0.276665830672966440E+01
    0.132048564426109294E+03   -0.279706764028083921E+00   -0.329317383370367711E+01    0.724316238589475525E-01   -0.278910659951902762E+01
    0.132637286558405407E+03   -0.789896552380640715E+00   -0.333964384547763871E+01    0.477103204861704516E-01   -0.278144799187333014E+01
    0.128307090395201300E+03   -0.881037087967649457E+00   -0.370002769282960564E+01    0.219201750277811358E+00   -0.276247066175346712E+01
    0.132495786009907647E+03   -0.149619467301819276E+01   -0.367711819396641104E+01    0.193829176900815747E+00   -0.279676917458449692E+01
    0.147071416945716322E+03   -0.156565831406325295E+01   -0.351868465555135934E+01    0.182040457177889803E+00   -0.284345680620392383E+01
    0.139973665960778789E+03   -0.175700736414670522E+01   -0.361778634289751988E+01    0.176226810717897836E+00   -0.278108601494035845E+01
    0.127797041853263707E+03   -0.139272634652435112E+01   -0.350774991339230002E+01    0.212465370531038505E+00   -0.277255189156738258E+01
    0.138969760882724785E+03   -0.155338806140220709E+01   -0.404063388346686647E+01    0.242817871419826414E+00   -0.285055944065815714E+01
    0.128657593837008989E+03   -0.167529723081200288E+01   -0.400477117521120896E+01    0.366898225542191814E+00   -0.277526021829929581E+01
    0.138566566596235504E+03   -0.177814815000131698E+01   -0.408557002107199363E+01    0.387881360778488615E+00   -0.281770820384608411E+01
    0.168822229392082647E+03   -0.465092118182965031E+00   -0.409106908621681864E+01    0.961650120184402157E-01   -0.276424913812114115E+01
    0.189453327832251261E+03   -0.104105875013384175E+01   -0.464554425918786862E+01    0.185576160087096376E+00   -0.281143164259883171E+01
    0.180235610796675076E+03   -0.936247115423772591E+00   -0.470569712979363075E+01    0.200893608660943801E+00   -0.285567650311066279E+01
    0.190855257921406633E+03   -0.460299881302641545E+00   -0.492830306340108937E+01    0.327924877056188668E+00   -0.281619457983362587E+01
    0.125147656038883696E+03   -0.943870362610046643E+00   -0.452007221931197734E+01    0.423931934299640656E+00   -0.282102294518434960E+01
    0.127294160425662994E+03   -0.654143154621124268E+00   -0.470398366451263428E+01    0.547476884651184048E+00   -0.279615370371876226E+01
    0.125360320070118604E+03   -0.945469415017258008E+00   -0.457251677722446459E+01    0.570152912706292980E+00   -0.285864667846211074E+01
    0.152235112429838551E+03   -0.513277885454078486E+00   -0.469998587351084662E+01    0.434709336882111941E+00   -0.284699877475402063E+01
    0.163189247964198785E+03   -0.773549728704244322E+00   -0.490228255141205072E+01    0.369247494153576050E+00   -0.277428634844584643E+01
    0.138242996670158760E+03   -0.117701449830791338E+01   -0.442819632592023193E+01    0.329050595226262732E+00   -0.285800959005300292E+01
    0.172153596580028534E+03   -0.155356955528259277E+01   -0.435067772865295410E+01    0.301451361894607528E+00   -0.281327926652846250E+01
    0.140176218955097369E+03   -0.162472795424750238E+01   -0.455512445916774933E+01    0.412876482804197420E+00   -0.281138240223132030E+01
    0.133155507750183233E+03   -0.149364926883034599E+01   -0.423366874490349243E+01    0.415436034675449317E+00   -0.278171189798847340E+01
    0.141635740556907763E+03   -0.134789100221309965E+01   -0.453382231320750329E+01    0.371919987495620608E+00   -0.282276491025413678E+01
    0.146096335955355613E+03   -0.120103227632856302E+01   -0.459954064531267814E+01    0.356863325019651290E+00   -0.282629718516557737E+01
    0.150834815873925550E+03   -0.191163774691525967E+01   -0.467802552793806736E+01    0.517996928795301459E+00   -0.283392474109289205E+01
    0.162475028198309076E+03   -0.197639891292808612E+01   -0.475136162820318564E+01    0.420517924214918459E+00   -0.278348103179094819E+01
    0.175985042492289494E+03   -0.195235143050469451E+01   -0.460326824099460996E+01    0.397601461520593058E+00   -0.285579771197990517E+01
    0.173225461540056585E+03   -0.150842186106237475E+01   -0.473202067788577896E+01    0.318579728133720930E+00   -0.279721091159208957E+01
    0.153084475233147572E+03   -0.106441398553323796E+01   -0.447376762322305765E+01    0.260400240479597533E+00   -0.286483991176090136E+01
    0.173448662221337827E+03   -0.937838468113143309E+00   -0.441930485489129143E+01    0.266634626796936891E+00   -0.279463812779753074E+01
    0.187939916195209435E+03   -0.139765894915671218E+01   -0.447237293751833320E+01    0.253870486752310276E+00   -0.279913089127297443E+01
    0.186290236870633038E+03   -0.108539821351139687E+01   -0.457481905796836053E+01    0.229203311880907729E+00   -0.276601511541050593E+01
    0.210068986858475853E+03   -0.136875842501531220E+01   -0.490423631725651354E+01    0.342077718156824584E+00   -0.286735151156109591E+01
    0.172077553687771996E+03   -0.162432752793946800E+01   -0.491793163871191386E+01    0.361987984929735496E+00   -0.284168781112276791E+01
    0.180665039648488857E+03   -0.117820402250022926E+01   -0.486097335507561734E+01    0.351781243423197276E+00   -0.277316793344857615E+01
    0.186446342983048851E+03   -0.130012283753409341E+01   -0.486484916282301505E+01    0.317448383923108590E+00   -0.276974803038855377E+01
    0.170626297984188028E+03   -0.133502020013690759E+01   -0.477473642970980716E+01    0.399213354410808963E+00   -0.278472955270895905E+01
    0.148799938873844923E+03   -0.676278867344114021E+00   -0.478148606719574865E+01    0.401121867567799217E+00   -0.276440253968545724E+01
    0.157479776000492109E+03   -0.967713510029781343E+00   -0.453908113645086608E+01    0.341718471205798346E+00   -0.276720141500643457E+01
